svm_type c_svc
kernel_type rbf
gamma 0.00333333
nr_class 2
total_sv 364
rho -0.975939
label 1 -1
nr_sv 324 40
SV
0.002576645322165916 1:89 2:85 3:67 4:49 5:39 6:37 7:29 8:27 9:27 10:25 11:24 12:21 13:21 14:20 15:20 16:19 17:19 18:19 19:18 20:16 21:15 22:15 23:15 24:15 25:14 26:14 27:14 28:14 29:14 30:14 31:13 32:13 33:12 34:11 35:11 36:11 37:11 38:10 39:10 40:10 41:10 42:10 43:10 44:10 45:9 46:9 47:9 48:9 49:9 50:9 51:9 52:9 53:9 54:9 55:9 56:9 57:8 58:8 59:8 60:8 61:8 62:8 63:8 64:8 65:8 66:7 67:7 68:7 69:7 70:7 71:7 72:7 73:7 74:6 75:6 76:6 77:6 78:6 79:6 80:6 81:6 82:6 83:6 84:6 85:6 86:6 87:6 88:6 89:6 90:5 91:5 92:5 93:5 94:5 95:5 96:5 97:5 98:5 99:5 100:5 101:5 102:5 103:5 104:5 105:5 106:5 107:5 108:5 109:5 110:5 111:5 112:5 113:5 114:4 115:4 116:4 117:4 118:4 119:4 120:4 121:4 122:4 123:4 124:4 125:4 126:4 127:4 128:4 129:4 130:4 131:4 132:4 133:4 134:4 135:4 136:4 137:4 138:4 139:4 140:4 141:4 142:4 143:4 144:4 145:4 146:4 147:4 148:4 149:4 150:4 151:4 152:4 153:4 154:4 155:4 156:3 157:3 158:3 159:3 160:3 161:3 162:3 163:3 164:3 165:3 166:3 167:3 168:3 169:3 170:3 171:3 172:3 173:3 174:3 175:3 176:3 177:3 178:3 179:3 180:3 181:3 182:3 183:3 184:3 185:3 186:3 187:3 188:3 189:3 190:3 191:3 192:3 193:3 194:3 195:3 196:3 197:3 198:3 199:3 200:3 201:3 202:3 203:3 204:3 205:3 206:3 207:3 208:3 209:3 210:3 211:3 212:3 213:3 214:3 215:2 216:2 217:2 218:2 219:2 220:2 221:2 222:2 223:2 224:2 225:2 226:2 227:2 228:2 229:2 230:2 231:2 232:2 233:2 234:2 235:2 236:2 237:2 238:2 239:2 240:2 241:2 242:2 243:2 244:2 245:2 246:2 247:2 248:2 249:2 250:2 251:2 252:2 253:2 254:2 255:2 256:2 257:2 258:2 259:2 260:2 261:2 262:2 263:2 264:2 265:2 266:2 267:2 268:2 269:2 270:2 271:2 272:2 273:2 274:2 275:2 276:2 277:2 278:2 279:2 280:2 281:2 282:2 283:2 284:2 285:2 286:2 287:2 288:2 289:2 290:2 291:2 292:2 293:2 294:2 295:2 296:2 297:2 298:2 299:2 300:2 
0.002987075844244326 1:64 2:56 3:39 4:32 5:28 6:27 7:26 8:26 9:25 10:22 11:22 12:21 13:20 14:20 15:19 16:19 17:18 18:18 19:18 20:18 21:17 22:17 23:16 24:16 25:15 26:15 27:15 28:15 29:14 30:14 31:14 32:14 33:13 34:13 35:13 36:13 37:13 38:13 39:12 40:12 41:12 42:12 43:12 44:11 45:11 46:11 47:10 48:10 49:10 50:10 51:10 52:10 53:9 54:9 55:9 56:9 57:9 58:9 59:9 60:9 61:9 62:8 63:8 64:8 65:8 66:8 67:8 68:8 69:8 70:8 71:8 72:8 73:8 74:7 75:7 76:7 77:7 78:7 79:7 80:7 81:7 82:7 83:7 84:7 85:7 86:7 87:7 88:7 89:7 90:7 91:6 92:6 93:6 94:6 95:6 96:6 97:6 98:6 99:6 100:6 101:6 102:6 103:6 104:6 105:6 106:6 107:6 108:6 109:5 110:5 111:5 112:5 113:5 114:5 115:5 116:5 117:5 118:5 119:5 120:5 121:5 122:5 123:5 124:5 125:5 126:5 127:5 128:5 129:5 130:5 131:5 132:5 133:5 134:5 135:5 136:5 137:5 138:5 139:5 140:5 141:5 142:5 143:5 144:5 145:4 146:4 147:4 148:4 149:4 150:4 151:4 152:4 153:4 154:4 155:4 156:4 157:4 158:4 159:4 160:4 161:4 162:4 163:4 164:4 165:4 166:4 167:4 168:4 169:4 170:4 171:4 172:4 173:4 174:4 175:4 176:4 177:4 178:4 179:4 180:4 181:4 182:4 183:4 184:4 185:4 186:4 187:4 188:4 189:4 190:4 191:4 192:4 193:4 194:4 195:4 196:3 197:3 198:3 199:3 200:3 201:3 202:3 203:3 204:3 205:3 206:3 207:3 208:3 209:3 210:3 211:3 212:3 213:3 214:3 215:3 216:3 217:3 218:3 219:3 220:3 221:3 222:3 223:3 224:3 225:3 226:3 227:3 228:3 229:3 230:3 231:3 232:3 233:3 234:3 235:3 236:3 237:3 238:3 239:3 240:3 241:3 242:3 243:3 244:3 245:3 246:3 247:3 248:3 249:3 250:3 251:3 252:3 253:3 254:3 255:3 256:3 257:3 258:2 259:2 260:2 261:2 262:2 263:2 264:2 265:2 266:2 267:2 268:2 269:2 270:2 271:2 272:2 273:2 274:2 275:2 276:2 277:2 278:2 279:2 280:2 281:2 282:2 283:2 284:2 285:2 286:2 287:2 288:2 289:2 290:2 291:2 292:2 293:2 294:2 295:2 296:2 297:2 298:2 299:2 300:2 
0.002195812959660263 1:72 2:34 3:31 4:26 5:24 6:23 7:23 8:22 9:22 10:21 11:21 12:20 13:18 14:18 15:18 16:17 17:17 18:16 19:16 20:15 21:15 22:14 23:14 24:13 25:13 26:12 27:12 28:11 29:11 30:11 31:11 32:10 33:9 34:9 35:9 36:9 37:9 38:8 39:8 40:8 41:8 42:8 43:7 44:7 45:7 46:7 47:7 48:7 49:7 50:7 51:7 52:7 53:7 54:7 55:7 56:6 57:6 58:6 59:6 60:6 61:6 62:6 63:6 64:6 65:6 66:6 67:6 68:5 69:5 70:5 71:5 72:5 73:5 74:5 75:5 76:5 77:5 78:5 79:5 80:5 81:5 82:5 83:5 84:5 85:5 86:5 87:5 88:5 89:4 90:4 91:4 92:4 93:4 94:4 95:4 96:4 97:4 98:4 99:4 100:4 101:4 102:4 103:4 104:4 105:4 106:4 107:4 108:4 109:4 110:4 111:4 112:4 113:4 114:4 115:4 116:4 117:4 118:4 119:3 120:3 121:3 122:3 123:3 124:3 125:3 126:3 127:3 128:3 129:3 130:3 131:3 132:3 133:3 134:3 135:3 136:3 137:3 138:3 139:3 140:3 141:3 142:3 143:3 144:3 145:3 146:3 147:3 148:3 149:3 150:3 151:3 152:3 153:3 154:3 155:3 156:3 157:3 158:3 159:3 160:3 161:3 162:3 163:3 164:3 165:3 166:3 167:3 168:3 169:3 170:3 171:3 172:3 173:3 174:3 175:3 176:3 177:3 178:2 179:2 180:2 181:2 182:2 183:2 184:2 185:2 186:2 187:2 188:2 189:2 190:2 191:2 192:2 193:2 194:2 195:2 196:2 197:2 198:2 199:2 200:2 201:2 202:2 203:2 204:2 205:2 206:2 207:2 208:2 209:2 210:2 211:2 212:2 213:2 214:2 215:2 216:2 217:2 218:2 219:2 220:2 221:2 222:2 223:2 224:2 225:2 226:2 227:2 228:2 229:2 230:2 231:2 232:2 233:2 234:2 235:2 236:2 237:2 238:2 239:2 240:2 241:2 242:2 243:2 244:2 245:2 246:2 247:2 248:2 249:2 250:2 251:2 252:2 253:2 254:2 255:2 256:2 257:2 258:2 259:2 260:2 261:2 262:2 263:2 264:2 265:2 266:2 267:2 268:2 269:2 270:2 271:2 272:2 273:2 274:2 275:2 276:2 277:2 278:2 279:2 280:2 281:2 282:2 283:2 284:2 285:2 286:2 287:2 288:2 289:2 290:2 291:2 292:2 293:2 294:2 295:2 296:2 297:2 298:2 299:2 300:2 
0.01524221692993527 1:72 2:25 3:24 4:18 5:15 6:14 7:13 8:13 9:11 10:10 11:9 12:9 13:8 14:8 15:7 16:7 17:7 18:7 19:5 20:5 21:5 22:5 23:5 24:5 25:5 26:5 27:4 28:4 29:4 30:4 31:4 32:4 33:4 34:4 35:4 36:4 37:3 38:3 39:3 40:3 41:3 42:3 43:3 44:3 45:3 46:3 47:3 48:3 49:3 50:3 51:3 52:3 53:3 54:3 55:2 56:2 57:2 58:2 59:2 60:2 61:2 62:2 63:2 64:2 65:2 66:2 67:2 68:2 69:2 70:2 71:2 72:2 73:2 74:2 75:2 76:2 77:2 78:2 79:2 80:2 81:2 82:2 83:2 84:2 85:2 86:2 87:2 88:2 89:2 90:2 91:2 92:2 93:2 94:2 95:2 96:2 97:2 98:2 99:2 100:2 101:2 102:2 103:2 104:2 105:2 106:2 107:2 108:1 109:1 110:1 111:1 112:1 113:1 114:1 115:1 116:1 117:1 118:1 119:1 120:1 121:1 122:1 123:1 124:1 125:1 126:1 127:1 128:1 129:1 130:1 131:1 132:1 133:1 134:1 135:1 136:1 137:1 138:1 139:1 140:1 141:1 142:1 143:1 144:1 145:1 146:1 147:1 148:1 149:1 150:1 151:1 152:1 153:1 154:1 155:1 156:1 157:1 158:1 159:1 160:1 161:1 162:1 163:1 164:1 165:1 166:1 167:1 168:1 169:1 170:1 171:1 172:1 173:1 174:1 175:1 176:1 177:1 178:1 179:1 180:1 181:1 182:1 183:1 184:1 185:1 186:1 187:1 188:1 189:1 190:1 191:1 192:1 193:1 194:1 195:1 196:1 197:1 198:1 199:1 200:1 201:1 202:1 203:1 204:1 205:1 206:1 207:1 208:1 209:1 210:1 211:1 212:1 213:1 214:1 215:1 216:1 217:1 218:1 219:1 220:1 221:1 222:1 223:1 224:1 225:1 226:1 227:1 228:1 229:1 230:1 231:1 232:1 233:1 234:1 235:1 236:1 237:1 238:1 239:1 240:1 241:1 242:1 243:1 244:1 245:1 246:1 247:1 248:1 249:1 250:1 251:1 252:1 253:1 254:1 255:1 256:1 257:1 258:1 259:1 260:1 261:1 262:1 263:1 264:1 265:1 266:1 267:1 268:1 269:1 270:1 271:1 272:1 273:1 274:1 275:1 276:1 277:1 278:1 279:1 280:1 281:1 282:1 283:1 284:1 285:1 286:1 287:1 288:1 289:1 290:1 291:1 292:1 293:1 294:1 295:1 296:1 297:1 298:1 299:1 300:1 
0.0039518091397599 1:93 2:61 3:40 4:27 5:25 6:22 7:22 8:20 9:20 10:18 11:18 12:18 13:18 14:17 15:16 16:15 17:15 18:15 19:14 20:14 21:14 22:14 23:14 24:13 25:13 26:13 27:13 28:13 29:12 30:12 31:11 32:10 33:10 34:10 35:10 36:10 37:9 38:9 39:9 40:9 41:9 42:9 43:8 44:8 45:8 46:8 47:8 48:8 49:8 50:8 51:8 52:8 53:7 54:7 55:7 56:7 57:7 58:6 59:6 60:6 61:6 62:6 63:6 64:6 65:6 66:6 67:6 68:6 69:6 70:6 71:5 72:5 73:5 74:5 75:5 76:5 77:5 78:5 79:5 80:5 81:5 82:5 83:5 84:5 85:5 86:5 87:5 88:5 89:5 90:5 91:4 92:4 93:4 94:4 95:4 96:4 97:4 98:4 99:4 100:4 101:4 102:4 103:4 104:4 105:4 106:4 107:4 108:4 109:4 110:4 111:4 112:4 113:4 114:4 115:4 116:4 117:4 118:4 119:4 120:4 121:4 122:4 123:4 124:3 125:3 126:3 127:3 128:3 129:3 130:3 131:3 132:3 133:3 134:3 135:3 136:3 137:3 138:3 139:3 140:3 141:3 142:3 143:3 144:3 145:3 146:3 147:3 148:3 149:3 150:3 151:3 152:3 153:3 154:3 155:3 156:3 157:3 158:3 159:3 160:3 161:3 162:3 163:3 164:3 165:3 166:3 167:3 168:3 169:3 170:3 171:3 172:3 173:3 174:3 175:3 176:3 177:3 178:3 179:3 180:3 181:3 182:3 183:2 184:2 185:2 186:2 187:2 188:2 189:2 190:2 191:2 192:2 193:2 194:2 195:2 196:2 197:2 198:2 199:2 200:2 201:2 202:2 203:2 204:2 205:2 206:2 207:2 208:2 209:2 210:2 211:2 212:2 213:2 214:2 215:2 216:2 217:2 218:2 219:2 220:2 221:2 222:2 223:2 224:2 225:2 226:2 227:2 228:2 229:2 230:2 231:2 232:2 233:2 234:2 235:2 236:2 237:2 238:2 239:2 240:2 241:2 242:2 243:2 244:2 245:2 246:2 247:2 248:2 249:2 250:2 251:2 252:2 253:2 254:2 255:2 256:2 257:2 258:2 259:2 260:2 261:2 262:2 263:2 264:2 265:2 266:2 267:2 268:2 269:2 270:2 271:2 272:2 273:2 274:2 275:2 276:2 277:2 278:2 279:2 280:2 281:2 282:2 283:2 284:2 285:2 286:2 287:2 288:2 289:2 290:2 291:2 292:2 293:2 294:1 295:1 296:1 297:1 298:1 299:1 300:1 
0.01055242659930408 1:52 2:51 3:46 4:41 5:41 6:38 7:38 8:36 9:35 10:34 11:24 12:23 13:21 14:18 15:18 16:17 17:17 18:16 19:15 20:14 21:14 22:14 23:13 24:13 25:12 26:12 27:12 28:12 29:11 30:11 31:10 32:10 33:10 34:10 35:10 36:10 37:9 38:9 39:9 40:9 41:9 42:9 43:9 44:8 45:8 46:8 47:8 48:8 49:8 50:8 51:8 52:8 53:8 54:8 55:8 56:7 57:7 58:7 59:7 60:7 61:7 62:7 63:7 64:7 65:7 66:7 67:6 68:6 69:6 70:6 71:6 72:6 73:6 74:6 75:6 76:6 77:6 78:6 79:6 80:6 81:6 82:6 83:6 84:6 85:6 86:5 87:5 88:5 89:5 90:5 91:5 92:5 93:5 94:5 95:5 96:5 97:5 98:5 99:5 100:5 101:5 102:5 103:5 104:5 105:5 106:5 107:5 108:4 109:4 110:4 111:4 112:4 113:4 114:4 115:4 116:4 117:4 118:4 119:4 120:4 121:4 122:4 123:4 124:4 125:4 126:4 127:4 128:4 129:4 130:4 131:4 132:4 133:4 134:4 135:4 136:4 137:4 138:4 139:4 140:4 141:4 142:4 143:4 144:4 145:4 146:4 147:3 148:3 149:3 150:3 151:3 152:3 153:3 154:3 155:3 156:3 157:3 158:3 159:3 160:3 161:3 162:3 163:3 164:3 165:3 166:3 167:3 168:3 169:3 170:3 171:3 172:3 173:3 174:3 175:3 176:3 177:3 178:3 179:3 180:3 181:3 182:3 183:3 184:3 185:3 186:3 187:3 188:3 189:3 190:3 191:3 192:3 193:3 194:3 195:3 196:3 197:3 198:3 199:3 200:3 201:3 202:3 203:3 204:3 205:3 206:3 207:3 208:3 209:3 210:3 211:3 212:3 213:3 214:3 215:3 216:3 217:3 218:3 219:3 220:3 221:3 222:3 223:3 224:3 225:3 226:3 227:2 228:2 229:2 230:2 231:2 232:2 233:2 234:2 235:2 236:2 237:2 238:2 239:2 240:2 241:2 242:2 243:2 244:2 245:2 246:2 247:2 248:2 249:2 250:2 251:2 252:2 253:2 254:2 255:2 256:2 257:2 258:2 259:2 260:2 261:2 262:2 263:2 264:2 265:2 266:2 267:2 268:2 269:2 270:2 271:2 272:2 273:2 274:2 275:2 276:2 277:2 278:2 279:2 280:2 281:2 282:2 283:2 284:2 285:2 286:2 287:2 288:2 289:2 290:2 291:2 292:2 293:2 294:2 295:2 296:2 297:2 298:2 299:2 300:2 
0.001959043800385335 1:43 2:42 3:42 4:27 5:23 6:22 7:21 8:20 9:17 10:14 11:14 12:13 13:13 14:12 15:12 16:12 17:12 18:12 19:11 20:11 21:11 22:11 23:11 24:11 25:10 26:10 27:10 28:10 29:10 30:10 31:10 32:9 33:9 34:9 35:9 36:9 37:9 38:9 39:8 40:8 41:8 42:8 43:8 44:7 45:7 46:7 47:7 48:7 49:7 50:7 51:7 52:7 53:7 54:7 55:7 56:6 57:6 58:6 59:6 60:6 61:6 62:6 63:6 64:6 65:5 66:5 67:5 68:5 69:5 70:5 71:5 72:5 73:5 74:5 75:5 76:5 77:5 78:5 79:5 80:5 81:5 82:5 83:5 84:5 85:5 86:5 87:5 88:5 89:5 90:5 91:5 92:5 93:4 94:4 95:4 96:4 97:4 98:4 99:4 100:4 101:4 102:4 103:4 104:4 105:4 106:4 107:4 108:4 109:4 110:4 111:4 112:4 113:4 114:4 115:4 116:4 117:4 118:4 119:4 120:4 121:4 122:4 123:4 124:4 125:4 126:4 127:4 128:4 129:4 130:4 131:4 132:4 133:4 134:4 135:3 136:3 137:3 138:3 139:3 140:3 141:3 142:3 143:3 144:3 145:3 146:3 147:3 148:3 149:3 150:3 151:3 152:3 153:3 154:3 155:3 156:3 157:3 158:3 159:3 160:3 161:3 162:3 163:3 164:3 165:3 166:3 167:3 168:3 169:3 170:3 171:3 172:3 173:3 174:3 175:3 176:3 177:3 178:3 179:3 180:3 181:3 182:3 183:3 184:3 185:3 186:3 187:3 188:3 189:3 190:3 191:3 192:3 193:3 194:3 195:3 196:3 197:3 198:3 199:3 200:2 201:2 202:2 203:2 204:2 205:2 206:2 207:2 208:2 209:2 210:2 211:2 212:2 213:2 214:2 215:2 216:2 217:2 218:2 219:2 220:2 221:2 222:2 223:2 224:2 225:2 226:2 227:2 228:2 229:2 230:2 231:2 232:2 233:2 234:2 235:2 236:2 237:2 238:2 239:2 240:2 241:2 242:2 243:2 244:2 245:2 246:2 247:2 248:2 249:2 250:2 251:2 252:2 253:2 254:2 255:2 256:2 257:2 258:2 259:2 260:2 261:2 262:2 263:2 264:2 265:2 266:2 267:2 268:2 269:2 270:2 271:2 272:2 273:2 274:2 275:2 276:2 277:2 278:2 279:2 280:2 281:2 282:2 283:2 284:2 285:2 286:2 287:2 288:2 289:2 290:2 291:2 292:2 293:2 294:2 295:2 296:2 297:2 298:2 299:2 300:2 
0.008402161144921517 1:77 2:77 3:62 4:57 5:56 6:46 7:32 8:30 9:28 10:26 11:22 12:21 13:21 14:19 15:19 16:18 17:18 18:18 19:18 20:17 21:17 22:16 23:16 24:16 25:15 26:15 27:15 28:15 29:14 30:14 31:13 32:12 33:11 34:10 35:10 36:9 37:9 38:8 39:8 40:8 41:8 42:8 43:8 44:8 45:7 46:7 47:7 48:7 49:7 50:7 51:7 52:7 53:6 54:6 55:6 56:6 57:6 58:6 59:6 60:6 61:6 62:6 63:6 64:6 65:6 66:6 67:6 68:6 69:6 70:5 71:5 72:5 73:5 74:5 75:5 76:5 77:5 78:5 79:5 80:5 81:5 82:5 83:5 84:5 85:5 86:5 87:5 88:5 89:5 90:4 91:4 92:4 93:4 94:4 95:4 96:4 97:4 98:4 99:4 100:4 101:4 102:4 103:4 104:4 105:4 106:4 107:4 108:4 109:4 110:4 111:4 112:4 113:4 114:4 115:4 116:4 117:4 118:4 119:4 120:4 121:4 122:4 123:4 124:4 125:4 126:4 127:4 128:3 129:3 130:3 131:3 132:3 133:3 134:3 135:3 136:3 137:3 138:3 139:3 140:3 141:3 142:3 143:3 144:3 145:3 146:3 147:3 148:3 149:3 150:3 151:3 152:3 153:3 154:3 155:3 156:3 157:3 158:3 159:3 160:3 161:3 162:3 163:3 164:3 165:3 166:3 167:3 168:3 169:3 170:3 171:3 172:3 173:3 174:3 175:3 176:3 177:3 178:3 179:3 180:3 181:3 182:3 183:3 184:3 185:2 186:2 187:2 188:2 189:2 190:2 191:2 192:2 193:2 194:2 195:2 196:2 197:2 198:2 199:2 200:2 201:2 202:2 203:2 204:2 205:2 206:2 207:2 208:2 209:2 210:2 211:2 212:2 213:2 214:2 215:2 216:2 217:2 218:2 219:2 220:2 221:2 222:2 223:2 224:2 225:2 226:2 227:2 228:2 229:2 230:2 231:2 232:2 233:2 234:2 235:2 236:2 237:2 238:2 239:2 240:2 241:2 242:2 243:2 244:2 245:2 246:2 247:2 248:2 249:2 250:2 251:2 252:2 253:2 254:2 255:2 256:2 257:2 258:2 259:2 260:2 261:2 262:2 263:2 264:2 265:2 266:2 267:2 268:2 269:2 270:2 271:2 272:2 273:2 274:2 275:2 276:2 277:2 278:2 279:2 280:2 281:2 282:2 283:2 284:2 285:2 286:2 287:2 288:2 289:2 290:2 291:2 292:2 293:2 294:2 295:2 296:2 297:2 298:2 299:2 300:1 
0.01236294446717036 1:123 2:69 3:54 4:52 5:36 6:34 7:30 8:26 9:23 10:21 11:20 12:20 13:20 14:19 15:19 16:19 17:17 18:17 19:16 20:16 21:16 22:16 23:16 24:15 25:15 26:15 27:14 28:12 29:12 30:12 31:12 32:12 33:11 34:11 35:11 36:11 37:11 38:10 39:10 40:10 41:10 42:10 43:9 44:9 45:9 46:9 47:9 48:9 49:8 50:8 51:8 52:8 53:8 54:8 55:8 56:8 57:8 58:7 59:7 60:7 61:7 62:7 63:7 64:7 65:7 66:7 67:6 68:6 69:6 70:6 71:6 72:6 73:6 74:6 75:6 76:6 77:6 78:6 79:6 80:6 81:6 82:5 83:5 84:5 85:5 86:5 87:5 88:5 89:5 90:5 91:5 92:5 93:5 94:5 95:5 96:5 97:5 98:5 99:5 100:5 101:5 102:5 103:5 104:5 105:5 106:5 107:4 108:4 109:4 110:4 111:4 112:4 113:4 114:4 115:4 116:4 117:4 118:4 119:4 120:4 121:4 122:4 123:4 124:4 125:4 126:4 127:4 128:4 129:4 130:4 131:4 132:4 133:4 134:4 135:4 136:4 137:4 138:4 139:4 140:4 141:3 142:3 143:3 144:3 145:3 146:3 147:3 148:3 149:3 150:3 151:3 152:3 153:3 154:3 155:3 156:3 157:3 158:3 159:3 160:3 161:3 162:3 163:3 164:3 165:3 166:3 167:3 168:3 169:3 170:3 171:3 172:3 173:3 174:3 175:3 176:3 177:3 178:3 179:3 180:3 181:3 182:3 183:3 184:3 185:3 186:3 187:3 188:2 189:2 190:2 191:2 192:2 193:2 194:2 195:2 196:2 197:2 198:2 199:2 200:2 201:2 202:2 203:2 204:2 205:2 206:2 207:2 208:2 209:2 210:2 211:2 212:2 213:2 214:2 215:2 216:2 217:2 218:2 219:2 220:2 221:2 222:2 223:2 224:2 225:2 226:2 227:2 228:2 229:2 230:2 231:2 232:2 233:2 234:2 235:2 236:2 237:2 238:2 239:2 240:2 241:2 242:2 243:2 244:2 245:2 246:2 247:2 248:2 249:2 250:2 251:2 252:2 253:2 254:2 255:2 256:2 257:2 258:2 259:2 260:2 261:2 262:2 263:2 264:2 265:2 266:2 267:2 268:2 269:2 270:2 271:2 272:2 273:2 274:2 275:2 276:2 277:2 278:1 279:1 280:1 281:1 282:1 283:1 284:1 285:1 286:1 287:1 288:1 289:1 290:1 291:1 292:1 293:1 294:1 295:1 296:1 297:1 298:1 299:1 300:1 
0.002226112487456701 1:73 2:34 3:34 4:32 5:31 6:29 7:29 8:27 9:25 10:22 11:22 12:22 13:21 14:19 15:19 16:19 17:18 18:17 19:17 20:16 21:16 22:16 23:16 24:15 25:15 26:14 27:14 28:14 29:14 30:13 31:13 32:12 33:12 34:11 35:11 36:11 37:11 38:11 39:11 40:11 41:10 42:10 43:10 44:10 45:9 46:9 47:9 48:9 49:9 50:9 51:9 52:8 53:8 54:8 55:8 56:8 57:8 58:8 59:8 60:8 61:8 62:7 63:7 64:7 65:7 66:7 67:7 68:7 69:7 70:7 71:7 72:7 73:7 74:6 75:6 76:6 77:6 78:6 79:6 80:6 81:6 82:6 83:6 84:6 85:6 86:5 87:5 88:5 89:5 90:5 91:5 92:5 93:5 94:5 95:5 96:5 97:5 98:5 99:5 100:5 101:5 102:5 103:5 104:5 105:5 106:5 107:5 108:5 109:4 110:4 111:4 112:4 113:4 114:4 115:4 116:4 117:4 118:4 119:4 120:4 121:4 122:4 123:4 124:4 125:4 126:4 127:4 128:4 129:4 130:4 131:4 132:4 133:4 134:4 135:4 136:4 137:4 138:4 139:4 140:4 141:4 142:4 143:4 144:4 145:4 146:4 147:4 148:4 149:3 150:3 151:3 152:3 153:3 154:3 155:3 156:3 157:3 158:3 159:3 160:3 161:3 162:3 163:3 164:3 165:3 166:3 167:3 168:3 169:3 170:3 171:3 172:3 173:3 174:3 175:3 176:3 177:3 178:3 179:3 180:3 181:3 182:3 183:3 184:3 185:3 186:3 187:3 188:3 189:3 190:3 191:3 192:3 193:3 194:3 195:3 196:3 197:3 198:3 199:3 200:3 201:3 202:3 203:3 204:3 205:2 206:2 207:2 208:2 209:2 210:2 211:2 212:2 213:2 214:2 215:2 216:2 217:2 218:2 219:2 220:2 221:2 222:2 223:2 224:2 225:2 226:2 227:2 228:2 229:2 230:2 231:2 232:2 233:2 234:2 235:2 236:2 237:2 238:2 239:2 240:2 241:2 242:2 243:2 244:2 245:2 246:2 247:2 248:2 249:2 250:2 251:2 252:2 253:2 254:2 255:2 256:2 257:2 258:2 259:2 260:2 261:2 262:2 263:2 264:2 265:2 266:2 267:2 268:2 269:2 270:2 271:2 272:2 273:2 274:2 275:2 276:2 277:2 278:2 279:2 280:2 281:2 282:2 283:2 284:2 285:2 286:2 287:2 288:2 289:2 290:2 291:2 292:2 293:2 294:2 295:2 296:2 297:2 298:2 299:2 300:2 
1 1:27 2:25 3:16 4:13 5:10 6:10 7:9 8:9 9:8 10:8 11:8 12:7 13:7 14:6 15:6 16:6 17:6 18:6 19:6 20:6 21:6 22:6 23:5 24:5 25:5 26:5 27:5 28:5 29:5 30:5 31:5 32:5 33:4 34:4 35:4 36:4 37:4 38:4 39:4 40:4 41:4 42:4 43:4 44:4 45:4 46:4 47:4 48:4 49:4 50:4 51:4 52:4 53:4 54:3 55:3 56:3 57:3 58:3 59:3 60:3 61:3 62:3 63:3 64:3 65:3 66:3 67:3 68:3 69:3 70:3 71:3 72:3 73:3 74:3 75:3 76:3 77:3 78:3 79:3 80:3 81:3 82:3 83:3 84:3 85:3 86:3 87:2 88:2 89:2 90:2 91:2 92:2 93:2 94:2 95:2 96:2 97:2 98:2 99:2 100:2 101:2 102:2 103:2 104:2 105:2 106:2 107:2 108:2 109:2 110:2 111:2 112:2 113:2 114:2 115:2 116:2 117:2 118:2 119:2 120:2 121:2 122:2 123:2 124:2 125:2 126:2 127:2 128:2 129:2 130:2 131:2 132:2 133:2 134:2 135:2 136:2 137:2 138:2 139:2 140:2 141:2 142:2 143:2 144:2 145:2 146:2 147:2 148:2 149:2 150:2 151:2 152:2 153:2 154:2 155:2 156:2 157:2 158:2 159:2 160:2 161:2 162:2 163:2 164:2 165:2 166:2 167:2 168:2 169:2 170:2 171:2 172:2 173:2 174:2 175:2 176:2 177:2 178:1 179:1 180:1 181:1 182:1 183:1 184:1 185:1 186:1 187:1 188:1 189:1 190:1 191:1 192:1 193:1 194:1 195:1 196:1 197:1 198:1 199:1 200:1 201:1 202:1 203:1 204:1 205:1 206:1 207:1 208:1 209:1 210:1 211:1 212:1 213:1 214:1 215:1 216:1 217:1 218:1 219:1 220:1 221:1 222:1 223:1 224:1 225:1 226:1 227:1 228:1 229:1 230:1 231:1 232:1 233:1 234:1 235:1 236:1 237:1 238:1 239:1 240:1 241:1 242:1 243:1 244:1 245:1 246:1 247:1 248:1 249:1 250:1 251:1 252:1 253:1 254:1 255:1 256:1 257:1 258:1 259:1 260:1 261:1 262:1 263:1 264:1 265:1 266:1 267:1 268:1 269:1 270:1 271:1 272:1 273:1 274:1 275:1 276:1 277:1 278:1 279:1 280:1 281:1 282:1 283:1 284:1 285:1 286:1 287:1 288:1 289:1 290:1 291:1 292:1 293:1 294:1 295:1 296:1 297:1 298:1 299:1 300:1 
0.004316138061681569 1:45 2:44 3:40 4:34 5:34 6:33 7:31 8:27 9:26 10:24 11:23 12:23 13:22 14:19 15:19 16:19 17:16 18:16 19:16 20:16 21:16 22:15 23:15 24:15 25:14 26:13 27:13 28:12 29:12 30:11 31:11 32:11 33:10 34:10 35:10 36:10 37:10 38:10 39:9 40:9 41:9 42:9 43:9 44:9 45:9 46:9 47:9 48:9 49:9 50:9 51:9 52:9 53:9 54:8 55:8 56:8 57:8 58:8 59:8 60:8 61:8 62:8 63:8 64:8 65:8 66:7 67:7 68:7 69:7 70:7 71:7 72:7 73:7 74:7 75:7 76:7 77:7 78:7 79:7 80:7 81:6 82:6 83:6 84:6 85:6 86:6 87:6 88:6 89:6 90:6 91:6 92:6 93:6 94:6 95:6 96:6 97:6 98:6 99:6 100:6 101:6 102:6 103:6 104:6 105:6 106:6 107:6 108:6 109:6 110:6 111:6 112:6 113:5 114:5 115:5 116:5 117:5 118:5 119:5 120:5 121:5 122:5 123:5 124:5 125:5 126:5 127:5 128:5 129:5 130:5 131:5 132:5 133:5 134:5 135:5 136:5 137:5 138:5 139:4 140:4 141:4 142:4 143:4 144:4 145:4 146:4 147:4 148:4 149:4 150:4 151:4 152:4 153:4 154:4 155:4 156:4 157:4 158:4 159:4 160:4 161:4 162:4 163:4 164:4 165:4 166:4 167:4 168:4 169:4 170:4 171:4 172:4 173:4 174:4 175:4 176:4 177:3 178:3 179:3 180:3 181:3 182:3 183:3 184:3 185:3 186:3 187:3 188:3 189:3 190:3 191:3 192:3 193:3 194:3 195:3 196:3 197:3 198:3 199:3 200:3 201:3 202:3 203:3 204:3 205:3 206:3 207:3 208:3 209:3 210:3 211:3 212:3 213:3 214:3 215:3 216:3 217:3 218:3 219:3 220:3 221:3 222:3 223:3 224:3 225:3 226:3 227:3 228:3 229:3 230:3 231:3 232:3 233:3 234:3 235:3 236:3 237:3 238:3 239:3 240:3 241:3 242:3 243:3 244:3 245:3 246:3 247:3 248:3 249:2 250:2 251:2 252:2 253:2 254:2 255:2 256:2 257:2 258:2 259:2 260:2 261:2 262:2 263:2 264:2 265:2 266:2 267:2 268:2 269:2 270:2 271:2 272:2 273:2 274:2 275:2 276:2 277:2 278:2 279:2 280:2 281:2 282:2 283:2 284:2 285:2 286:2 287:2 288:2 289:2 290:2 291:2 292:2 293:2 294:2 295:2 296:2 297:2 298:2 299:2 300:2 
0.007073445494675794 1:55 2:44 3:44 4:42 5:23 6:20 7:20 8:18 9:16 10:16 11:16 12:14 13:14 14:13 15:13 16:12 17:12 18:12 19:10 20:10 21:10 22:10 23:10 24:10 25:9 26:9 27:9 28:9 29:9 30:8 31:8 32:8 33:8 34:8 35:8 36:8 37:8 38:8 39:7 40:7 41:7 42:7 43:7 44:7 45:7 46:7 47:7 48:7 49:7 50:7 51:7 52:7 53:7 54:6 55:6 56:6 57:6 58:6 59:6 60:6 61:6 62:6 63:6 64:6 65:5 66:5 67:5 68:5 69:5 70:5 71:5 72:5 73:5 74:5 75:5 76:5 77:5 78:5 79:5 80:5 81:5 82:5 83:5 84:5 85:5 86:5 87:4 88:4 89:4 90:4 91:4 92:4 93:4 94:4 95:4 96:4 97:4 98:4 99:4 100:4 101:4 102:4 103:4 104:4 105:4 106:4 107:4 108:4 109:4 110:4 111:4 112:4 113:4 114:4 115:4 116:4 117:3 118:3 119:3 120:3 121:3 122:3 123:3 124:3 125:3 126:3 127:3 128:3 129:3 130:3 131:3 132:3 133:3 134:3 135:3 136:3 137:3 138:3 139:3 140:3 141:3 142:3 143:3 144:3 145:3 146:3 147:3 148:3 149:3 150:3 151:3 152:3 153:3 154:3 155:3 156:3 157:3 158:3 159:3 160:3 161:3 162:3 163:3 164:3 165:3 166:3 167:3 168:3 169:3 170:3 171:3 172:3 173:2 174:2 175:2 176:2 177:2 178:2 179:2 180:2 181:2 182:2 183:2 184:2 185:2 186:2 187:2 188:2 189:2 190:2 191:2 192:2 193:2 194:2 195:2 196:2 197:2 198:2 199:2 200:2 201:2 202:2 203:2 204:2 205:2 206:2 207:2 208:2 209:2 210:2 211:2 212:2 213:2 214:2 215:2 216:2 217:2 218:2 219:2 220:2 221:2 222:2 223:2 224:2 225:2 226:2 227:2 228:2 229:2 230:2 231:2 232:2 233:2 234:2 235:2 236:2 237:2 238:2 239:2 240:2 241:2 242:2 243:2 244:2 245:2 246:2 247:2 248:2 249:2 250:2 251:2 252:2 253:2 254:2 255:2 256:2 257:2 258:2 259:2 260:2 261:2 262:2 263:2 264:2 265:2 266:2 267:2 268:2 269:2 270:2 271:2 272:2 273:2 274:2 275:2 276:1 277:1 278:1 279:1 280:1 281:1 282:1 283:1 284:1 285:1 286:1 287:1 288:1 289:1 290:1 291:1 292:1 293:1 294:1 295:1 296:1 297:1 298:1 299:1 300:1 
0.004349249481059057 1:49 2:47 3:41 4:37 5:35 6:35 7:30 8:25 9:25 10:24 11:23 12:23 13:22 14:22 15:22 16:20 17:20 18:20 19:19 20:17 21:17 22:15 23:15 24:15 25:14 26:14 27:14 28:13 29:13 30:12 31:11 32:11 33:11 34:11 35:11 36:10 37:9 38:9 39:9 40:9 41:9 42:9 43:9 44:9 45:9 46:8 47:8 48:8 49:8 50:8 51:8 52:8 53:8 54:8 55:8 56:8 57:8 58:7 59:7 60:7 61:7 62:7 63:7 64:7 65:6 66:6 67:6 68:6 69:6 70:6 71:5 72:5 73:5 74:5 75:5 76:5 77:5 78:5 79:5 80:5 81:5 82:5 83:5 84:5 85:5 86:5 87:5 88:5 89:4 90:4 91:4 92:4 93:4 94:4 95:4 96:4 97:4 98:4 99:4 100:4 101:4 102:4 103:4 104:4 105:4 106:4 107:4 108:4 109:4 110:3 111:3 112:3 113:3 114:3 115:3 116:3 117:3 118:3 119:3 120:3 121:3 122:3 123:3 124:3 125:3 126:3 127:3 128:3 129:3 130:3 131:3 132:3 133:3 134:3 135:3 136:3 137:3 138:3 139:3 140:3 141:3 142:3 143:3 144:3 145:3 146:3 147:3 148:3 149:3 150:3 151:3 152:3 153:3 154:3 155:3 156:3 157:2 158:2 159:2 160:2 161:2 162:2 163:2 164:2 165:2 166:2 167:2 168:2 169:2 170:2 171:2 172:2 173:2 174:2 175:2 176:2 177:2 178:2 179:2 180:2 181:2 182:2 183:2 184:2 185:2 186:2 187:2 188:2 189:2 190:2 191:2 192:2 193:2 194:2 195:2 196:2 197:2 198:2 199:2 200:2 201:2 202:2 203:2 204:2 205:2 206:2 207:2 208:2 209:2 210:2 211:2 212:2 213:2 214:2 215:2 216:2 217:2 218:2 219:2 220:2 221:2 222:2 223:2 224:2 225:2 226:2 227:2 228:2 229:2 230:2 231:2 232:2 233:2 234:2 235:2 236:2 237:2 238:2 239:2 240:2 241:2 242:2 243:2 244:2 245:2 246:2 247:2 248:2 249:2 250:1 251:1 252:1 253:1 254:1 255:1 256:1 257:1 258:1 259:1 260:1 261:1 262:1 263:1 264:1 265:1 266:1 267:1 268:1 269:1 270:1 271:1 272:1 273:1 274:1 275:1 276:1 277:1 278:1 279:1 280:1 281:1 282:1 283:1 284:1 285:1 286:1 287:1 288:1 289:1 290:1 291:1 292:1 293:1 294:1 295:1 296:1 297:1 298:1 299:1 300:1 
1 1:25 2:15 3:13 4:10 5:8 6:8 7:7 8:7 9:6 10:5 11:5 12:5 13:5 14:5 15:5 16:5 17:5 18:5 19:5 20:5 21:5 22:4 23:4 24:4 25:4 26:4 27:4 28:4 29:4 30:4 31:4 32:4 33:4 34:4 35:4 36:3 37:3 38:3 39:3 40:3 41:3 42:3 43:3 44:3 45:3 46:3 47:3 48:3 49:3 50:3 51:3 52:3 53:3 54:3 55:3 56:3 57:3 58:3 59:3 60:3 61:3 62:3 63:3 64:3 65:3 66:3 67:3 68:3 69:2 70:2 71:2 72:2 73:2 74:2 75:2 76:2 77:2 78:2 79:2 80:2 81:2 82:2 83:2 84:2 85:2 86:2 87:2 88:2 89:2 90:2 91:2 92:2 93:2 94:2 95:2 96:2 97:2 98:2 99:2 100:2 101:2 102:2 103:2 104:2 105:2 106:2 107:2 108:2 109:2 110:2 111:2 112:2 113:2 114:2 115:2 116:2 117:2 118:2 119:2 120:2 121:2 122:2 123:2 124:2 125:2 126:2 127:2 128:2 129:2 130:2 131:2 132:2 133:2 134:2 135:2 136:2 137:2 138:2 139:2 140:2 141:2 142:2 143:1 144:1 145:1 146:1 147:1 148:1 149:1 150:1 151:1 152:1 153:1 154:1 155:1 156:1 157:1 158:1 159:1 160:1 161:1 162:1 163:1 164:1 165:1 166:1 167:1 168:1 169:1 170:1 171:1 172:1 173:1 174:1 175:1 176:1 177:1 178:1 179:1 180:1 181:1 182:1 183:1 184:1 185:1 186:1 187:1 188:1 189:1 190:1 191:1 192:1 193:1 194:1 195:1 196:1 197:1 198:1 199:1 200:1 201:1 202:1 203:1 204:1 205:1 206:1 207:1 208:1 209:1 210:1 211:1 212:1 213:1 214:1 215:1 216:1 217:1 218:1 219:1 220:1 221:1 222:1 223:1 224:1 225:1 226:1 227:1 228:1 229:1 230:1 231:1 232:1 233:1 234:1 235:1 236:1 237:1 238:1 239:1 240:1 241:1 242:1 243:1 244:1 245:1 246:1 247:1 248:1 249:1 250:1 251:1 252:1 253:1 254:1 255:1 256:1 257:1 258:1 259:1 260:1 261:1 262:1 263:1 264:1 265:1 266:1 267:1 268:1 269:1 270:1 271:1 272:1 273:1 274:1 275:1 276:1 277:1 278:1 279:1 280:1 281:1 282:1 283:1 284:1 285:1 286:1 287:1 288:1 289:1 290:1 291:1 292:1 293:1 294:1 295:1 296:1 297:1 298:1 299:1 300:1 
0.009463356323817732 1:92 2:84 3:59 4:44 5:31 6:28 7:27 8:24 9:20 10:20 11:18 12:18 13:16 14:16 15:14 16:14 17:14 18:14 19:13 20:12 21:12 22:12 23:12 24:12 25:12 26:12 27:12 28:11 29:11 30:11 31:10 32:10 33:10 34:10 35:9 36:9 37:9 38:8 39:8 40:8 41:8 42:8 43:8 44:8 45:8 46:7 47:7 48:7 49:7 50:7 51:7 52:7 53:7 54:7 55:7 56:7 57:6 58:6 59:6 60:6 61:6 62:6 63:6 64:6 65:6 66:6 67:6 68:6 69:6 70:6 71:6 72:6 73:6 74:6 75:6 76:5 77:5 78:5 79:5 80:5 81:5 82:5 83:5 84:5 85:5 86:5 87:5 88:5 89:5 90:5 91:5 92:5 93:5 94:5 95:5 96:5 97:5 98:5 99:4 100:4 101:4 102:4 103:4 104:4 105:4 106:4 107:4 108:4 109:4 110:4 111:4 112:4 113:4 114:4 115:4 116:4 117:4 118:4 119:4 120:4 121:4 122:4 123:4 124:4 125:4 126:4 127:3 128:3 129:3 130:3 131:3 132:3 133:3 134:3 135:3 136:3 137:3 138:3 139:3 140:3 141:3 142:3 143:3 144:3 145:3 146:3 147:3 148:3 149:3 150:3 151:3 152:3 153:3 154:3 155:3 156:3 157:3 158:3 159:3 160:3 161:3 162:3 163:3 164:3 165:3 166:3 167:3 168:3 169:3 170:3 171:3 172:3 173:3 174:2 175:2 176:2 177:2 178:2 179:2 180:2 181:2 182:2 183:2 184:2 185:2 186:2 187:2 188:2 189:2 190:2 191:2 192:2 193:2 194:2 195:2 196:2 197:2 198:2 199:2 200:2 201:2 202:2 203:2 204:2 205:2 206:2 207:2 208:2 209:2 210:2 211:2 212:2 213:2 214:2 215:2 216:2 217:2 218:2 219:2 220:2 221:2 222:2 223:2 224:2 225:2 226:2 227:2 228:2 229:2 230:2 231:2 232:2 233:2 234:2 235:2 236:2 237:2 238:2 239:2 240:2 241:2 242:2 243:2 244:2 245:2 246:2 247:2 248:2 249:2 250:2 251:2 252:2 253:2 254:2 255:2 256:2 257:2 258:2 259:2 260:2 261:2 262:2 263:2 264:2 265:2 266:2 267:2 268:2 269:2 270:2 271:2 272:2 273:2 274:2 275:2 276:2 277:2 278:2 279:2 280:2 281:2 282:2 283:2 284:2 285:2 286:2 287:2 288:2 289:2 290:2 291:2 292:2 293:2 294:2 295:2 296:2 297:2 298:2 299:2 300:2 
0.007308187530619209 1:33 2:30 3:29 4:28 5:28 6:27 7:26 8:24 9:22 10:15 11:15 12:14 13:14 14:14 15:13 16:12 17:12 18:11 19:11 20:11 21:10 22:10 23:10 24:9 25:9 26:9 27:9 28:9 29:9 30:9 31:8 32:8 33:8 34:8 35:8 36:8 37:8 38:8 39:8 40:8 41:7 42:7 43:7 44:7 45:7 46:7 47:7 48:7 49:7 50:7 51:7 52:7 53:7 54:7 55:6 56:6 57:6 58:6 59:6 60:6 61:6 62:6 63:6 64:6 65:6 66:6 67:6 68:6 69:6 70:6 71:6 72:6 73:6 74:5 75:5 76:5 77:5 78:5 79:5 80:5 81:5 82:5 83:5 84:5 85:5 86:5 87:5 88:5 89:5 90:5 91:5 92:4 93:4 94:4 95:4 96:4 97:4 98:4 99:4 100:4 101:4 102:4 103:4 104:4 105:4 106:4 107:4 108:4 109:4 110:4 111:4 112:4 113:4 114:4 115:4 116:4 117:4 118:4 119:4 120:4 121:4 122:4 123:4 124:4 125:4 126:4 127:4 128:4 129:4 130:4 131:4 132:4 133:4 134:4 135:3 136:3 137:3 138:3 139:3 140:3 141:3 142:3 143:3 144:3 145:3 146:3 147:3 148:3 149:3 150:3 151:3 152:3 153:3 154:3 155:3 156:3 157:3 158:3 159:3 160:3 161:3 162:3 163:3 164:3 165:3 166:3 167:3 168:3 169:3 170:3 171:3 172:3 173:3 174:3 175:3 176:3 177:3 178:3 179:3 180:3 181:3 182:3 183:3 184:3 185:3 186:3 187:3 188:3 189:3 190:3 191:3 192:3 193:3 194:3 195:3 196:3 197:3 198:3 199:3 200:2 201:2 202:2 203:2 204:2 205:2 206:2 207:2 208:2 209:2 210:2 211:2 212:2 213:2 214:2 215:2 216:2 217:2 218:2 219:2 220:2 221:2 222:2 223:2 224:2 225:2 226:2 227:2 228:2 229:2 230:2 231:2 232:2 233:2 234:2 235:2 236:2 237:2 238:2 239:2 240:2 241:2 242:2 243:2 244:2 245:2 246:2 247:2 248:2 249:2 250:2 251:2 252:2 253:2 254:2 255:2 256:2 257:2 258:2 259:2 260:2 261:2 262:2 263:2 264:2 265:2 266:2 267:2 268:2 269:2 270:2 271:2 272:2 273:2 274:2 275:2 276:2 277:2 278:2 279:2 280:2 281:2 282:2 283:2 284:2 285:2 286:2 287:2 288:2 289:2 290:2 291:2 292:2 293:2 294:2 295:2 296:2 297:2 298:2 299:2 300:2 
1 1:19 2:16 3:11 4:10 5:10 6:9 7:8 8:8 9:7 10:7 11:7 12:7 13:6 14:6 15:6 16:6 17:6 18:6 19:6 20:5 21:5 22:5 23:5 24:5 25:5 26:5 27:5 28:5 29:5 30:4 31:4 32:4 33:4 34:4 35:4 36:4 37:4 38:4 39:4 40:4 41:4 42:4 43:4 44:4 45:4 46:4 47:4 48:4 49:4 50:4 51:4 52:3 53:3 54:3 55:3 56:3 57:3 58:3 59:3 60:3 61:3 62:3 63:3 64:3 65:3 66:3 67:3 68:3 69:3 70:3 71:3 72:3 73:3 74:3 75:3 76:3 77:3 78:3 79:3 80:3 81:3 82:3 83:3 84:3 85:3 86:3 87:3 88:3 89:3 90:3 91:3 92:2 93:2 94:2 95:2 96:2 97:2 98:2 99:2 100:2 101:2 102:2 103:2 104:2 105:2 106:2 107:2 108:2 109:2 110:2 111:2 112:2 113:2 114:2 115:2 116:2 117:2 118:2 119:2 120:2 121:2 122:2 123:2 124:2 125:2 126:2 127:2 128:2 129:2 130:2 131:2 132:2 133:2 134:2 135:2 136:2 137:2 138:2 139:2 140:2 141:2 142:2 143:2 144:2 145:2 146:2 147:2 148:2 149:2 150:2 151:2 152:2 153:2 154:2 155:2 156:2 157:2 158:2 159:2 160:2 161:2 162:2 163:2 164:2 165:2 166:2 167:2 168:2 169:1 170:1 171:1 172:1 173:1 174:1 175:1 176:1 177:1 178:1 179:1 180:1 181:1 182:1 183:1 184:1 185:1 186:1 187:1 188:1 189:1 190:1 191:1 192:1 193:1 194:1 195:1 196:1 197:1 198:1 199:1 200:1 201:1 202:1 203:1 204:1 205:1 206:1 207:1 208:1 209:1 210:1 211:1 212:1 213:1 214:1 215:1 216:1 217:1 218:1 219:1 220:1 221:1 222:1 223:1 224:1 225:1 226:1 227:1 228:1 229:1 230:1 231:1 232:1 233:1 234:1 235:1 236:1 237:1 238:1 239:1 240:1 241:1 242:1 243:1 244:1 245:1 246:1 247:1 248:1 249:1 250:1 251:1 252:1 253:1 254:1 255:1 256:1 257:1 258:1 259:1 260:1 261:1 262:1 263:1 264:1 265:1 266:1 267:1 268:1 269:1 270:1 271:1 272:1 273:1 274:1 275:1 276:1 277:1 278:1 279:1 280:1 281:1 282:1 283:1 284:1 285:1 286:1 287:1 288:1 289:1 290:1 291:1 292:1 293:1 294:1 295:1 296:1 297:1 298:1 299:1 300:1 
0.007901628289757878 1:60 2:53 3:51 4:49 5:48 6:30 7:30 8:24 9:22 10:19 11:19 12:19 13:18 14:17 15:16 16:14 17:14 18:14 19:14 20:14 21:14 22:13 23:13 24:13 25:13 26:13 27:12 28:12 29:12 30:12 31:12 32:12 33:11 34:11 35:11 36:11 37:11 38:10 39:10 40:10 41:10 42:10 43:10 44:10 45:10 46:10 47:10 48:9 49:9 50:9 51:9 52:9 53:9 54:8 55:8 56:8 57:8 58:8 59:8 60:8 61:8 62:7 63:7 64:7 65:7 66:7 67:7 68:7 69:7 70:7 71:7 72:6 73:6 74:6 75:6 76:6 77:6 78:6 79:6 80:6 81:6 82:6 83:6 84:6 85:6 86:5 87:5 88:5 89:5 90:5 91:5 92:5 93:5 94:5 95:5 96:5 97:5 98:5 99:5 100:5 101:5 102:5 103:5 104:5 105:5 106:5 107:4 108:4 109:4 110:4 111:4 112:4 113:4 114:4 115:4 116:4 117:4 118:4 119:4 120:4 121:4 122:4 123:4 124:4 125:4 126:4 127:4 128:4 129:4 130:4 131:4 132:4 133:4 134:4 135:4 136:4 137:4 138:4 139:4 140:4 141:4 142:4 143:4 144:4 145:4 146:4 147:3 148:3 149:3 150:3 151:3 152:3 153:3 154:3 155:3 156:3 157:3 158:3 159:3 160:3 161:3 162:3 163:3 164:3 165:3 166:3 167:3 168:3 169:3 170:3 171:3 172:3 173:3 174:3 175:3 176:3 177:3 178:3 179:3 180:3 181:3 182:3 183:3 184:3 185:3 186:3 187:3 188:3 189:3 190:3 191:3 192:3 193:3 194:3 195:3 196:3 197:3 198:3 199:3 200:2 201:2 202:2 203:2 204:2 205:2 206:2 207:2 208:2 209:2 210:2 211:2 212:2 213:2 214:2 215:2 216:2 217:2 218:2 219:2 220:2 221:2 222:2 223:2 224:2 225:2 226:2 227:2 228:2 229:2 230:2 231:2 232:2 233:2 234:2 235:2 236:2 237:2 238:2 239:2 240:2 241:2 242:2 243:2 244:2 245:2 246:2 247:2 248:2 249:2 250:2 251:2 252:2 253:2 254:2 255:2 256:2 257:2 258:2 259:2 260:2 261:2 262:2 263:2 264:2 265:2 266:2 267:2 268:2 269:2 270:2 271:2 272:2 273:2 274:2 275:2 276:2 277:2 278:2 279:2 280:2 281:2 282:2 283:2 284:2 285:2 286:2 287:2 288:2 289:2 290:2 291:2 292:2 293:2 294:2 295:2 296:2 297:2 298:2 299:2 300:2 
0.0008654582415444828 1:46 2:37 3:33 4:30 5:29 6:29 7:29 8:29 9:29 10:27 11:26 12:26 13:25 14:23 15:21 16:20 17:20 18:19 19:18 20:18 21:18 22:17 23:17 24:15 25:14 26:14 27:13 28:13 29:13 30:13 31:13 32:12 33:12 34:12 35:12 36:10 37:10 38:10 39:9 40:9 41:9 42:9 43:8 44:8 45:8 46:8 47:8 48:8 49:8 50:8 51:8 52:7 53:7 54:7 55:7 56:7 57:7 58:7 59:7 60:7 61:7 62:6 63:6 64:6 65:6 66:6 67:6 68:6 69:6 70:6 71:6 72:6 73:6 74:6 75:6 76:6 77:6 78:6 79:6 80:6 81:6 82:5 83:5 84:5 85:5 86:5 87:5 88:5 89:5 90:5 91:5 92:5 93:5 94:5 95:5 96:5 97:5 98:5 99:5 100:5 101:5 102:5 103:5 104:4 105:4 106:4 107:4 108:4 109:4 110:4 111:4 112:4 113:4 114:4 115:4 116:4 117:4 118:4 119:4 120:4 121:4 122:4 123:4 124:4 125:4 126:4 127:4 128:4 129:4 130:4 131:4 132:4 133:4 134:4 135:4 136:4 137:4 138:3 139:3 140:3 141:3 142:3 143:3 144:3 145:3 146:3 147:3 148:3 149:3 150:3 151:3 152:3 153:3 154:3 155:3 156:3 157:3 158:3 159:3 160:3 161:3 162:3 163:3 164:3 165:3 166:3 167:3 168:3 169:3 170:3 171:3 172:3 173:3 174:3 175:3 176:3 177:3 178:3 179:3 180:3 181:3 182:3 183:3 184:3 185:3 186:3 187:3 188:3 189:3 190:3 191:3 192:3 193:3 194:3 195:3 196:3 197:3 198:3 199:3 200:3 201:3 202:3 203:3 204:3 205:3 206:3 207:3 208:2 209:2 210:2 211:2 212:2 213:2 214:2 215:2 216:2 217:2 218:2 219:2 220:2 221:2 222:2 223:2 224:2 225:2 226:2 227:2 228:2 229:2 230:2 231:2 232:2 233:2 234:2 235:2 236:2 237:2 238:2 239:2 240:2 241:2 242:2 243:2 244:2 245:2 246:2 247:2 248:2 249:2 250:2 251:2 252:2 253:2 254:2 255:2 256:2 257:2 258:2 259:2 260:2 261:2 262:2 263:2 264:2 265:2 266:2 267:2 268:2 269:2 270:2 271:2 272:2 273:2 274:2 275:2 276:2 277:2 278:2 279:2 280:2 281:2 282:2 283:2 284:2 285:2 286:2 287:2 288:2 289:2 290:2 291:2 292:2 293:2 294:2 295:2 296:2 297:2 298:2 299:2 300:2 
0.0149298628404738 1:57 2:54 3:49 4:47 5:31 6:31 7:30 8:28 9:28 10:27 11:26 12:25 13:24 14:22 15:17 16:17 17:15 18:14 19:12 20:12 21:12 22:11 23:10 24:10 25:10 26:10 27:10 28:10 29:9 30:9 31:9 32:9 33:9 34:9 35:8 36:8 37:8 38:8 39:8 40:7 41:7 42:7 43:7 44:7 45:7 46:7 47:7 48:7 49:6 50:6 51:6 52:6 53:6 54:6 55:6 56:6 57:6 58:6 59:6 60:6 61:5 62:5 63:5 64:5 65:5 66:5 67:5 68:5 69:5 70:5 71:5 72:5 73:5 74:5 75:5 76:4 77:4 78:4 79:4 80:4 81:4 82:4 83:4 84:4 85:4 86:4 87:4 88:4 89:4 90:4 91:4 92:4 93:4 94:4 95:4 96:4 97:4 98:4 99:4 100:4 101:4 102:3 103:3 104:3 105:3 106:3 107:3 108:3 109:3 110:3 111:3 112:3 113:3 114:3 115:3 116:3 117:3 118:3 119:3 120:3 121:3 122:3 123:3 124:3 125:3 126:3 127:3 128:3 129:3 130:3 131:3 132:3 133:3 134:3 135:3 136:3 137:3 138:3 139:3 140:3 141:3 142:3 143:3 144:2 145:2 146:2 147:2 148:2 149:2 150:2 151:2 152:2 153:2 154:2 155:2 156:2 157:2 158:2 159:2 160:2 161:2 162:2 163:2 164:2 165:2 166:2 167:2 168:2 169:2 170:2 171:2 172:2 173:2 174:2 175:2 176:2 177:2 178:2 179:2 180:2 181:2 182:2 183:2 184:2 185:2 186:2 187:2 188:2 189:2 190:2 191:2 192:2 193:2 194:2 195:2 196:2 197:2 198:2 199:2 200:2 201:2 202:2 203:2 204:2 205:2 206:2 207:2 208:2 209:2 210:2 211:2 212:2 213:2 214:2 215:2 216:2 217:2 218:1 219:1 220:1 221:1 222:1 223:1 224:1 225:1 226:1 227:1 228:1 229:1 230:1 231:1 232:1 233:1 234:1 235:1 236:1 237:1 238:1 239:1 240:1 241:1 242:1 243:1 244:1 245:1 246:1 247:1 248:1 249:1 250:1 251:1 252:1 253:1 254:1 255:1 256:1 257:1 258:1 259:1 260:1 261:1 262:1 263:1 264:1 265:1 266:1 267:1 268:1 269:1 270:1 271:1 272:1 273:1 274:1 275:1 276:1 277:1 278:1 279:1 280:1 281:1 282:1 283:1 284:1 285:1 286:1 287:1 288:1 289:1 290:1 291:1 292:1 293:1 294:1 295:1 296:1 297:1 298:1 299:1 300:1 
0.00461746910049644 1:28 2:28 3:26 4:26 5:25 6:25 7:24 8:24 9:21 10:20 11:20 12:20 13:19 14:19 15:19 16:16 17:16 18:15 19:15 20:15 21:14 22:14 23:14 24:14 25:13 26:12 27:12 28:11 29:11 30:11 31:11 32:11 33:10 34:10 35:10 36:10 37:9 38:9 39:9 40:9 41:9 42:9 43:9 44:9 45:9 46:9 47:9 48:9 49:9 50:9 51:8 52:8 53:8 54:8 55:8 56:8 57:8 58:8 59:8 60:8 61:7 62:7 63:7 64:7 65:7 66:7 67:7 68:7 69:7 70:7 71:7 72:6 73:6 74:6 75:6 76:6 77:6 78:6 79:6 80:6 81:6 82:6 83:6 84:6 85:6 86:6 87:5 88:5 89:5 90:5 91:5 92:5 93:5 94:5 95:5 96:5 97:5 98:5 99:5 100:5 101:5 102:5 103:5 104:5 105:5 106:5 107:5 108:5 109:4 110:4 111:4 112:4 113:4 114:4 115:4 116:4 117:4 118:4 119:4 120:4 121:4 122:4 123:4 124:4 125:4 126:4 127:4 128:4 129:4 130:4 131:4 132:4 133:4 134:4 135:4 136:4 137:4 138:4 139:4 140:4 141:4 142:4 143:4 144:3 145:3 146:3 147:3 148:3 149:3 150:3 151:3 152:3 153:3 154:3 155:3 156:3 157:3 158:3 159:3 160:3 161:3 162:3 163:3 164:3 165:3 166:3 167:3 168:3 169:3 170:3 171:3 172:3 173:3 174:3 175:3 176:3 177:3 178:3 179:3 180:3 181:3 182:3 183:3 184:3 185:3 186:3 187:3 188:3 189:3 190:3 191:3 192:3 193:3 194:3 195:3 196:3 197:3 198:3 199:2 200:2 201:2 202:2 203:2 204:2 205:2 206:2 207:2 208:2 209:2 210:2 211:2 212:2 213:2 214:2 215:2 216:2 217:2 218:2 219:2 220:2 221:2 222:2 223:2 224:2 225:2 226:2 227:2 228:2 229:2 230:2 231:2 232:2 233:2 234:2 235:2 236:2 237:2 238:2 239:2 240:2 241:2 242:2 243:2 244:2 245:2 246:2 247:2 248:2 249:2 250:2 251:2 252:2 253:2 254:2 255:2 256:2 257:2 258:2 259:2 260:2 261:2 262:2 263:2 264:2 265:2 266:2 267:2 268:2 269:2 270:2 271:2 272:2 273:2 274:2 275:2 276:2 277:2 278:2 279:2 280:2 281:2 282:2 283:2 284:2 285:2 286:2 287:2 288:2 289:2 290:2 291:2 292:2 293:2 294:2 295:2 296:2 297:2 298:2 299:2 300:2 
0.000817222510541906 1:57 2:53 3:35 4:34 5:30 6:30 7:29 8:27 9:27 10:25 11:24 12:24 13:24 14:23 15:22 16:22 17:22 18:21 19:20 20:19 21:18 22:17 23:15 24:15 25:15 26:14 27:14 28:14 29:14 30:14 31:13 32:13 33:12 34:12 35:12 36:11 37:10 38:10 39:10 40:10 41:10 42:10 43:10 44:9 45:9 46:9 47:9 48:9 49:9 50:8 51:8 52:8 53:8 54:8 55:8 56:8 57:8 58:7 59:7 60:7 61:7 62:7 63:7 64:7 65:7 66:7 67:7 68:7 69:7 70:6 71:6 72:6 73:6 74:6 75:6 76:6 77:6 78:6 79:6 80:6 81:6 82:5 83:5 84:5 85:5 86:5 87:5 88:5 89:5 90:5 91:5 92:5 93:5 94:5 95:5 96:5 97:5 98:5 99:4 100:4 101:4 102:4 103:4 104:4 105:4 106:4 107:4 108:4 109:4 110:4 111:4 112:4 113:4 114:4 115:4 116:4 117:4 118:4 119:4 120:4 121:4 122:4 123:4 124:3 125:3 126:3 127:3 128:3 129:3 130:3 131:3 132:3 133:3 134:3 135:3 136:3 137:3 138:3 139:3 140:3 141:3 142:3 143:3 144:3 145:3 146:3 147:3 148:3 149:3 150:3 151:3 152:3 153:3 154:3 155:3 156:3 157:3 158:3 159:3 160:3 161:3 162:3 163:3 164:3 165:3 166:3 167:3 168:3 169:3 170:3 171:3 172:3 173:3 174:3 175:3 176:2 177:2 178:2 179:2 180:2 181:2 182:2 183:2 184:2 185:2 186:2 187:2 188:2 189:2 190:2 191:2 192:2 193:2 194:2 195:2 196:2 197:2 198:2 199:2 200:2 201:2 202:2 203:2 204:2 205:2 206:2 207:2 208:2 209:2 210:2 211:2 212:2 213:2 214:2 215:2 216:2 217:2 218:2 219:2 220:2 221:2 222:2 223:2 224:2 225:2 226:2 227:2 228:2 229:2 230:2 231:2 232:2 233:2 234:2 235:2 236:2 237:2 238:2 239:2 240:2 241:2 242:2 243:2 244:2 245:2 246:2 247:2 248:2 249:2 250:2 251:2 252:2 253:2 254:2 255:2 256:2 257:2 258:2 259:2 260:2 261:2 262:2 263:2 264:2 265:2 266:2 267:2 268:2 269:2 270:2 271:2 272:2 273:2 274:2 275:2 276:2 277:2 278:2 279:2 280:2 281:2 282:2 283:2 284:2 285:2 286:2 287:2 288:2 289:2 290:2 291:2 292:2 293:2 294:2 295:2 296:2 297:2 298:2 299:1 300:1 
0.001211626296809725 1:54 2:28 3:28 4:28 5:28 6:27 7:26 8:24 9:22 10:21 11:20 12:20 13:18 14:17 15:17 16:17 17:16 18:15 19:15 20:15 21:14 22:14 23:14 24:14 25:13 26:12 27:12 28:12 29:12 30:12 31:12 32:11 33:10 34:10 35:10 36:10 37:10 38:10 39:10 40:10 41:10 42:9 43:9 44:9 45:9 46:9 47:8 48:8 49:8 50:8 51:8 52:8 53:8 54:8 55:8 56:7 57:7 58:7 59:7 60:7 61:7 62:7 63:6 64:6 65:6 66:6 67:6 68:6 69:6 70:6 71:6 72:6 73:6 74:6 75:6 76:6 77:6 78:6 79:6 80:6 81:6 82:6 83:6 84:5 85:5 86:5 87:5 88:5 89:5 90:5 91:5 92:5 93:5 94:5 95:5 96:5 97:5 98:5 99:5 100:5 101:5 102:5 103:5 104:5 105:5 106:5 107:5 108:5 109:5 110:5 111:5 112:4 113:4 114:4 115:4 116:4 117:4 118:4 119:4 120:4 121:4 122:4 123:4 124:4 125:4 126:4 127:4 128:4 129:4 130:4 131:4 132:4 133:4 134:4 135:4 136:4 137:4 138:4 139:4 140:4 141:4 142:4 143:4 144:4 145:4 146:4 147:4 148:4 149:4 150:3 151:3 152:3 153:3 154:3 155:3 156:3 157:3 158:3 159:3 160:3 161:3 162:3 163:3 164:3 165:3 166:3 167:3 168:3 169:3 170:3 171:3 172:3 173:3 174:3 175:3 176:3 177:3 178:3 179:3 180:3 181:3 182:3 183:3 184:3 185:3 186:3 187:3 188:3 189:3 190:3 191:3 192:3 193:3 194:3 195:3 196:3 197:3 198:3 199:3 200:3 201:3 202:3 203:3 204:3 205:3 206:3 207:3 208:3 209:3 210:3 211:3 212:3 213:3 214:3 215:2 216:2 217:2 218:2 219:2 220:2 221:2 222:2 223:2 224:2 225:2 226:2 227:2 228:2 229:2 230:2 231:2 232:2 233:2 234:2 235:2 236:2 237:2 238:2 239:2 240:2 241:2 242:2 243:2 244:2 245:2 246:2 247:2 248:2 249:2 250:2 251:2 252:2 253:2 254:2 255:2 256:2 257:2 258:2 259:2 260:2 261:2 262:2 263:2 264:2 265:2 266:2 267:2 268:2 269:2 270:2 271:2 272:2 273:2 274:2 275:2 276:2 277:2 278:2 279:2 280:2 281:2 282:2 283:2 284:2 285:2 286:2 287:2 288:2 289:2 290:2 291:2 292:2 293:2 294:2 295:2 296:2 297:2 298:2 299:2 300:2 
0.01714436568706654 1:123 2:45 3:37 4:31 5:30 6:30 7:29 8:28 9:28 10:27 11:24 12:24 13:22 14:19 15:18 16:17 17:17 18:16 19:16 20:16 21:15 22:14 23:14 24:14 25:13 26:13 27:13 28:11 29:10 30:10 31:9 32:9 33:9 34:9 35:9 36:9 37:9 38:8 39:8 40:8 41:8 42:8 43:8 44:8 45:7 46:7 47:7 48:7 49:7 50:6 51:6 52:6 53:6 54:6 55:6 56:6 57:6 58:6 59:6 60:6 61:6 62:6 63:6 64:6 65:6 66:6 67:6 68:6 69:6 70:5 71:5 72:5 73:5 74:5 75:5 76:5 77:5 78:5 79:5 80:5 81:5 82:5 83:5 84:5 85:5 86:5 87:5 88:5 89:5 90:4 91:4 92:4 93:4 94:4 95:4 96:4 97:4 98:4 99:4 100:4 101:4 102:4 103:4 104:4 105:4 106:4 107:4 108:4 109:4 110:4 111:3 112:3 113:3 114:3 115:3 116:3 117:3 118:3 119:3 120:3 121:3 122:3 123:3 124:3 125:3 126:3 127:3 128:3 129:3 130:3 131:3 132:3 133:3 134:3 135:3 136:3 137:3 138:3 139:3 140:3 141:3 142:3 143:3 144:3 145:3 146:3 147:3 148:3 149:3 150:3 151:3 152:3 153:3 154:3 155:3 156:3 157:3 158:3 159:3 160:3 161:3 162:3 163:3 164:3 165:3 166:3 167:3 168:3 169:3 170:3 171:3 172:3 173:3 174:2 175:2 176:2 177:2 178:2 179:2 180:2 181:2 182:2 183:2 184:2 185:2 186:2 187:2 188:2 189:2 190:2 191:2 192:2 193:2 194:2 195:2 196:2 197:2 198:2 199:2 200:2 201:2 202:2 203:2 204:2 205:2 206:2 207:2 208:2 209:2 210:2 211:2 212:2 213:2 214:2 215:2 216:2 217:2 218:2 219:2 220:2 221:2 222:2 223:2 224:2 225:2 226:2 227:2 228:2 229:2 230:2 231:2 232:2 233:2 234:2 235:2 236:2 237:2 238:2 239:2 240:2 241:2 242:2 243:2 244:2 245:2 246:2 247:2 248:2 249:2 250:2 251:2 252:2 253:2 254:2 255:2 256:2 257:2 258:2 259:2 260:2 261:2 262:2 263:2 264:2 265:2 266:2 267:2 268:2 269:2 270:2 271:2 272:2 273:2 274:2 275:2 276:2 277:2 278:2 279:2 280:2 281:2 282:2 283:2 284:2 285:2 286:2 287:2 288:2 289:2 290:2 291:2 292:2 293:2 294:2 295:2 296:2 297:2 298:2 299:2 300:2 
0.3374835836057203 1:24 2:23 3:22 4:18 5:17 6:16 7:14 8:13 9:11 10:10 11:10 12:10 13:9 14:9 15:9 16:9 17:9 18:8 19:8 20:8 21:8 22:7 23:7 24:7 25:7 26:7 27:6 28:6 29:6 30:6 31:6 32:6 33:6 34:6 35:6 36:6 37:5 38:5 39:5 40:5 41:5 42:5 43:5 44:5 45:5 46:5 47:5 48:5 49:5 50:5 51:5 52:5 53:5 54:5 55:5 56:4 57:4 58:4 59:4 60:4 61:4 62:4 63:4 64:4 65:4 66:4 67:4 68:4 69:4 70:4 71:4 72:4 73:4 74:4 75:4 76:4 77:4 78:4 79:4 80:4 81:4 82:4 83:4 84:4 85:3 86:3 87:3 88:3 89:3 90:3 91:3 92:3 93:3 94:3 95:3 96:3 97:3 98:3 99:3 100:3 101:3 102:3 103:3 104:3 105:3 106:3 107:3 108:3 109:3 110:3 111:3 112:3 113:3 114:3 115:3 116:3 117:3 118:3 119:3 120:3 121:3 122:3 123:3 124:3 125:3 126:3 127:3 128:3 129:3 130:3 131:3 132:3 133:3 134:3 135:3 136:3 137:3 138:2 139:2 140:2 141:2 142:2 143:2 144:2 145:2 146:2 147:2 148:2 149:2 150:2 151:2 152:2 153:2 154:2 155:2 156:2 157:2 158:2 159:2 160:2 161:2 162:2 163:2 164:2 165:2 166:2 167:2 168:2 169:2 170:2 171:2 172:2 173:2 174:2 175:2 176:2 177:2 178:2 179:2 180:2 181:2 182:2 183:2 184:2 185:2 186:2 187:2 188:2 189:2 190:2 191:2 192:2 193:2 194:2 195:2 196:2 197:2 198:2 199:2 200:2 201:2 202:2 203:2 204:2 205:2 206:2 207:2 208:2 209:2 210:2 211:2 212:2 213:2 214:2 215:2 216:2 217:2 218:2 219:2 220:2 221:2 222:2 223:2 224:2 225:2 226:2 227:2 228:2 229:2 230:2 231:2 232:2 233:2 234:2 235:2 236:2 237:2 238:2 239:2 240:2 241:2 242:2 243:2 244:2 245:2 246:2 247:2 248:2 249:2 250:2 251:2 252:2 253:2 254:2 255:2 256:2 257:2 258:2 259:2 260:2 261:2 262:2 263:2 264:2 265:2 266:2 267:2 268:2 269:2 270:2 271:2 272:2 273:2 274:1 275:1 276:1 277:1 278:1 279:1 280:1 281:1 282:1 283:1 284:1 285:1 286:1 287:1 288:1 289:1 290:1 291:1 292:1 293:1 294:1 295:1 296:1 297:1 298:1 299:1 300:1 
0.009705749026299676 1:56 2:52 3:49 4:46 5:44 6:43 7:40 8:38 9:36 10:32 11:30 12:27 13:27 14:26 15:24 16:23 17:23 18:23 19:22 20:22 21:21 22:21 23:20 24:19 25:18 26:18 27:16 28:16 29:16 30:15 31:15 32:15 33:15 34:14 35:13 36:13 37:12 38:11 39:10 40:10 41:10 42:10 43:10 44:10 45:10 46:10 47:9 48:9 49:8 50:8 51:8 52:8 53:8 54:8 55:8 56:8 57:8 58:7 59:7 60:7 61:7 62:7 63:7 64:7 65:7 66:6 67:6 68:6 69:6 70:6 71:6 72:6 73:6 74:6 75:6 76:6 77:6 78:6 79:6 80:5 81:5 82:5 83:5 84:5 85:5 86:5 87:5 88:5 89:5 90:5 91:5 92:5 93:5 94:5 95:5 96:5 97:5 98:5 99:5 100:5 101:5 102:5 103:5 104:4 105:4 106:4 107:4 108:4 109:4 110:4 111:4 112:4 113:4 114:4 115:4 116:4 117:4 118:4 119:4 120:4 121:4 122:4 123:4 124:4 125:4 126:4 127:4 128:4 129:4 130:4 131:4 132:4 133:4 134:4 135:4 136:4 137:4 138:3 139:3 140:3 141:3 142:3 143:3 144:3 145:3 146:3 147:3 148:3 149:3 150:3 151:3 152:3 153:3 154:3 155:3 156:3 157:3 158:3 159:3 160:3 161:3 162:3 163:3 164:3 165:3 166:3 167:3 168:3 169:3 170:3 171:3 172:3 173:3 174:3 175:3 176:3 177:3 178:3 179:3 180:3 181:3 182:3 183:3 184:3 185:3 186:2 187:2 188:2 189:2 190:2 191:2 192:2 193:2 194:2 195:2 196:2 197:2 198:2 199:2 200:2 201:2 202:2 203:2 204:2 205:2 206:2 207:2 208:2 209:2 210:2 211:2 212:2 213:2 214:2 215:2 216:2 217:2 218:2 219:2 220:2 221:2 222:2 223:2 224:2 225:2 226:2 227:2 228:2 229:2 230:2 231:2 232:2 233:2 234:2 235:2 236:2 237:2 238:2 239:2 240:2 241:2 242:2 243:2 244:2 245:2 246:2 247:2 248:2 249:2 250:2 251:2 252:2 253:2 254:2 255:2 256:2 257:2 258:2 259:2 260:2 261:2 262:2 263:2 264:2 265:2 266:2 267:2 268:2 269:2 270:2 271:2 272:2 273:2 274:2 275:2 276:2 277:2 278:2 279:2 280:2 281:2 282:2 283:2 284:2 285:2 286:2 287:2 288:2 289:2 290:2 291:2 292:2 293:2 294:2 295:2 296:2 297:2 298:2 299:2 300:2 
0.0061926613568185 1:32 2:15 3:12 4:10 5:10 6:9 7:9 8:9 9:8 10:6 11:6 12:6 13:6 14:6 15:5 16:5 17:4 18:4 19:4 20:4 21:4 22:4 23:4 24:4 25:4 26:4 27:4 28:4 29:4 30:4 31:4 32:4 33:4 34:4 35:4 36:4 37:4 38:4 39:4 40:3 41:3 42:3 43:3 44:3 45:3 46:3 47:3 48:3 49:3 50:3 51:3 52:3 53:3 54:3 55:3 56:3 57:3 58:3 59:3 60:3 61:3 62:3 63:3 64:3 65:3 66:3 67:2 68:2 69:2 70:2 71:2 72:2 73:2 74:2 75:2 76:2 77:2 78:2 79:2 80:2 81:2 82:2 83:2 84:2 85:2 86:2 87:2 88:2 89:2 90:2 91:2 92:2 93:2 94:2 95:2 96:2 97:2 98:2 99:2 100:2 101:2 102:2 103:2 104:2 105:2 106:2 107:2 108:2 109:2 110:2 111:2 112:2 113:2 114:2 115:2 116:2 117:2 118:2 119:2 120:2 121:2 122:2 123:2 124:2 125:2 126:2 127:2 128:2 129:2 130:2 131:2 132:2 133:2 134:2 135:2 136:2 137:2 138:2 139:2 140:2 141:1 142:1 143:1 144:1 145:1 146:1 147:1 148:1 149:1 150:1 151:1 152:1 153:1 154:1 155:1 156:1 157:1 158:1 159:1 160:1 161:1 162:1 163:1 164:1 165:1 166:1 167:1 168:1 169:1 170:1 171:1 172:1 173:1 174:1 175:1 176:1 177:1 178:1 179:1 180:1 181:1 182:1 183:1 184:1 185:1 186:1 187:1 188:1 189:1 190:1 191:1 192:1 193:1 194:1 195:1 196:1 197:1 198:1 199:1 200:1 201:1 202:1 203:1 204:1 205:1 206:1 207:1 208:1 209:1 210:1 211:1 212:1 213:1 214:1 215:1 216:1 217:1 218:1 219:1 220:1 221:1 222:1 223:1 224:1 225:1 226:1 227:1 228:1 229:1 230:1 231:1 232:1 233:1 234:1 235:1 236:1 237:1 238:1 239:1 240:1 241:1 242:1 243:1 244:1 245:1 246:1 247:1 248:1 249:1 250:1 251:1 252:1 253:1 254:1 255:1 256:1 257:1 258:1 259:1 260:1 261:1 262:1 263:1 264:1 265:1 266:1 267:1 268:1 269:1 270:1 271:1 272:1 273:1 274:1 275:1 276:1 277:1 278:1 279:1 280:1 281:1 282:1 283:1 284:1 285:1 286:1 287:1 288:1 289:1 290:1 291:1 292:1 293:1 294:1 295:1 296:1 297:1 298:1 299:1 300:1 
0.02355481374723417 1:194 2:68 3:56 4:36 5:34 6:31 7:27 8:27 9:27 10:26 11:24 12:23 13:22 14:21 15:19 16:18 17:18 18:17 19:17 20:16 21:16 22:16 23:15 24:15 25:15 26:15 27:15 28:14 29:14 30:14 31:14 32:13 33:13 34:13 35:13 36:13 37:13 38:12 39:12 40:11 41:11 42:11 43:11 44:10 45:10 46:9 47:9 48:9 49:9 50:9 51:9 52:8 53:8 54:8 55:8 56:8 57:8 58:8 59:8 60:8 61:8 62:7 63:7 64:7 65:7 66:7 67:7 68:7 69:7 70:7 71:7 72:7 73:7 74:7 75:6 76:6 77:6 78:6 79:6 80:6 81:6 82:6 83:6 84:6 85:6 86:6 87:6 88:6 89:6 90:6 91:6 92:6 93:6 94:5 95:5 96:5 97:5 98:5 99:5 100:5 101:5 102:5 103:5 104:5 105:5 106:5 107:5 108:5 109:5 110:5 111:5 112:5 113:5 114:5 115:5 116:5 117:5 118:5 119:5 120:5 121:4 122:4 123:4 124:4 125:4 126:4 127:4 128:4 129:4 130:4 131:4 132:4 133:4 134:4 135:4 136:4 137:4 138:4 139:4 140:4 141:4 142:4 143:4 144:4 145:4 146:4 147:4 148:4 149:4 150:4 151:4 152:4 153:4 154:4 155:4 156:4 157:4 158:4 159:4 160:3 161:3 162:3 163:3 164:3 165:3 166:3 167:3 168:3 169:3 170:3 171:3 172:3 173:3 174:3 175:3 176:3 177:3 178:3 179:3 180:3 181:3 182:3 183:3 184:3 185:3 186:3 187:3 188:3 189:3 190:3 191:3 192:3 193:3 194:3 195:3 196:3 197:3 198:3 199:3 200:3 201:3 202:3 203:3 204:3 205:3 206:3 207:3 208:3 209:3 210:3 211:3 212:3 213:3 214:3 215:3 216:3 217:3 218:3 219:3 220:3 221:3 222:3 223:3 224:2 225:2 226:2 227:2 228:2 229:2 230:2 231:2 232:2 233:2 234:2 235:2 236:2 237:2 238:2 239:2 240:2 241:2 242:2 243:2 244:2 245:2 246:2 247:2 248:2 249:2 250:2 251:2 252:2 253:2 254:2 255:2 256:2 257:2 258:2 259:2 260:2 261:2 262:2 263:2 264:2 265:2 266:2 267:2 268:2 269:2 270:2 271:2 272:2 273:2 274:2 275:2 276:2 277:2 278:2 279:2 280:2 281:2 282:2 283:2 284:2 285:2 286:2 287:2 288:2 289:2 290:2 291:2 292:2 293:2 294:2 295:2 296:2 297:2 298:2 299:2 300:2 
0.02325770859701268 1:102 2:77 3:73 4:65 5:65 6:64 7:56 8:43 9:31 10:26 11:25 12:23 13:23 14:23 15:21 16:21 17:21 18:20 19:19 20:18 21:17 22:17 23:16 24:14 25:14 26:14 27:14 28:13 29:12 30:12 31:12 32:12 33:11 34:11 35:10 36:10 37:10 38:10 39:10 40:10 41:9 42:9 43:9 44:9 45:9 46:8 47:8 48:8 49:8 50:8 51:8 52:8 53:8 54:8 55:8 56:8 57:7 58:7 59:7 60:7 61:7 62:7 63:7 64:7 65:7 66:7 67:6 68:6 69:6 70:6 71:6 72:6 73:6 74:6 75:6 76:6 77:6 78:6 79:6 80:6 81:6 82:6 83:6 84:6 85:6 86:6 87:5 88:5 89:5 90:5 91:5 92:5 93:5 94:5 95:5 96:5 97:5 98:5 99:5 100:5 101:5 102:5 103:5 104:5 105:5 106:5 107:5 108:5 109:5 110:5 111:5 112:5 113:5 114:5 115:5 116:5 117:5 118:4 119:4 120:4 121:4 122:4 123:4 124:4 125:4 126:4 127:4 128:4 129:4 130:4 131:4 132:4 133:4 134:4 135:4 136:4 137:4 138:4 139:4 140:4 141:4 142:4 143:4 144:4 145:4 146:4 147:4 148:4 149:4 150:4 151:4 152:4 153:4 154:3 155:3 156:3 157:3 158:3 159:3 160:3 161:3 162:3 163:3 164:3 165:3 166:3 167:3 168:3 169:3 170:3 171:3 172:3 173:3 174:3 175:3 176:3 177:3 178:3 179:3 180:3 181:3 182:3 183:3 184:3 185:3 186:3 187:3 188:3 189:3 190:3 191:3 192:3 193:3 194:3 195:3 196:3 197:3 198:3 199:3 200:3 201:3 202:3 203:3 204:3 205:3 206:3 207:3 208:3 209:3 210:3 211:3 212:3 213:3 214:3 215:3 216:3 217:3 218:3 219:3 220:3 221:3 222:3 223:3 224:2 225:2 226:2 227:2 228:2 229:2 230:2 231:2 232:2 233:2 234:2 235:2 236:2 237:2 238:2 239:2 240:2 241:2 242:2 243:2 244:2 245:2 246:2 247:2 248:2 249:2 250:2 251:2 252:2 253:2 254:2 255:2 256:2 257:2 258:2 259:2 260:2 261:2 262:2 263:2 264:2 265:2 266:2 267:2 268:2 269:2 270:2 271:2 272:2 273:2 274:2 275:2 276:2 277:2 278:2 279:2 280:2 281:2 282:2 283:2 284:2 285:2 286:2 287:2 288:2 289:2 290:2 291:2 292:2 293:2 294:2 295:2 296:2 297:2 298:2 299:2 300:2 
0.02031191826891903 1:119 2:83 3:75 4:57 5:51 6:46 7:40 8:33 9:31 10:27 11:26 12:25 13:23 14:20 15:20 16:20 17:19 18:19 19:19 20:19 21:19 22:16 23:14 24:14 25:13 26:13 27:12 28:12 29:12 30:12 31:11 32:11 33:11 34:11 35:11 36:11 37:10 38:9 39:9 40:9 41:8 42:8 43:8 44:8 45:8 46:8 47:8 48:7 49:7 50:7 51:7 52:7 53:7 54:7 55:7 56:7 57:7 58:7 59:7 60:6 61:6 62:6 63:6 64:6 65:6 66:6 67:6 68:6 69:6 70:6 71:5 72:5 73:5 74:5 75:5 76:5 77:5 78:5 79:5 80:5 81:5 82:5 83:5 84:5 85:5 86:5 87:5 88:5 89:4 90:4 91:4 92:4 93:4 94:4 95:4 96:4 97:4 98:4 99:4 100:4 101:4 102:4 103:4 104:4 105:4 106:4 107:4 108:4 109:4 110:4 111:4 112:4 113:4 114:4 115:4 116:4 117:4 118:4 119:4 120:4 121:4 122:4 123:4 124:3 125:3 126:3 127:3 128:3 129:3 130:3 131:3 132:3 133:3 134:3 135:3 136:3 137:3 138:3 139:3 140:3 141:3 142:3 143:3 144:3 145:3 146:3 147:3 148:3 149:3 150:3 151:3 152:3 153:3 154:3 155:3 156:3 157:3 158:3 159:3 160:3 161:3 162:3 163:3 164:3 165:3 166:3 167:3 168:3 169:3 170:3 171:3 172:3 173:3 174:3 175:2 176:2 177:2 178:2 179:2 180:2 181:2 182:2 183:2 184:2 185:2 186:2 187:2 188:2 189:2 190:2 191:2 192:2 193:2 194:2 195:2 196:2 197:2 198:2 199:2 200:2 201:2 202:2 203:2 204:2 205:2 206:2 207:2 208:2 209:2 210:2 211:2 212:2 213:2 214:2 215:2 216:2 217:2 218:2 219:2 220:2 221:2 222:2 223:2 224:2 225:2 226:2 227:2 228:2 229:2 230:2 231:2 232:2 233:2 234:2 235:2 236:2 237:2 238:2 239:2 240:2 241:2 242:2 243:2 244:2 245:2 246:2 247:2 248:2 249:2 250:2 251:2 252:2 253:2 254:2 255:2 256:2 257:2 258:2 259:2 260:2 261:2 262:2 263:2 264:2 265:2 266:2 267:2 268:2 269:2 270:2 271:2 272:2 273:2 274:2 275:2 276:2 277:2 278:2 279:2 280:2 281:2 282:2 283:2 284:2 285:2 286:2 287:2 288:2 289:2 290:2 291:2 292:2 293:2 294:2 295:2 296:2 297:2 298:2 299:2 300:2 
0.004900653245684228 1:47 2:42 3:39 4:37 5:37 6:32 7:23 8:22 9:22 10:21 11:21 12:21 13:18 14:17 15:16 16:16 17:14 18:14 19:14 20:12 21:12 22:11 23:11 24:11 25:10 26:10 27:10 28:9 29:9 30:9 31:8 32:8 33:8 34:8 35:8 36:8 37:8 38:8 39:8 40:8 41:8 42:8 43:8 44:7 45:7 46:7 47:7 48:7 49:7 50:7 51:7 52:7 53:7 54:6 55:6 56:6 57:6 58:6 59:6 60:6 61:6 62:6 63:6 64:6 65:6 66:6 67:6 68:6 69:6 70:6 71:5 72:5 73:5 74:5 75:5 76:5 77:5 78:5 79:5 80:5 81:5 82:5 83:5 84:5 85:5 86:5 87:5 88:5 89:5 90:5 91:5 92:5 93:5 94:5 95:5 96:5 97:5 98:5 99:5 100:5 101:5 102:5 103:4 104:4 105:4 106:4 107:4 108:4 109:4 110:4 111:4 112:4 113:4 114:4 115:4 116:4 117:4 118:4 119:4 120:4 121:4 122:4 123:4 124:4 125:4 126:4 127:4 128:4 129:4 130:4 131:4 132:4 133:4 134:4 135:4 136:4 137:4 138:4 139:4 140:4 141:4 142:4 143:3 144:3 145:3 146:3 147:3 148:3 149:3 150:3 151:3 152:3 153:3 154:3 155:3 156:3 157:3 158:3 159:3 160:3 161:3 162:3 163:3 164:3 165:3 166:3 167:3 168:3 169:3 170:3 171:3 172:3 173:3 174:3 175:3 176:3 177:3 178:3 179:3 180:3 181:3 182:3 183:3 184:3 185:3 186:3 187:3 188:3 189:3 190:3 191:3 192:3 193:3 194:3 195:3 196:3 197:3 198:3 199:3 200:3 201:3 202:3 203:3 204:3 205:3 206:3 207:3 208:3 209:3 210:3 211:3 212:3 213:3 214:3 215:3 216:3 217:3 218:3 219:3 220:3 221:3 222:3 223:3 224:3 225:3 226:3 227:3 228:3 229:3 230:3 231:3 232:3 233:3 234:3 235:3 236:3 237:3 238:2 239:2 240:2 241:2 242:2 243:2 244:2 245:2 246:2 247:2 248:2 249:2 250:2 251:2 252:2 253:2 254:2 255:2 256:2 257:2 258:2 259:2 260:2 261:2 262:2 263:2 264:2 265:2 266:2 267:2 268:2 269:2 270:2 271:2 272:2 273:2 274:2 275:2 276:2 277:2 278:2 279:2 280:2 281:2 282:2 283:2 284:2 285:2 286:2 287:2 288:2 289:2 290:2 291:2 292:2 293:2 294:2 295:2 296:2 297:2 298:2 299:2 300:2 
0.007264803114548342 1:89 2:73 3:44 4:41 5:35 6:32 7:31 8:27 9:22 10:20 11:20 12:20 13:19 14:19 15:19 16:18 17:18 18:17 19:17 20:16 21:16 22:16 23:15 24:15 25:15 26:14 27:14 28:14 29:13 30:13 31:13 32:13 33:12 34:12 35:12 36:11 37:11 38:11 39:11 40:11 41:11 42:11 43:11 44:11 45:10 46:10 47:9 48:9 49:9 50:9 51:9 52:9 53:9 54:8 55:8 56:8 57:8 58:8 59:7 60:7 61:7 62:7 63:7 64:7 65:7 66:7 67:7 68:7 69:7 70:7 71:7 72:6 73:6 74:6 75:6 76:6 77:6 78:6 79:6 80:6 81:6 82:6 83:6 84:6 85:6 86:5 87:5 88:5 89:5 90:5 91:5 92:5 93:5 94:5 95:5 96:5 97:5 98:5 99:5 100:5 101:5 102:5 103:5 104:5 105:5 106:5 107:5 108:5 109:5 110:5 111:5 112:5 113:5 114:5 115:5 116:5 117:5 118:5 119:5 120:5 121:5 122:5 123:5 124:5 125:5 126:5 127:5 128:5 129:5 130:5 131:4 132:4 133:4 134:4 135:4 136:4 137:4 138:4 139:4 140:4 141:4 142:4 143:4 144:4 145:4 146:4 147:4 148:4 149:4 150:4 151:4 152:4 153:4 154:4 155:4 156:4 157:4 158:4 159:4 160:4 161:4 162:4 163:4 164:4 165:4 166:4 167:4 168:4 169:4 170:4 171:4 172:4 173:3 174:3 175:3 176:3 177:3 178:3 179:3 180:3 181:3 182:3 183:3 184:3 185:3 186:3 187:3 188:3 189:3 190:3 191:3 192:3 193:3 194:3 195:3 196:3 197:3 198:3 199:3 200:3 201:3 202:3 203:3 204:3 205:3 206:3 207:3 208:3 209:3 210:3 211:3 212:3 213:3 214:3 215:3 216:3 217:3 218:3 219:3 220:3 221:3 222:3 223:3 224:3 225:3 226:3 227:3 228:3 229:3 230:3 231:3 232:3 233:3 234:3 235:3 236:3 237:3 238:3 239:3 240:3 241:3 242:3 243:3 244:3 245:3 246:3 247:3 248:3 249:3 250:3 251:3 252:3 253:3 254:3 255:3 256:3 257:3 258:2 259:2 260:2 261:2 262:2 263:2 264:2 265:2 266:2 267:2 268:2 269:2 270:2 271:2 272:2 273:2 274:2 275:2 276:2 277:2 278:2 279:2 280:2 281:2 282:2 283:2 284:2 285:2 286:2 287:2 288:2 289:2 290:2 291:2 292:2 293:2 294:2 295:2 296:2 297:2 298:2 299:2 300:2 
0.005440474883076989 1:97 2:79 3:56 4:45 5:42 6:39 7:34 8:34 9:31 10:31 11:25 12:21 13:20 14:20 15:19 16:18 17:18 18:17 19:16 20:16 21:15 22:14 23:14 24:13 25:13 26:13 27:12 28:12 29:12 30:12 31:12 32:11 33:10 34:10 35:10 36:9 37:9 38:9 39:9 40:9 41:9 42:9 43:9 44:9 45:8 46:8 47:8 48:8 49:8 50:8 51:8 52:7 53:7 54:7 55:7 56:7 57:7 58:7 59:7 60:7 61:7 62:7 63:7 64:7 65:6 66:6 67:6 68:6 69:6 70:6 71:6 72:6 73:6 74:6 75:6 76:6 77:6 78:6 79:6 80:6 81:6 82:6 83:5 84:5 85:5 86:5 87:5 88:5 89:5 90:5 91:5 92:5 93:5 94:5 95:5 96:5 97:5 98:5 99:5 100:5 101:5 102:5 103:5 104:5 105:5 106:4 107:4 108:4 109:4 110:4 111:4 112:4 113:4 114:4 115:4 116:4 117:4 118:4 119:4 120:4 121:4 122:4 123:4 124:4 125:4 126:4 127:4 128:4 129:3 130:3 131:3 132:3 133:3 134:3 135:3 136:3 137:3 138:3 139:3 140:3 141:3 142:3 143:3 144:3 145:3 146:3 147:3 148:3 149:3 150:3 151:3 152:3 153:3 154:3 155:3 156:3 157:3 158:3 159:3 160:3 161:3 162:3 163:3 164:3 165:3 166:3 167:3 168:3 169:3 170:3 171:3 172:3 173:3 174:3 175:3 176:3 177:3 178:3 179:3 180:3 181:3 182:3 183:2 184:2 185:2 186:2 187:2 188:2 189:2 190:2 191:2 192:2 193:2 194:2 195:2 196:2 197:2 198:2 199:2 200:2 201:2 202:2 203:2 204:2 205:2 206:2 207:2 208:2 209:2 210:2 211:2 212:2 213:2 214:2 215:2 216:2 217:2 218:2 219:2 220:2 221:2 222:2 223:2 224:2 225:2 226:2 227:2 228:2 229:2 230:2 231:2 232:2 233:2 234:2 235:2 236:2 237:2 238:2 239:2 240:2 241:2 242:2 243:2 244:2 245:2 246:2 247:2 248:2 249:2 250:2 251:2 252:2 253:2 254:2 255:2 256:2 257:2 258:2 259:2 260:2 261:2 262:2 263:2 264:2 265:2 266:2 267:2 268:2 269:2 270:2 271:2 272:2 273:2 274:2 275:2 276:2 277:2 278:2 279:2 280:2 281:2 282:2 283:2 284:2 285:2 286:2 287:2 288:2 289:2 290:2 291:2 292:2 293:2 294:2 295:2 296:2 297:2 298:2 299:2 300:2 
0.02196362931068868 1:129 2:100 3:72 4:62 5:54 6:53 7:49 8:28 9:26 10:26 11:24 12:23 13:21 14:20 15:20 16:19 17:18 18:18 19:15 20:15 21:15 22:15 23:14 24:14 25:14 26:14 27:14 28:14 29:14 30:13 31:13 32:12 33:11 34:11 35:11 36:11 37:11 38:10 39:10 40:9 41:9 42:9 43:9 44:9 45:9 46:9 47:9 48:9 49:9 50:8 51:8 52:8 53:8 54:8 55:8 56:8 57:8 58:8 59:8 60:8 61:7 62:7 63:7 64:7 65:7 66:7 67:7 68:7 69:7 70:7 71:7 72:7 73:7 74:7 75:7 76:7 77:6 78:6 79:6 80:6 81:6 82:6 83:6 84:6 85:6 86:6 87:6 88:6 89:6 90:6 91:6 92:6 93:6 94:6 95:6 96:6 97:5 98:5 99:5 100:5 101:5 102:5 103:5 104:5 105:5 106:5 107:5 108:5 109:5 110:5 111:5 112:5 113:5 114:5 115:5 116:5 117:5 118:5 119:5 120:4 121:4 122:4 123:4 124:4 125:4 126:4 127:4 128:4 129:4 130:4 131:4 132:4 133:4 134:4 135:4 136:4 137:4 138:4 139:4 140:4 141:4 142:4 143:4 144:4 145:4 146:4 147:4 148:4 149:4 150:4 151:4 152:4 153:4 154:4 155:4 156:4 157:4 158:4 159:4 160:4 161:4 162:4 163:4 164:4 165:3 166:3 167:3 168:3 169:3 170:3 171:3 172:3 173:3 174:3 175:3 176:3 177:3 178:3 179:3 180:3 181:3 182:3 183:3 184:3 185:3 186:3 187:3 188:3 189:3 190:3 191:3 192:3 193:3 194:3 195:3 196:3 197:3 198:3 199:3 200:3 201:3 202:3 203:3 204:3 205:3 206:3 207:3 208:3 209:3 210:3 211:3 212:3 213:3 214:3 215:3 216:3 217:3 218:3 219:3 220:2 221:2 222:2 223:2 224:2 225:2 226:2 227:2 228:2 229:2 230:2 231:2 232:2 233:2 234:2 235:2 236:2 237:2 238:2 239:2 240:2 241:2 242:2 243:2 244:2 245:2 246:2 247:2 248:2 249:2 250:2 251:2 252:2 253:2 254:2 255:2 256:2 257:2 258:2 259:2 260:2 261:2 262:2 263:2 264:2 265:2 266:2 267:2 268:2 269:2 270:2 271:2 272:2 273:2 274:2 275:2 276:2 277:2 278:2 279:2 280:2 281:2 282:2 283:2 284:2 285:2 286:2 287:2 288:2 289:2 290:2 291:2 292:2 293:2 294:2 295:2 296:2 297:2 298:2 299:2 300:2 
0.004780683541719717 1:70 2:64 3:44 4:37 5:36 6:34 7:23 8:22 9:21 10:21 11:21 12:21 13:20 14:20 15:20 16:20 17:20 18:19 19:19 20:18 21:17 22:16 23:16 24:16 25:16 26:15 27:14 28:14 29:13 30:12 31:12 32:12 33:11 34:11 35:10 36:10 37:10 38:10 39:9 40:9 41:9 42:9 43:9 44:9 45:9 46:8 47:8 48:8 49:8 50:8 51:8 52:8 53:7 54:7 55:7 56:7 57:7 58:7 59:7 60:7 61:7 62:7 63:6 64:6 65:6 66:6 67:6 68:6 69:6 70:6 71:6 72:6 73:6 74:6 75:6 76:6 77:6 78:6 79:6 80:6 81:6 82:5 83:5 84:5 85:5 86:5 87:5 88:5 89:5 90:5 91:5 92:5 93:5 94:5 95:5 96:5 97:5 98:5 99:5 100:5 101:5 102:5 103:5 104:5 105:5 106:5 107:5 108:5 109:5 110:4 111:4 112:4 113:4 114:4 115:4 116:4 117:4 118:4 119:4 120:4 121:4 122:4 123:4 124:4 125:4 126:4 127:4 128:4 129:4 130:4 131:4 132:4 133:4 134:4 135:4 136:4 137:4 138:4 139:4 140:4 141:4 142:4 143:4 144:4 145:4 146:4 147:4 148:4 149:4 150:4 151:4 152:4 153:4 154:4 155:4 156:4 157:4 158:4 159:4 160:4 161:3 162:3 163:3 164:3 165:3 166:3 167:3 168:3 169:3 170:3 171:3 172:3 173:3 174:3 175:3 176:3 177:3 178:3 179:3 180:3 181:3 182:3 183:3 184:3 185:3 186:3 187:3 188:3 189:3 190:3 191:3 192:3 193:3 194:3 195:3 196:3 197:3 198:3 199:3 200:3 201:3 202:3 203:3 204:3 205:3 206:3 207:3 208:3 209:3 210:3 211:3 212:3 213:3 214:3 215:3 216:3 217:3 218:3 219:3 220:3 221:3 222:3 223:3 224:3 225:3 226:3 227:3 228:3 229:3 230:3 231:3 232:3 233:3 234:3 235:3 236:3 237:3 238:3 239:3 240:3 241:3 242:3 243:3 244:3 245:3 246:3 247:3 248:3 249:3 250:3 251:3 252:3 253:3 254:3 255:2 256:2 257:2 258:2 259:2 260:2 261:2 262:2 263:2 264:2 265:2 266:2 267:2 268:2 269:2 270:2 271:2 272:2 273:2 274:2 275:2 276:2 277:2 278:2 279:2 280:2 281:2 282:2 283:2 284:2 285:2 286:2 287:2 288:2 289:2 290:2 291:2 292:2 293:2 294:2 295:2 296:2 297:2 298:2 299:2 300:2 
0.01556406554425143 1:38 2:31 3:31 4:28 5:28 6:28 7:27 8:27 9:26 10:26 11:26 12:26 13:25 14:24 15:23 16:23 17:22 18:21 19:21 20:20 21:19 22:19 23:19 24:19 25:19 26:16 27:16 28:15 29:15 30:14 31:13 32:13 33:12 34:12 35:11 36:11 37:10 38:10 39:10 40:10 41:9 42:9 43:9 44:9 45:9 46:9 47:9 48:9 49:9 50:9 51:9 52:8 53:8 54:8 55:8 56:8 57:8 58:7 59:7 60:7 61:7 62:7 63:7 64:7 65:7 66:7 67:7 68:7 69:7 70:7 71:6 72:6 73:6 74:6 75:6 76:6 77:6 78:6 79:6 80:6 81:6 82:6 83:6 84:6 85:6 86:6 87:6 88:5 89:5 90:5 91:5 92:5 93:5 94:5 95:5 96:5 97:5 98:5 99:5 100:5 101:5 102:5 103:5 104:5 105:5 106:5 107:5 108:5 109:4 110:4 111:4 112:4 113:4 114:4 115:4 116:4 117:4 118:4 119:4 120:4 121:4 122:4 123:4 124:4 125:4 126:4 127:4 128:4 129:4 130:4 131:4 132:4 133:4 134:4 135:4 136:4 137:4 138:4 139:4 140:4 141:4 142:4 143:4 144:4 145:3 146:3 147:3 148:3 149:3 150:3 151:3 152:3 153:3 154:3 155:3 156:3 157:3 158:3 159:3 160:3 161:3 162:3 163:3 164:3 165:3 166:3 167:3 168:3 169:3 170:3 171:3 172:3 173:3 174:3 175:3 176:3 177:3 178:3 179:3 180:3 181:3 182:3 183:3 184:3 185:3 186:3 187:3 188:3 189:3 190:3 191:3 192:3 193:2 194:2 195:2 196:2 197:2 198:2 199:2 200:2 201:2 202:2 203:2 204:2 205:2 206:2 207:2 208:2 209:2 210:2 211:2 212:2 213:2 214:2 215:2 216:2 217:2 218:2 219:2 220:2 221:2 222:2 223:2 224:2 225:2 226:2 227:2 228:2 229:2 230:2 231:2 232:2 233:2 234:2 235:2 236:2 237:2 238:2 239:2 240:2 241:2 242:2 243:2 244:2 245:2 246:2 247:2 248:2 249:2 250:2 251:2 252:2 253:2 254:2 255:2 256:2 257:2 258:2 259:2 260:2 261:2 262:2 263:2 264:2 265:2 266:2 267:2 268:2 269:2 270:2 271:2 272:2 273:2 274:2 275:2 276:2 277:2 278:2 279:2 280:2 281:2 282:2 283:2 284:2 285:2 286:2 287:2 288:2 289:2 290:2 291:2 292:2 293:2 294:2 295:2 296:2 297:2 298:2 299:2 300:2 
0.003002230354358031 1:61 2:44 3:31 4:30 5:28 6:26 7:25 8:24 9:24 10:23 11:23 12:21 13:21 14:21 15:20 16:19 17:19 18:18 19:18 20:18 21:16 22:16 23:15 24:15 25:15 26:15 27:14 28:14 29:14 30:13 31:13 32:13 33:12 34:12 35:12 36:12 37:12 38:11 39:11 40:11 41:11 42:10 43:10 44:10 45:10 46:10 47:9 48:9 49:9 50:9 51:9 52:8 53:8 54:8 55:7 56:7 57:7 58:7 59:7 60:7 61:7 62:7 63:7 64:7 65:6 66:6 67:6 68:6 69:6 70:6 71:6 72:6 73:6 74:6 75:6 76:5 77:5 78:5 79:5 80:5 81:5 82:5 83:5 84:5 85:5 86:5 87:5 88:5 89:5 90:5 91:5 92:5 93:5 94:4 95:4 96:4 97:4 98:4 99:4 100:4 101:4 102:4 103:4 104:4 105:4 106:4 107:4 108:4 109:4 110:4 111:4 112:4 113:4 114:4 115:4 116:4 117:4 118:4 119:4 120:4 121:3 122:3 123:3 124:3 125:3 126:3 127:3 128:3 129:3 130:3 131:3 132:3 133:3 134:3 135:3 136:3 137:3 138:3 139:3 140:3 141:3 142:3 143:3 144:3 145:3 146:3 147:3 148:3 149:3 150:3 151:3 152:3 153:3 154:3 155:3 156:3 157:3 158:3 159:3 160:3 161:3 162:3 163:3 164:2 165:2 166:2 167:2 168:2 169:2 170:2 171:2 172:2 173:2 174:2 175:2 176:2 177:2 178:2 179:2 180:2 181:2 182:2 183:2 184:2 185:2 186:2 187:2 188:2 189:2 190:2 191:2 192:2 193:2 194:2 195:2 196:2 197:2 198:2 199:2 200:2 201:2 202:2 203:2 204:2 205:2 206:2 207:2 208:2 209:2 210:2 211:2 212:2 213:2 214:2 215:2 216:2 217:2 218:2 219:2 220:2 221:2 222:2 223:2 224:2 225:2 226:2 227:2 228:2 229:2 230:2 231:2 232:2 233:2 234:2 235:2 236:2 237:2 238:2 239:2 240:2 241:2 242:2 243:2 244:2 245:2 246:2 247:2 248:2 249:2 250:2 251:2 252:2 253:2 254:2 255:2 256:2 257:2 258:2 259:2 260:2 261:2 262:2 263:2 264:2 265:2 266:2 267:2 268:2 269:2 270:2 271:2 272:2 273:2 274:2 275:2 276:2 277:2 278:2 279:2 280:2 281:2 282:2 283:2 284:2 285:1 286:1 287:1 288:1 289:1 290:1 291:1 292:1 293:1 294:1 295:1 296:1 297:1 298:1 299:1 300:1 
0.00122438071312266 1:59 2:54 3:35 4:31 5:30 6:28 7:27 8:27 9:26 10:26 11:26 12:22 13:22 14:21 15:20 16:20 17:19 18:19 19:19 20:18 21:18 22:18 23:17 24:16 25:16 26:15 27:15 28:14 29:14 30:14 31:14 32:13 33:13 34:12 35:12 36:11 37:10 38:10 39:10 40:10 41:10 42:9 43:9 44:8 45:8 46:8 47:8 48:8 49:8 50:8 51:8 52:8 53:8 54:7 55:7 56:7 57:7 58:7 59:7 60:7 61:7 62:7 63:6 64:6 65:6 66:6 67:6 68:6 69:6 70:6 71:6 72:6 73:6 74:6 75:6 76:6 77:6 78:6 79:6 80:6 81:6 82:6 83:5 84:5 85:5 86:5 87:5 88:5 89:5 90:5 91:5 92:5 93:5 94:5 95:5 96:5 97:5 98:4 99:4 100:4 101:4 102:4 103:4 104:4 105:4 106:4 107:4 108:4 109:4 110:4 111:4 112:4 113:4 114:4 115:4 116:4 117:4 118:4 119:4 120:4 121:4 122:4 123:4 124:4 125:4 126:4 127:4 128:4 129:4 130:4 131:4 132:4 133:4 134:4 135:4 136:4 137:3 138:3 139:3 140:3 141:3 142:3 143:3 144:3 145:3 146:3 147:3 148:3 149:3 150:3 151:3 152:3 153:3 154:3 155:3 156:3 157:3 158:3 159:3 160:3 161:3 162:3 163:3 164:3 165:3 166:3 167:3 168:3 169:3 170:3 171:3 172:3 173:3 174:3 175:3 176:3 177:3 178:3 179:3 180:3 181:3 182:3 183:3 184:3 185:3 186:3 187:3 188:3 189:3 190:3 191:3 192:3 193:3 194:3 195:3 196:3 197:3 198:3 199:3 200:3 201:3 202:3 203:3 204:3 205:2 206:2 207:2 208:2 209:2 210:2 211:2 212:2 213:2 214:2 215:2 216:2 217:2 218:2 219:2 220:2 221:2 222:2 223:2 224:2 225:2 226:2 227:2 228:2 229:2 230:2 231:2 232:2 233:2 234:2 235:2 236:2 237:2 238:2 239:2 240:2 241:2 242:2 243:2 244:2 245:2 246:2 247:2 248:2 249:2 250:2 251:2 252:2 253:2 254:2 255:2 256:2 257:2 258:2 259:2 260:2 261:2 262:2 263:2 264:2 265:2 266:2 267:2 268:2 269:2 270:2 271:2 272:2 273:2 274:2 275:2 276:2 277:2 278:2 279:2 280:2 281:2 282:2 283:2 284:2 285:2 286:2 287:2 288:2 289:2 290:2 291:2 292:2 293:2 294:2 295:2 296:2 297:2 298:2 299:2 300:2 
0.003232810523490195 1:110 2:73 3:47 4:45 5:36 6:29 7:27 8:26 9:23 10:22 11:20 12:20 13:17 14:16 15:15 16:15 17:15 18:14 19:14 20:14 21:13 22:13 23:12 24:12 25:12 26:11 27:11 28:11 29:11 30:11 31:10 32:10 33:10 34:10 35:10 36:10 37:10 38:9 39:9 40:9 41:9 42:9 43:9 44:8 45:8 46:8 47:8 48:8 49:8 50:8 51:8 52:7 53:7 54:7 55:7 56:7 57:7 58:7 59:7 60:7 61:7 62:6 63:6 64:6 65:6 66:6 67:6 68:6 69:6 70:6 71:6 72:6 73:6 74:6 75:6 76:6 77:6 78:6 79:6 80:6 81:6 82:6 83:5 84:5 85:5 86:5 87:5 88:5 89:5 90:5 91:5 92:5 93:5 94:5 95:5 96:5 97:5 98:5 99:5 100:5 101:5 102:4 103:4 104:4 105:4 106:4 107:4 108:4 109:4 110:4 111:4 112:4 113:4 114:4 115:4 116:4 117:4 118:4 119:4 120:4 121:4 122:4 123:4 124:4 125:4 126:4 127:4 128:4 129:4 130:4 131:4 132:4 133:4 134:3 135:3 136:3 137:3 138:3 139:3 140:3 141:3 142:3 143:3 144:3 145:3 146:3 147:3 148:3 149:3 150:3 151:3 152:3 153:3 154:3 155:3 156:3 157:3 158:3 159:3 160:3 161:3 162:3 163:3 164:3 165:3 166:3 167:3 168:3 169:3 170:3 171:3 172:3 173:3 174:3 175:3 176:3 177:3 178:3 179:3 180:3 181:3 182:3 183:3 184:3 185:3 186:3 187:3 188:3 189:3 190:3 191:3 192:3 193:3 194:3 195:3 196:3 197:3 198:3 199:3 200:3 201:3 202:3 203:3 204:3 205:3 206:2 207:2 208:2 209:2 210:2 211:2 212:2 213:2 214:2 215:2 216:2 217:2 218:2 219:2 220:2 221:2 222:2 223:2 224:2 225:2 226:2 227:2 228:2 229:2 230:2 231:2 232:2 233:2 234:2 235:2 236:2 237:2 238:2 239:2 240:2 241:2 242:2 243:2 244:2 245:2 246:2 247:2 248:2 249:2 250:2 251:2 252:2 253:2 254:2 255:2 256:2 257:2 258:2 259:2 260:2 261:2 262:2 263:2 264:2 265:2 266:2 267:2 268:2 269:2 270:2 271:2 272:2 273:2 274:2 275:2 276:2 277:2 278:2 279:2 280:2 281:2 282:2 283:2 284:2 285:2 286:2 287:2 288:2 289:2 290:2 291:2 292:2 293:2 294:2 295:2 296:2 297:2 298:2 299:2 300:2 
0.01239432638168469 1:61 2:51 3:44 4:39 5:23 6:23 7:22 8:22 9:21 10:21 11:21 12:20 13:20 14:20 15:19 16:19 17:18 18:18 19:18 20:18 21:17 22:16 23:16 24:16 25:16 26:16 27:16 28:15 29:15 30:15 31:15 32:15 33:14 34:14 35:14 36:14 37:14 38:14 39:13 40:13 41:13 42:13 43:12 44:12 45:12 46:12 47:12 48:11 49:11 50:11 51:11 52:11 53:11 54:10 55:10 56:10 57:9 58:9 59:9 60:9 61:9 62:9 63:8 64:8 65:8 66:8 67:8 68:8 69:8 70:8 71:8 72:8 73:8 74:8 75:8 76:7 77:7 78:7 79:7 80:7 81:7 82:7 83:7 84:7 85:7 86:7 87:7 88:7 89:6 90:6 91:6 92:6 93:6 94:6 95:6 96:6 97:6 98:6 99:6 100:6 101:6 102:6 103:6 104:6 105:6 106:6 107:6 108:6 109:6 110:6 111:5 112:5 113:5 114:5 115:5 116:5 117:5 118:5 119:5 120:5 121:5 122:5 123:5 124:5 125:5 126:5 127:5 128:5 129:5 130:5 131:5 132:5 133:5 134:5 135:5 136:4 137:4 138:4 139:4 140:4 141:4 142:4 143:4 144:4 145:4 146:4 147:4 148:4 149:4 150:4 151:4 152:4 153:4 154:4 155:4 156:4 157:4 158:4 159:4 160:4 161:4 162:4 163:4 164:4 165:4 166:4 167:4 168:4 169:4 170:4 171:4 172:4 173:4 174:3 175:3 176:3 177:3 178:3 179:3 180:3 181:3 182:3 183:3 184:3 185:3 186:3 187:3 188:3 189:3 190:3 191:3 192:3 193:3 194:3 195:3 196:3 197:3 198:3 199:3 200:3 201:3 202:3 203:3 204:3 205:3 206:3 207:3 208:3 209:3 210:3 211:3 212:3 213:3 214:3 215:3 216:3 217:3 218:3 219:3 220:3 221:3 222:3 223:3 224:3 225:3 226:3 227:3 228:3 229:3 230:3 231:3 232:3 233:3 234:3 235:3 236:2 237:2 238:2 239:2 240:2 241:2 242:2 243:2 244:2 245:2 246:2 247:2 248:2 249:2 250:2 251:2 252:2 253:2 254:2 255:2 256:2 257:2 258:2 259:2 260:2 261:2 262:2 263:2 264:2 265:2 266:2 267:2 268:2 269:2 270:2 271:2 272:2 273:2 274:2 275:2 276:2 277:2 278:2 279:2 280:2 281:2 282:2 283:2 284:2 285:2 286:2 287:2 288:2 289:2 290:2 291:2 292:2 293:2 294:2 295:2 296:2 297:2 298:2 299:2 300:2 
0.0006444677232404424 1:57 2:47 3:43 4:43 5:32 6:32 7:31 8:30 9:30 10:30 11:27 12:27 13:26 14:26 15:26 16:23 17:22 18:22 19:22 20:22 21:21 22:21 23:20 24:19 25:19 26:19 27:18 28:17 29:16 30:16 31:16 32:15 33:15 34:15 35:15 36:14 37:14 38:13 39:13 40:13 41:13 42:12 43:11 44:11 45:11 46:11 47:11 48:10 49:10 50:9 51:9 52:9 53:9 54:9 55:9 56:9 57:9 58:9 59:9 60:9 61:9 62:9 63:8 64:8 65:8 66:8 67:8 68:8 69:8 70:7 71:7 72:7 73:7 74:7 75:7 76:7 77:7 78:7 79:7 80:7 81:7 82:7 83:7 84:7 85:6 86:6 87:6 88:6 89:6 90:6 91:6 92:6 93:6 94:6 95:6 96:6 97:6 98:6 99:5 100:5 101:5 102:5 103:5 104:5 105:5 106:5 107:5 108:5 109:5 110:5 111:5 112:5 113:5 114:5 115:5 116:5 117:4 118:4 119:4 120:4 121:4 122:4 123:4 124:4 125:4 126:4 127:4 128:4 129:4 130:4 131:4 132:4 133:4 134:4 135:4 136:4 137:4 138:4 139:4 140:4 141:4 142:4 143:4 144:4 145:4 146:3 147:3 148:3 149:3 150:3 151:3 152:3 153:3 154:3 155:3 156:3 157:3 158:3 159:3 160:3 161:3 162:3 163:3 164:3 165:3 166:3 167:3 168:3 169:3 170:3 171:3 172:3 173:3 174:3 175:3 176:3 177:3 178:3 179:3 180:3 181:3 182:3 183:3 184:3 185:3 186:3 187:3 188:3 189:3 190:3 191:3 192:3 193:3 194:3 195:3 196:3 197:3 198:3 199:3 200:3 201:3 202:3 203:3 204:3 205:3 206:3 207:3 208:3 209:3 210:3 211:2 212:2 213:2 214:2 215:2 216:2 217:2 218:2 219:2 220:2 221:2 222:2 223:2 224:2 225:2 226:2 227:2 228:2 229:2 230:2 231:2 232:2 233:2 234:2 235:2 236:2 237:2 238:2 239:2 240:2 241:2 242:2 243:2 244:2 245:2 246:2 247:2 248:2 249:2 250:2 251:2 252:2 253:2 254:2 255:2 256:2 257:2 258:2 259:2 260:2 261:2 262:2 263:2 264:2 265:2 266:2 267:2 268:2 269:2 270:2 271:2 272:2 273:2 274:2 275:2 276:2 277:2 278:2 279:2 280:2 281:2 282:2 283:2 284:2 285:2 286:2 287:2 288:2 289:2 290:2 291:2 292:2 293:2 294:2 295:2 296:2 297:2 298:2 299:2 300:2 
0.007846999287570117 1:88 2:75 3:65 4:51 5:32 6:30 7:29 8:29 9:29 10:26 11:25 12:25 13:23 14:22 15:22 16:22 17:22 18:21 19:21 20:19 21:19 22:18 23:17 24:16 25:16 26:16 27:15 28:15 29:15 30:15 31:14 32:13 33:13 34:13 35:13 36:12 37:12 38:12 39:11 40:11 41:11 42:11 43:10 44:10 45:10 46:10 47:10 48:10 49:10 50:10 51:9 52:9 53:9 54:9 55:9 56:9 57:8 58:8 59:8 60:8 61:8 62:8 63:8 64:8 65:8 66:7 67:7 68:7 69:7 70:7 71:7 72:7 73:7 74:7 75:7 76:7 77:7 78:6 79:6 80:6 81:6 82:6 83:6 84:6 85:6 86:6 87:6 88:6 89:6 90:6 91:6 92:6 93:6 94:5 95:5 96:5 97:5 98:5 99:5 100:5 101:5 102:5 103:5 104:5 105:5 106:5 107:5 108:5 109:5 110:5 111:5 112:5 113:5 114:5 115:5 116:5 117:5 118:5 119:5 120:5 121:5 122:4 123:4 124:4 125:4 126:4 127:4 128:4 129:4 130:4 131:4 132:4 133:4 134:4 135:4 136:4 137:4 138:4 139:4 140:4 141:4 142:4 143:4 144:4 145:4 146:4 147:4 148:4 149:4 150:4 151:4 152:4 153:4 154:4 155:3 156:3 157:3 158:3 159:3 160:3 161:3 162:3 163:3 164:3 165:3 166:3 167:3 168:3 169:3 170:3 171:3 172:3 173:3 174:3 175:3 176:3 177:3 178:3 179:3 180:3 181:3 182:3 183:3 184:3 185:3 186:3 187:3 188:3 189:3 190:3 191:3 192:3 193:3 194:3 195:3 196:3 197:3 198:3 199:3 200:3 201:3 202:3 203:3 204:3 205:3 206:3 207:3 208:3 209:3 210:3 211:3 212:3 213:3 214:3 215:3 216:3 217:3 218:3 219:3 220:3 221:3 222:3 223:3 224:3 225:3 226:2 227:2 228:2 229:2 230:2 231:2 232:2 233:2 234:2 235:2 236:2 237:2 238:2 239:2 240:2 241:2 242:2 243:2 244:2 245:2 246:2 247:2 248:2 249:2 250:2 251:2 252:2 253:2 254:2 255:2 256:2 257:2 258:2 259:2 260:2 261:2 262:2 263:2 264:2 265:2 266:2 267:2 268:2 269:2 270:2 271:2 272:2 273:2 274:2 275:2 276:2 277:2 278:2 279:2 280:2 281:2 282:2 283:2 284:2 285:2 286:2 287:2 288:2 289:2 290:2 291:2 292:2 293:2 294:2 295:2 296:2 297:2 298:2 299:2 300:2 
0.004729280023710708 1:89 2:45 3:43 4:31 5:28 6:28 7:27 8:24 9:22 10:21 11:21 12:21 13:17 14:17 15:16 16:15 17:15 18:15 19:15 20:15 21:14 22:14 23:14 24:13 25:13 26:12 27:11 28:11 29:10 30:10 31:10 32:10 33:10 34:10 35:10 36:10 37:10 38:9 39:9 40:9 41:9 42:8 43:8 44:8 45:7 46:7 47:7 48:7 49:7 50:7 51:7 52:6 53:6 54:6 55:6 56:6 57:6 58:6 59:6 60:5 61:5 62:5 63:5 64:5 65:5 66:5 67:5 68:5 69:5 70:5 71:5 72:5 73:5 74:5 75:5 76:4 77:4 78:4 79:4 80:4 81:4 82:4 83:4 84:4 85:4 86:4 87:4 88:4 89:4 90:4 91:4 92:4 93:4 94:4 95:4 96:4 97:4 98:4 99:3 100:3 101:3 102:3 103:3 104:3 105:3 106:3 107:3 108:3 109:3 110:3 111:3 112:3 113:3 114:3 115:3 116:3 117:3 118:3 119:3 120:3 121:3 122:3 123:3 124:3 125:3 126:3 127:3 128:3 129:3 130:3 131:3 132:3 133:3 134:3 135:3 136:3 137:3 138:3 139:3 140:3 141:3 142:2 143:2 144:2 145:2 146:2 147:2 148:2 149:2 150:2 151:2 152:2 153:2 154:2 155:2 156:2 157:2 158:2 159:2 160:2 161:2 162:2 163:2 164:2 165:2 166:2 167:2 168:2 169:2 170:2 171:2 172:2 173:2 174:2 175:2 176:2 177:2 178:2 179:2 180:2 181:2 182:2 183:2 184:2 185:2 186:2 187:2 188:2 189:2 190:2 191:2 192:2 193:2 194:2 195:2 196:2 197:2 198:2 199:2 200:2 201:2 202:2 203:2 204:2 205:2 206:2 207:2 208:2 209:2 210:2 211:2 212:2 213:2 214:2 215:2 216:2 217:2 218:2 219:2 220:2 221:2 222:2 223:2 224:2 225:2 226:2 227:2 228:2 229:2 230:2 231:2 232:2 233:2 234:2 235:2 236:2 237:2 238:2 239:2 240:2 241:2 242:2 243:2 244:2 245:2 246:2 247:2 248:2 249:2 250:1 251:1 252:1 253:1 254:1 255:1 256:1 257:1 258:1 259:1 260:1 261:1 262:1 263:1 264:1 265:1 266:1 267:1 268:1 269:1 270:1 271:1 272:1 273:1 274:1 275:1 276:1 277:1 278:1 279:1 280:1 281:1 282:1 283:1 284:1 285:1 286:1 287:1 288:1 289:1 290:1 291:1 292:1 293:1 294:1 295:1 296:1 297:1 298:1 299:1 300:1 
0.01085313110089346 1:66 2:56 3:55 4:45 5:44 6:43 7:42 8:29 9:26 10:23 11:17 12:17 13:17 14:17 15:17 16:16 17:16 18:15 19:14 20:14 21:14 22:13 23:13 24:13 25:13 26:13 27:13 28:12 29:12 30:12 31:12 32:12 33:12 34:11 35:11 36:11 37:11 38:11 39:11 40:11 41:11 42:11 43:11 44:11 45:10 46:10 47:10 48:10 49:10 50:9 51:9 52:9 53:9 54:9 55:9 56:9 57:8 58:8 59:8 60:8 61:8 62:8 63:8 64:8 65:7 66:7 67:7 68:7 69:7 70:7 71:7 72:7 73:7 74:7 75:7 76:7 77:6 78:6 79:6 80:6 81:6 82:6 83:6 84:6 85:6 86:6 87:6 88:6 89:6 90:6 91:5 92:5 93:5 94:5 95:5 96:5 97:5 98:5 99:5 100:5 101:5 102:5 103:5 104:5 105:5 106:5 107:5 108:4 109:4 110:4 111:4 112:4 113:4 114:4 115:4 116:4 117:4 118:4 119:4 120:4 121:4 122:4 123:4 124:4 125:4 126:4 127:4 128:4 129:4 130:4 131:4 132:4 133:4 134:4 135:3 136:3 137:3 138:3 139:3 140:3 141:3 142:3 143:3 144:3 145:3 146:3 147:3 148:3 149:3 150:3 151:3 152:3 153:3 154:3 155:3 156:3 157:3 158:3 159:3 160:3 161:3 162:3 163:3 164:3 165:3 166:3 167:3 168:3 169:3 170:3 171:3 172:3 173:3 174:3 175:3 176:3 177:3 178:3 179:3 180:3 181:3 182:3 183:3 184:3 185:3 186:3 187:3 188:3 189:3 190:3 191:3 192:3 193:2 194:2 195:2 196:2 197:2 198:2 199:2 200:2 201:2 202:2 203:2 204:2 205:2 206:2 207:2 208:2 209:2 210:2 211:2 212:2 213:2 214:2 215:2 216:2 217:2 218:2 219:2 220:2 221:2 222:2 223:2 224:2 225:2 226:2 227:2 228:2 229:2 230:2 231:2 232:2 233:2 234:2 235:2 236:2 237:2 238:2 239:2 240:2 241:2 242:2 243:2 244:2 245:2 246:2 247:2 248:2 249:2 250:2 251:2 252:2 253:2 254:2 255:2 256:2 257:2 258:2 259:2 260:2 261:2 262:2 263:2 264:2 265:2 266:2 267:2 268:2 269:2 270:2 271:2 272:2 273:2 274:2 275:2 276:2 277:2 278:2 279:2 280:2 281:2 282:2 283:2 284:2 285:2 286:2 287:2 288:2 289:2 290:2 291:2 292:2 293:2 294:2 295:2 296:2 297:2 298:2 299:2 300:2 
0.005364518677078585 1:115 2:77 3:40 4:38 5:31 6:28 7:25 8:22 9:20 10:19 11:19 12:17 13:17 14:17 15:15 16:15 17:15 18:15 19:15 20:14 21:13 22:13 23:13 24:13 25:12 26:12 27:12 28:11 29:11 30:11 31:11 32:11 33:10 34:10 35:10 36:10 37:10 38:10 39:10 40:10 41:9 42:9 43:9 44:9 45:9 46:9 47:9 48:9 49:9 50:8 51:8 52:8 53:8 54:8 55:7 56:7 57:7 58:7 59:7 60:7 61:7 62:7 63:7 64:7 65:7 66:7 67:7 68:7 69:6 70:6 71:6 72:6 73:6 74:6 75:6 76:6 77:6 78:6 79:6 80:6 81:6 82:6 83:6 84:5 85:5 86:5 87:5 88:5 89:5 90:5 91:5 92:5 93:5 94:5 95:5 96:5 97:5 98:5 99:5 100:5 101:5 102:5 103:5 104:5 105:5 106:5 107:5 108:5 109:5 110:4 111:4 112:4 113:4 114:4 115:4 116:4 117:4 118:4 119:4 120:4 121:4 122:4 123:4 124:4 125:4 126:4 127:4 128:4 129:4 130:4 131:4 132:4 133:4 134:4 135:4 136:4 137:4 138:4 139:4 140:4 141:4 142:4 143:4 144:4 145:4 146:4 147:4 148:4 149:4 150:4 151:4 152:4 153:3 154:3 155:3 156:3 157:3 158:3 159:3 160:3 161:3 162:3 163:3 164:3 165:3 166:3 167:3 168:3 169:3 170:3 171:3 172:3 173:3 174:3 175:3 176:3 177:3 178:3 179:3 180:3 181:3 182:3 183:3 184:3 185:3 186:3 187:3 188:3 189:3 190:3 191:3 192:3 193:3 194:3 195:3 196:3 197:3 198:3 199:3 200:3 201:3 202:3 203:3 204:3 205:2 206:2 207:2 208:2 209:2 210:2 211:2 212:2 213:2 214:2 215:2 216:2 217:2 218:2 219:2 220:2 221:2 222:2 223:2 224:2 225:2 226:2 227:2 228:2 229:2 230:2 231:2 232:2 233:2 234:2 235:2 236:2 237:2 238:2 239:2 240:2 241:2 242:2 243:2 244:2 245:2 246:2 247:2 248:2 249:2 250:2 251:2 252:2 253:2 254:2 255:2 256:2 257:2 258:2 259:2 260:2 261:2 262:2 263:2 264:2 265:2 266:2 267:2 268:2 269:2 270:2 271:2 272:2 273:2 274:2 275:2 276:2 277:2 278:2 279:2 280:2 281:2 282:2 283:2 284:2 285:2 286:2 287:2 288:2 289:2 290:2 291:2 292:2 293:2 294:2 295:2 296:2 297:2 298:2 299:2 300:2 
0.003270961860465142 1:83 2:59 3:51 4:42 5:32 6:27 7:26 8:26 9:25 10:21 11:18 12:16 13:16 14:15 15:15 16:15 17:15 18:14 19:14 20:13 21:13 22:11 23:11 24:10 25:10 26:9 27:9 28:9 29:9 30:8 31:8 32:8 33:8 34:8 35:7 36:7 37:7 38:7 39:7 40:7 41:7 42:7 43:7 44:7 45:7 46:6 47:6 48:6 49:6 50:6 51:6 52:6 53:6 54:6 55:6 56:6 57:6 58:6 59:5 60:5 61:5 62:5 63:5 64:5 65:5 66:5 67:5 68:5 69:5 70:5 71:5 72:5 73:5 74:5 75:5 76:5 77:4 78:4 79:4 80:4 81:4 82:4 83:4 84:4 85:4 86:4 87:4 88:4 89:4 90:4 91:4 92:4 93:4 94:4 95:4 96:4 97:4 98:4 99:4 100:4 101:4 102:4 103:4 104:4 105:4 106:4 107:4 108:4 109:4 110:4 111:4 112:4 113:4 114:4 115:4 116:4 117:4 118:4 119:4 120:4 121:4 122:4 123:3 124:3 125:3 126:3 127:3 128:3 129:3 130:3 131:3 132:3 133:3 134:3 135:3 136:3 137:3 138:3 139:3 140:3 141:3 142:3 143:3 144:3 145:3 146:3 147:3 148:3 149:3 150:3 151:3 152:3 153:3 154:3 155:3 156:3 157:3 158:3 159:3 160:3 161:3 162:3 163:3 164:3 165:3 166:3 167:3 168:3 169:3 170:3 171:3 172:3 173:3 174:3 175:3 176:3 177:2 178:2 179:2 180:2 181:2 182:2 183:2 184:2 185:2 186:2 187:2 188:2 189:2 190:2 191:2 192:2 193:2 194:2 195:2 196:2 197:2 198:2 199:2 200:2 201:2 202:2 203:2 204:2 205:2 206:2 207:2 208:2 209:2 210:2 211:2 212:2 213:2 214:2 215:2 216:2 217:2 218:2 219:2 220:2 221:2 222:2 223:2 224:2 225:2 226:2 227:2 228:2 229:2 230:2 231:2 232:2 233:2 234:2 235:2 236:2 237:2 238:2 239:2 240:2 241:2 242:2 243:2 244:2 245:2 246:2 247:2 248:2 249:2 250:2 251:2 252:2 253:2 254:2 255:2 256:2 257:2 258:2 259:2 260:2 261:2 262:2 263:2 264:2 265:2 266:2 267:2 268:2 269:2 270:2 271:2 272:2 273:2 274:2 275:2 276:2 277:2 278:2 279:2 280:2 281:2 282:2 283:2 284:2 285:2 286:2 287:2 288:2 289:2 290:2 291:2 292:2 293:2 294:2 295:2 296:2 297:2 298:2 299:2 300:2 
0.01354812344700709 1:70 2:66 3:64 4:44 5:43 6:41 7:35 8:33 9:25 10:25 11:24 12:22 13:22 14:22 15:21 16:19 17:18 18:17 19:15 20:14 21:13 22:12 23:11 24:10 25:10 26:9 27:9 28:9 29:9 30:9 31:8 32:8 33:8 34:8 35:8 36:8 37:7 38:7 39:7 40:7 41:7 42:7 43:7 44:7 45:7 46:6 47:6 48:6 49:6 50:6 51:6 52:6 53:6 54:6 55:6 56:6 57:5 58:5 59:5 60:5 61:5 62:5 63:5 64:5 65:5 66:5 67:5 68:5 69:5 70:5 71:5 72:5 73:5 74:5 75:5 76:5 77:4 78:4 79:4 80:4 81:4 82:4 83:4 84:4 85:4 86:4 87:4 88:4 89:4 90:4 91:4 92:4 93:4 94:4 95:4 96:4 97:4 98:4 99:4 100:4 101:4 102:4 103:4 104:4 105:4 106:4 107:4 108:4 109:4 110:4 111:4 112:3 113:3 114:3 115:3 116:3 117:3 118:3 119:3 120:3 121:3 122:3 123:3 124:3 125:3 126:3 127:3 128:3 129:3 130:3 131:3 132:3 133:3 134:3 135:3 136:3 137:3 138:3 139:3 140:3 141:3 142:3 143:3 144:3 145:3 146:3 147:3 148:3 149:2 150:2 151:2 152:2 153:2 154:2 155:2 156:2 157:2 158:2 159:2 160:2 161:2 162:2 163:2 164:2 165:2 166:2 167:2 168:2 169:2 170:2 171:2 172:2 173:2 174:2 175:2 176:2 177:2 178:2 179:2 180:2 181:2 182:2 183:2 184:2 185:2 186:2 187:2 188:2 189:2 190:2 191:2 192:2 193:2 194:2 195:2 196:2 197:2 198:2 199:2 200:2 201:2 202:2 203:2 204:2 205:2 206:2 207:2 208:2 209:2 210:2 211:2 212:2 213:2 214:2 215:2 216:2 217:2 218:2 219:2 220:2 221:2 222:2 223:2 224:2 225:2 226:2 227:2 228:2 229:2 230:2 231:2 232:2 233:2 234:2 235:2 236:2 237:2 238:2 239:2 240:2 241:2 242:2 243:2 244:2 245:2 246:2 247:2 248:2 249:2 250:2 251:2 252:2 253:2 254:2 255:1 256:1 257:1 258:1 259:1 260:1 261:1 262:1 263:1 264:1 265:1 266:1 267:1 268:1 269:1 270:1 271:1 272:1 273:1 274:1 275:1 276:1 277:1 278:1 279:1 280:1 281:1 282:1 283:1 284:1 285:1 286:1 287:1 288:1 289:1 290:1 291:1 292:1 293:1 294:1 295:1 296:1 297:1 298:1 299:1 300:1 
0.00856539360266652 1:73 2:37 3:36 4:33 5:33 6:33 7:31 8:30 9:30 10:27 11:20 12:20 13:18 14:18 15:17 16:17 17:17 18:15 19:15 20:15 21:14 22:14 23:13 24:13 25:13 26:12 27:12 28:12 29:12 30:12 31:11 32:11 33:11 34:11 35:11 36:10 37:10 38:10 39:9 40:9 41:9 42:9 43:9 44:9 45:8 46:8 47:8 48:8 49:8 50:8 51:8 52:8 53:8 54:8 55:8 56:8 57:7 58:7 59:7 60:7 61:7 62:7 63:7 64:7 65:7 66:7 67:6 68:6 69:6 70:6 71:6 72:6 73:6 74:6 75:6 76:6 77:6 78:6 79:6 80:6 81:6 82:5 83:5 84:5 85:5 86:5 87:5 88:5 89:5 90:5 91:5 92:5 93:5 94:5 95:5 96:5 97:5 98:5 99:4 100:4 101:4 102:4 103:4 104:4 105:4 106:4 107:4 108:4 109:4 110:4 111:4 112:4 113:4 114:4 115:4 116:4 117:4 118:4 119:4 120:4 121:4 122:4 123:4 124:4 125:3 126:3 127:3 128:3 129:3 130:3 131:3 132:3 133:3 134:3 135:3 136:3 137:3 138:3 139:3 140:3 141:3 142:3 143:3 144:3 145:3 146:3 147:3 148:3 149:3 150:3 151:3 152:3 153:3 154:3 155:3 156:3 157:3 158:3 159:3 160:3 161:3 162:3 163:3 164:3 165:3 166:3 167:3 168:3 169:3 170:3 171:3 172:3 173:3 174:3 175:3 176:3 177:3 178:3 179:3 180:3 181:3 182:3 183:3 184:3 185:3 186:3 187:3 188:3 189:3 190:3 191:3 192:3 193:2 194:2 195:2 196:2 197:2 198:2 199:2 200:2 201:2 202:2 203:2 204:2 205:2 206:2 207:2 208:2 209:2 210:2 211:2 212:2 213:2 214:2 215:2 216:2 217:2 218:2 219:2 220:2 221:2 222:2 223:2 224:2 225:2 226:2 227:2 228:2 229:2 230:2 231:2 232:2 233:2 234:2 235:2 236:2 237:2 238:2 239:2 240:2 241:2 242:2 243:2 244:2 245:2 246:2 247:2 248:2 249:2 250:2 251:2 252:2 253:2 254:2 255:2 256:2 257:2 258:2 259:2 260:2 261:2 262:2 263:2 264:2 265:2 266:2 267:2 268:2 269:2 270:2 271:2 272:2 273:2 274:2 275:2 276:2 277:2 278:2 279:2 280:2 281:2 282:2 283:2 284:2 285:2 286:2 287:2 288:2 289:2 290:2 291:2 292:2 293:2 294:2 295:2 296:2 297:2 298:2 299:2 300:2 
0.007241705930600762 1:49 2:46 3:25 4:23 5:21 6:19 7:19 8:19 9:18 10:18 11:16 12:15 13:14 14:14 15:14 16:13 17:13 18:13 19:13 20:13 21:13 22:12 23:12 24:12 25:12 26:12 27:11 28:11 29:11 30:10 31:10 32:10 33:10 34:10 35:10 36:10 37:9 38:9 39:9 40:9 41:9 42:9 43:8 44:8 45:8 46:8 47:8 48:8 49:8 50:8 51:8 52:8 53:8 54:7 55:7 56:7 57:7 58:7 59:7 60:7 61:7 62:7 63:7 64:7 65:7 66:7 67:7 68:7 69:7 70:7 71:7 72:6 73:6 74:6 75:6 76:6 77:6 78:6 79:6 80:6 81:6 82:6 83:6 84:6 85:6 86:6 87:6 88:5 89:5 90:5 91:5 92:5 93:5 94:5 95:5 96:5 97:5 98:5 99:5 100:5 101:5 102:5 103:5 104:5 105:5 106:5 107:5 108:5 109:5 110:5 111:5 112:4 113:4 114:4 115:4 116:4 117:4 118:4 119:4 120:4 121:4 122:4 123:4 124:4 125:4 126:4 127:4 128:4 129:4 130:4 131:4 132:4 133:4 134:4 135:4 136:4 137:4 138:4 139:4 140:4 141:4 142:4 143:4 144:4 145:4 146:4 147:4 148:4 149:4 150:4 151:4 152:3 153:3 154:3 155:3 156:3 157:3 158:3 159:3 160:3 161:3 162:3 163:3 164:3 165:3 166:3 167:3 168:3 169:3 170:3 171:3 172:3 173:3 174:3 175:3 176:3 177:3 178:3 179:3 180:3 181:3 182:3 183:3 184:3 185:3 186:3 187:3 188:3 189:3 190:3 191:3 192:3 193:3 194:3 195:3 196:3 197:3 198:3 199:3 200:3 201:3 202:3 203:3 204:3 205:3 206:3 207:3 208:3 209:3 210:3 211:3 212:3 213:3 214:3 215:3 216:3 217:3 218:3 219:3 220:3 221:3 222:3 223:2 224:2 225:2 226:2 227:2 228:2 229:2 230:2 231:2 232:2 233:2 234:2 235:2 236:2 237:2 238:2 239:2 240:2 241:2 242:2 243:2 244:2 245:2 246:2 247:2 248:2 249:2 250:2 251:2 252:2 253:2 254:2 255:2 256:2 257:2 258:2 259:2 260:2 261:2 262:2 263:2 264:2 265:2 266:2 267:2 268:2 269:2 270:2 271:2 272:2 273:2 274:2 275:2 276:2 277:2 278:2 279:2 280:2 281:2 282:2 283:2 284:2 285:2 286:2 287:2 288:2 289:2 290:2 291:2 292:2 293:2 294:2 295:2 296:2 297:2 298:2 299:2 300:2 
1 1:15 2:10 3:9 4:9 5:9 6:9 7:9 8:8 9:8 10:8 11:7 12:7 13:7 14:7 15:7 16:7 17:7 18:6 19:5 20:5 21:5 22:5 23:5 24:5 25:5 26:5 27:5 28:4 29:4 30:4 31:4 32:4 33:4 34:4 35:4 36:4 37:4 38:4 39:4 40:4 41:4 42:3 43:3 44:3 45:3 46:3 47:3 48:3 49:3 50:3 51:3 52:3 53:3 54:3 55:3 56:3 57:3 58:3 59:3 60:3 61:3 62:3 63:3 64:3 65:3 66:3 67:3 68:3 69:3 70:3 71:3 72:3 73:3 74:3 75:3 76:2 77:2 78:2 79:2 80:2 81:2 82:2 83:2 84:2 85:2 86:2 87:2 88:2 89:2 90:2 91:2 92:2 93:2 94:2 95:2 96:2 97:2 98:2 99:2 100:2 101:2 102:2 103:2 104:2 105:2 106:2 107:2 108:2 109:2 110:2 111:2 112:2 113:2 114:2 115:2 116:2 117:2 118:2 119:2 120:2 121:2 122:2 123:2 124:2 125:2 126:2 127:2 128:2 129:2 130:2 131:2 132:2 133:2 134:2 135:2 136:2 137:2 138:2 139:2 140:2 141:2 142:2 143:2 144:2 145:2 146:2 147:2 148:2 149:2 150:2 151:2 152:2 153:2 154:2 155:2 156:1 157:1 158:1 159:1 160:1 161:1 162:1 163:1 164:1 165:1 166:1 167:1 168:1 169:1 170:1 171:1 172:1 173:1 174:1 175:1 176:1 177:1 178:1 179:1 180:1 181:1 182:1 183:1 184:1 185:1 186:1 187:1 188:1 189:1 190:1 191:1 192:1 193:1 194:1 195:1 196:1 197:1 198:1 199:1 200:1 201:1 202:1 203:1 204:1 205:1 206:1 207:1 208:1 209:1 210:1 211:1 212:1 213:1 214:1 215:1 216:1 217:1 218:1 219:1 220:1 221:1 222:1 223:1 224:1 225:1 226:1 227:1 228:1 229:1 230:1 231:1 232:1 233:1 234:1 235:1 236:1 237:1 238:1 239:1 240:1 241:1 242:1 243:1 244:1 245:1 246:1 247:1 248:1 249:1 250:1 251:1 252:1 253:1 254:1 255:1 256:1 257:1 258:1 259:1 260:1 261:1 262:1 263:1 264:1 265:1 266:1 267:1 268:1 269:1 270:1 271:1 272:1 273:1 274:1 275:1 276:1 277:1 278:1 279:1 280:1 281:1 282:1 283:1 284:1 285:1 286:1 287:1 288:1 289:1 290:1 291:1 292:1 293:1 294:1 295:1 296:1 297:1 298:1 299:1 300:1 
0.005999617782054795 1:42 2:39 3:37 4:35 5:19 6:19 7:19 8:16 9:15 10:13 11:13 12:13 13:13 14:13 15:12 16:11 17:11 18:11 19:11 20:10 21:10 22:10 23:9 24:9 25:9 26:9 27:9 28:9 29:9 30:9 31:9 32:9 33:9 34:9 35:9 36:8 37:8 38:8 39:8 40:8 41:8 42:8 43:8 44:8 45:7 46:7 47:7 48:7 49:7 50:7 51:7 52:7 53:7 54:7 55:7 56:6 57:6 58:6 59:6 60:6 61:6 62:6 63:6 64:6 65:6 66:6 67:6 68:6 69:5 70:5 71:5 72:5 73:5 74:5 75:5 76:5 77:5 78:5 79:5 80:5 81:5 82:5 83:5 84:5 85:5 86:5 87:5 88:5 89:5 90:5 91:5 92:4 93:4 94:4 95:4 96:4 97:4 98:4 99:4 100:4 101:4 102:4 103:4 104:4 105:4 106:4 107:4 108:4 109:4 110:4 111:4 112:4 113:4 114:4 115:4 116:4 117:4 118:4 119:4 120:4 121:4 122:4 123:4 124:4 125:4 126:4 127:4 128:4 129:3 130:3 131:3 132:3 133:3 134:3 135:3 136:3 137:3 138:3 139:3 140:3 141:3 142:3 143:3 144:3 145:3 146:3 147:3 148:3 149:3 150:3 151:3 152:3 153:3 154:3 155:3 156:3 157:3 158:3 159:3 160:3 161:3 162:3 163:3 164:3 165:3 166:3 167:3 168:3 169:3 170:3 171:3 172:3 173:3 174:3 175:3 176:3 177:3 178:3 179:3 180:3 181:3 182:3 183:3 184:3 185:3 186:3 187:3 188:3 189:3 190:2 191:2 192:2 193:2 194:2 195:2 196:2 197:2 198:2 199:2 200:2 201:2 202:2 203:2 204:2 205:2 206:2 207:2 208:2 209:2 210:2 211:2 212:2 213:2 214:2 215:2 216:2 217:2 218:2 219:2 220:2 221:2 222:2 223:2 224:2 225:2 226:2 227:2 228:2 229:2 230:2 231:2 232:2 233:2 234:2 235:2 236:2 237:2 238:2 239:2 240:2 241:2 242:2 243:2 244:2 245:2 246:2 247:2 248:2 249:2 250:2 251:2 252:2 253:2 254:2 255:2 256:2 257:2 258:2 259:2 260:2 261:2 262:2 263:2 264:2 265:2 266:2 267:2 268:2 269:2 270:2 271:2 272:2 273:2 274:2 275:2 276:2 277:2 278:2 279:2 280:2 281:2 282:2 283:2 284:2 285:2 286:2 287:2 288:2 289:2 290:2 291:2 292:2 293:2 294:2 295:2 296:2 297:2 298:2 299:2 300:2 
0.01208162266936257 1:110 2:73 3:68 4:52 5:45 6:40 7:39 8:37 9:36 10:35 11:34 12:28 13:26 14:26 15:25 16:25 17:24 18:22 19:21 20:19 21:19 22:19 23:18 24:17 25:17 26:16 27:15 28:15 29:15 30:14 31:13 32:13 33:13 34:13 35:12 36:12 37:12 38:12 39:12 40:11 41:11 42:11 43:11 44:11 45:10 46:10 47:10 48:10 49:9 50:9 51:9 52:9 53:9 54:9 55:9 56:9 57:9 58:9 59:9 60:8 61:8 62:8 63:8 64:8 65:8 66:8 67:8 68:8 69:7 70:7 71:7 72:7 73:7 74:7 75:7 76:7 77:7 78:7 79:7 80:7 81:7 82:7 83:6 84:6 85:6 86:6 87:6 88:6 89:6 90:6 91:6 92:6 93:6 94:6 95:6 96:6 97:6 98:6 99:6 100:6 101:6 102:6 103:6 104:5 105:5 106:5 107:5 108:5 109:5 110:5 111:5 112:5 113:5 114:5 115:5 116:5 117:5 118:5 119:5 120:5 121:5 122:5 123:5 124:4 125:4 126:4 127:4 128:4 129:4 130:4 131:4 132:4 133:4 134:4 135:4 136:4 137:4 138:4 139:4 140:4 141:4 142:4 143:4 144:4 145:4 146:4 147:4 148:4 149:4 150:4 151:4 152:4 153:4 154:4 155:4 156:4 157:4 158:4 159:4 160:4 161:4 162:4 163:4 164:4 165:4 166:4 167:4 168:4 169:3 170:3 171:3 172:3 173:3 174:3 175:3 176:3 177:3 178:3 179:3 180:3 181:3 182:3 183:3 184:3 185:3 186:3 187:3 188:3 189:3 190:3 191:3 192:3 193:3 194:3 195:3 196:3 197:3 198:3 199:3 200:3 201:3 202:3 203:3 204:3 205:3 206:3 207:3 208:3 209:3 210:3 211:3 212:3 213:3 214:3 215:3 216:3 217:3 218:3 219:2 220:2 221:2 222:2 223:2 224:2 225:2 226:2 227:2 228:2 229:2 230:2 231:2 232:2 233:2 234:2 235:2 236:2 237:2 238:2 239:2 240:2 241:2 242:2 243:2 244:2 245:2 246:2 247:2 248:2 249:2 250:2 251:2 252:2 253:2 254:2 255:2 256:2 257:2 258:2 259:2 260:2 261:2 262:2 263:2 264:2 265:2 266:2 267:2 268:2 269:2 270:2 271:2 272:2 273:2 274:2 275:2 276:2 277:2 278:2 279:2 280:2 281:2 282:2 283:2 284:2 285:2 286:2 287:2 288:2 289:2 290:2 291:2 292:2 293:2 294:2 295:2 296:2 297:2 298:2 299:2 300:2 
0.003713293089238367 1:74 2:73 3:57 4:40 5:35 6:34 7:34 8:34 9:30 10:28 11:27 12:26 13:25 14:25 15:24 16:24 17:23 18:22 19:18 20:17 21:17 22:17 23:17 24:16 25:15 26:15 27:15 28:13 29:13 30:13 31:13 32:13 33:12 34:12 35:11 36:11 37:11 38:11 39:11 40:10 41:10 42:10 43:10 44:10 45:9 46:9 47:8 48:8 49:8 50:8 51:8 52:8 53:8 54:8 55:8 56:8 57:8 58:8 59:7 60:7 61:7 62:7 63:7 64:7 65:7 66:7 67:7 68:7 69:7 70:7 71:6 72:6 73:6 74:6 75:6 76:6 77:6 78:6 79:6 80:6 81:6 82:6 83:6 84:6 85:6 86:6 87:5 88:5 89:5 90:5 91:5 92:5 93:5 94:5 95:5 96:5 97:5 98:5 99:5 100:4 101:4 102:4 103:4 104:4 105:4 106:4 107:4 108:4 109:4 110:4 111:4 112:4 113:4 114:4 115:4 116:4 117:4 118:4 119:4 120:4 121:4 122:4 123:4 124:4 125:4 126:4 127:4 128:4 129:4 130:4 131:4 132:4 133:4 134:4 135:4 136:4 137:4 138:4 139:3 140:3 141:3 142:3 143:3 144:3 145:3 146:3 147:3 148:3 149:3 150:3 151:3 152:3 153:3 154:3 155:3 156:3 157:3 158:3 159:3 160:3 161:3 162:3 163:3 164:3 165:3 166:3 167:3 168:3 169:3 170:3 171:3 172:3 173:3 174:3 175:3 176:3 177:3 178:3 179:3 180:3 181:3 182:3 183:3 184:3 185:2 186:2 187:2 188:2 189:2 190:2 191:2 192:2 193:2 194:2 195:2 196:2 197:2 198:2 199:2 200:2 201:2 202:2 203:2 204:2 205:2 206:2 207:2 208:2 209:2 210:2 211:2 212:2 213:2 214:2 215:2 216:2 217:2 218:2 219:2 220:2 221:2 222:2 223:2 224:2 225:2 226:2 227:2 228:2 229:2 230:2 231:2 232:2 233:2 234:2 235:2 236:2 237:2 238:2 239:2 240:2 241:2 242:2 243:2 244:2 245:2 246:2 247:2 248:2 249:2 250:2 251:2 252:2 253:2 254:2 255:2 256:2 257:2 258:2 259:2 260:2 261:2 262:2 263:2 264:2 265:2 266:2 267:2 268:2 269:2 270:2 271:2 272:2 273:2 274:2 275:2 276:2 277:2 278:2 279:2 280:2 281:2 282:2 283:1 284:1 285:1 286:1 287:1 288:1 289:1 290:1 291:1 292:1 293:1 294:1 295:1 296:1 297:1 298:1 299:1 300:1 
0.01613338391100453 1:105 2:75 3:37 4:35 5:30 6:28 7:27 8:27 9:26 10:25 11:24 12:23 13:23 14:23 15:22 16:22 17:21 18:19 19:19 20:19 21:18 22:18 23:18 24:18 25:17 26:17 27:16 28:16 29:15 30:15 31:15 32:14 33:12 34:12 35:12 36:12 37:12 38:12 39:12 40:11 41:11 42:11 43:11 44:11 45:10 46:10 47:10 48:9 49:9 50:9 51:9 52:9 53:9 54:9 55:9 56:9 57:9 58:9 59:8 60:8 61:8 62:8 63:8 64:8 65:8 66:8 67:7 68:7 69:7 70:7 71:7 72:7 73:7 74:7 75:7 76:7 77:7 78:7 79:7 80:7 81:6 82:6 83:6 84:6 85:6 86:6 87:6 88:6 89:6 90:6 91:6 92:6 93:6 94:6 95:6 96:6 97:6 98:6 99:6 100:6 101:6 102:5 103:5 104:5 105:5 106:5 107:5 108:5 109:5 110:5 111:5 112:5 113:5 114:5 115:5 116:5 117:5 118:5 119:5 120:5 121:5 122:5 123:5 124:5 125:5 126:5 127:5 128:5 129:5 130:4 131:4 132:4 133:4 134:4 135:4 136:4 137:4 138:4 139:4 140:4 141:4 142:4 143:4 144:4 145:4 146:4 147:4 148:4 149:4 150:4 151:4 152:4 153:4 154:4 155:4 156:4 157:4 158:4 159:4 160:4 161:4 162:4 163:4 164:4 165:4 166:3 167:3 168:3 169:3 170:3 171:3 172:3 173:3 174:3 175:3 176:3 177:3 178:3 179:3 180:3 181:3 182:3 183:3 184:3 185:3 186:3 187:3 188:3 189:3 190:3 191:3 192:3 193:3 194:3 195:3 196:3 197:3 198:3 199:3 200:3 201:3 202:3 203:3 204:3 205:3 206:3 207:3 208:3 209:3 210:3 211:3 212:3 213:3 214:3 215:3 216:3 217:3 218:3 219:3 220:3 221:3 222:3 223:3 224:3 225:3 226:3 227:3 228:3 229:3 230:2 231:2 232:2 233:2 234:2 235:2 236:2 237:2 238:2 239:2 240:2 241:2 242:2 243:2 244:2 245:2 246:2 247:2 248:2 249:2 250:2 251:2 252:2 253:2 254:2 255:2 256:2 257:2 258:2 259:2 260:2 261:2 262:2 263:2 264:2 265:2 266:2 267:2 268:2 269:2 270:2 271:2 272:2 273:2 274:2 275:2 276:2 277:2 278:2 279:2 280:2 281:2 282:2 283:2 284:2 285:2 286:2 287:2 288:2 289:2 290:2 291:2 292:2 293:2 294:2 295:2 296:2 297:2 298:2 299:2 300:2 
0.007673863017020293 1:51 2:26 3:25 4:25 5:23 6:20 7:20 8:19 9:19 10:19 11:18 12:18 13:17 14:17 15:17 16:17 17:16 18:16 19:16 20:15 21:15 22:14 23:14 24:14 25:13 26:12 27:12 28:12 29:12 30:11 31:11 32:11 33:10 34:10 35:10 36:10 37:10 38:10 39:10 40:9 41:9 42:9 43:9 44:9 45:9 46:9 47:9 48:9 49:8 50:8 51:8 52:8 53:8 54:8 55:8 56:8 57:8 58:8 59:8 60:8 61:8 62:7 63:7 64:7 65:7 66:7 67:7 68:7 69:7 70:7 71:7 72:7 73:7 74:7 75:7 76:7 77:7 78:7 79:7 80:6 81:6 82:6 83:6 84:6 85:6 86:6 87:6 88:6 89:6 90:6 91:6 92:5 93:5 94:5 95:5 96:5 97:5 98:5 99:5 100:5 101:5 102:5 103:5 104:5 105:5 106:5 107:5 108:5 109:5 110:5 111:5 112:5 113:5 114:5 115:5 116:5 117:5 118:5 119:5 120:5 121:5 122:4 123:4 124:4 125:4 126:4 127:4 128:4 129:4 130:4 131:4 132:4 133:4 134:4 135:4 136:4 137:4 138:4 139:4 140:4 141:4 142:4 143:4 144:4 145:4 146:4 147:4 148:4 149:4 150:4 151:4 152:4 153:4 154:4 155:4 156:3 157:3 158:3 159:3 160:3 161:3 162:3 163:3 164:3 165:3 166:3 167:3 168:3 169:3 170:3 171:3 172:3 173:3 174:3 175:3 176:3 177:3 178:3 179:3 180:3 181:3 182:3 183:3 184:3 185:3 186:3 187:3 188:3 189:3 190:3 191:3 192:3 193:3 194:3 195:3 196:3 197:3 198:3 199:3 200:3 201:3 202:3 203:3 204:3 205:3 206:3 207:3 208:3 209:3 210:3 211:3 212:3 213:3 214:3 215:3 216:3 217:3 218:3 219:3 220:3 221:3 222:3 223:3 224:3 225:2 226:2 227:2 228:2 229:2 230:2 231:2 232:2 233:2 234:2 235:2 236:2 237:2 238:2 239:2 240:2 241:2 242:2 243:2 244:2 245:2 246:2 247:2 248:2 249:2 250:2 251:2 252:2 253:2 254:2 255:2 256:2 257:2 258:2 259:2 260:2 261:2 262:2 263:2 264:2 265:2 266:2 267:2 268:2 269:2 270:2 271:2 272:2 273:2 274:2 275:2 276:2 277:2 278:2 279:2 280:2 281:2 282:2 283:2 284:2 285:2 286:2 287:2 288:2 289:2 290:2 291:2 292:2 293:2 294:2 295:2 296:2 297:2 298:2 299:2 300:2 
0.0121950031410105 1:56 2:52 3:42 4:28 5:25 6:24 7:22 8:18 9:17 10:16 11:14 12:13 13:11 14:11 15:10 16:8 17:7 18:7 19:7 20:7 21:7 22:7 23:6 24:6 25:6 26:6 27:6 28:6 29:6 30:5 31:5 32:5 33:5 34:5 35:5 36:5 37:5 38:5 39:4 40:4 41:4 42:4 43:4 44:4 45:4 46:4 47:4 48:4 49:4 50:3 51:3 52:3 53:3 54:3 55:3 56:3 57:3 58:3 59:3 60:3 61:3 62:3 63:3 64:3 65:3 66:3 67:3 68:3 69:3 70:3 71:3 72:3 73:3 74:3 75:3 76:3 77:3 78:3 79:3 80:3 81:2 82:2 83:2 84:2 85:2 86:2 87:2 88:2 89:2 90:2 91:2 92:2 93:2 94:2 95:2 96:2 97:2 98:2 99:2 100:2 101:2 102:2 103:2 104:2 105:2 106:2 107:2 108:2 109:2 110:2 111:2 112:2 113:2 114:2 115:2 116:2 117:2 118:2 119:2 120:2 121:2 122:2 123:2 124:2 125:2 126:2 127:2 128:2 129:2 130:2 131:2 132:2 133:2 134:2 135:2 136:2 137:2 138:2 139:2 140:2 141:2 142:2 143:2 144:2 145:2 146:2 147:2 148:2 149:2 150:2 151:2 152:2 153:2 154:2 155:2 156:2 157:2 158:1 159:1 160:1 161:1 162:1 163:1 164:1 165:1 166:1 167:1 168:1 169:1 170:1 171:1 172:1 173:1 174:1 175:1 176:1 177:1 178:1 179:1 180:1 181:1 182:1 183:1 184:1 185:1 186:1 187:1 188:1 189:1 190:1 191:1 192:1 193:1 194:1 195:1 196:1 197:1 198:1 199:1 200:1 201:1 202:1 203:1 204:1 205:1 206:1 207:1 208:1 209:1 210:1 211:1 212:1 213:1 214:1 215:1 216:1 217:1 218:1 219:1 220:1 221:1 222:1 223:1 224:1 225:1 226:1 227:1 228:1 229:1 230:1 231:1 232:1 233:1 234:1 235:1 236:1 237:1 238:1 239:1 240:1 241:1 242:1 243:1 244:1 245:1 246:1 247:1 248:1 249:1 250:1 251:1 252:1 253:1 254:1 255:1 256:1 257:1 258:1 259:1 260:1 261:1 262:1 263:1 264:1 265:1 266:1 267:1 268:1 269:1 270:1 271:1 272:1 273:1 274:1 275:1 276:1 277:1 278:1 279:1 280:1 281:1 282:1 283:1 284:1 285:1 286:1 287:1 288:1 289:1 290:1 291:1 292:1 293:1 294:1 295:1 296:1 297:1 298:1 299:1 300:1 
