svm_type c_svc
kernel_type rbf
gamma 0.0078125
nr_class 2
total_sv 250
rho -0.442641
label 1 0
nr_sv 126 124
SV
0.3330407921263392 1:0.10340987 2:0.026480055 3:0.021986768 4:-0.11732857 5:-0.19007404 6:-0.099312506 7:0.091316803 8:0.06725588 9:0.01812688 10:0.11501845 11:0.084600697 12:-0.054120791 13:-0.00042585505 14:0.033889733 15:-0.00085988217 16:0.020910334 17:-0.030708774 18:0.056322036 19:-0.020670326 20:-0.10166887 21:0.10191967 22:-0.0050605403 23:0.10935082 24:0.042813155 25:9.3943987e-05 26:0.15061318 27:-0.074052779 28:-0.068692547 29:-0.016992864 30:0.077267198 31:0.025280041 32:0.097481584 33:-0.10171793 34:-0.0336168 35:0.10967638 36:0.071312406 37:0.11459992 38:0.01836011 39:-0.014809323 40:-0.13856619 41:0.13056246 42:0.044345996 43:-0.096807908 44:0.087235884 45:0.023951523 46:-0.14338351 47:-0.035074847 48:0.19815604 49:0.054469301 50:-0.029218982 51:0.1800663 52:-0.036220221 53:-0.080416482 54:-0.088411172 55:-0.021805475 56:-0.16529445 57:0.090700572 58:-0.027733672 59:-0.055080953 60:0.026956131 61:0.025836495 62:0.054810734 63:0.096288188 64:-0.1429604 65:-0.022929683 66:0.013584415 67:-0.16879707 68:-0.058080407 69:-0.05306326 70:-0.081963699 71:-0.014002528 72:0.13495455 73:-0.015944015 74:0.012112498 75:-0.044108975 76:-0.038801601 77:-0.073636569 78:-0.11777876 79:0.060438447 80:0.039619993 81:0.012748605 82:0.12187712 83:-0.026782348 84:0.082166172 85:0.10803861 86:-0.014372423 87:0.054477685 88:0.04928402 89:0.044391369 90:-0.14801567 91:0.040738261 92:-0.02963168 93:-0.11411095 94:0.084623717 95:-0.15235821 96:-0.021050003 97:-0.03420549 98:0.011265545 99:-0.15603582 100:0.04869191 101:0.084117973 102:0.18486161 103:-0.15074767 104:0.0070036951 105:0.13218028 106:-0.0065821745 107:0.10002529 108:0.076530017 109:0.039445216 110:-0.14423813 111:0.064641916 112:0.044770399 113:-0.01860659 114:-0.069396805 115:0.031769425 116:0.030067405 117:0.10340584 118:0.013309174 119:-0.014543197 120:-0.02859176 121:0.051886401 122:0.074896894 123:0.04825205 124:-0.12172342 125:0.17115711 126:-0.13800217 127:0.2513031 128:0.090806341 
1 1:0.11069184 2:0.054372914 3:-0.0078999576 4:-0.022256629 5:-0.07968448 6:-0.12549451 7:0.080654966 8:0.13226073 9:0.062709875 10:0.19152902 11:0.0090228698 12:-0.05869417 13:0.065589211 14:0.077829009 15:0.074050817 16:-0.084314249 17:-0.01869826 18:0.0089570209 19:-0.0079681379 20:-0.13176975 21:0.069342849 22:-0.020249653 23:0.058631749 24:0.020817936 25:-0.020269337 26:0.073418168 27:0.060739387 28:-0.076696882 29:-0.030077061 30:0.053355099 31:0.038567351 32:0.095779259 33:-0.1782781 34:0.092108238 35:-0.0015438308 36:0.078171276 37:-0.043951153 38:0.072587007 39:-0.056845124 40:-0.027329096 41:0.088576832 42:0.047526408 43:-0.042598862 44:-0.0044251723 45:0.095549036 46:-0.14356549 47:-0.07143814 48:0.28619489 49:0.079181958 50:0.083214828 51:0.091638343 52:-0.03012209 53:-0.1123277 54:-0.0195457 55:0.086413701 56:-0.15368734 57:0.016163978 58:0.027255721 59:-0.077367969 60:0.02974956 61:0.10670304 62:0.040615863 63:0.017836589 64:-0.16100493 65:0.052218165 66:-0.018360441 67:-0.19627451 68:-0.047745428 69:-0.011386236 70:0.089963588 71:0.042162916 72:0.047672943 73:-0.16082717 74:-0.012002641 75:0.037153818 76:-0.041859597 77:-0.051796409 78:-0.26939535 79:0.022280206 80:0.074998477 81:-0.043980699 82:-0.028963706 83:0.064367788 84:0.18123027 85:0.090828763 86:-0.017909126 87:-0.053979011 88:-0.034448104 89:0.052222061 90:-0.039621486 91:-0.01838515 92:0.011125077 93:0.00045151496 94:-0.019255015 95:-0.13380582 96:0.028480833 97:-0.0058846806 98:0.046457692 99:-0.053715512 100:-0.067602681 101:0.060440248 102:-0.0017997893 103:-0.16037361 104:0.035400979 105:0.1540983 106:0.0094874893 107:0.076093732 108:-0.052069822 109:0.098997664 110:-0.082384415 111:0.0066049374 112:-0.016837533 113:0.076212598 114:0.023743123 115:-0.023243772 116:0.055641592 117:0.00056008619 118:0.042394326 119:-0.0052193707 120:-0.16889339 121:-0.011545744 122:0.18722418 123:0.071946166 124:-0.2327043 125:-0.00419843 126:-0.057890391 127:0.18212691 128:0.10220549 
1 1:0.19863485 2:-0.033751936 3:0.015769655 4:0.081085717 5:-0.087235529 6:0.035980253 7:0.13514272 8:0.20154785 9:0.0064231918 10:0.065069672 11:0.015964826 12:-0.049422662 13:-0.058680083 14:0.065090092 15:-0.012181393 16:-0.15153753 17:0.065995589 18:-0.10289689 19:-0.0072139865 20:-0.010642036 21:0.067762857 22:0.20669084 23:-0.023376828 24:-0.087103247 25:0.0099669942 26:0.075755488 27:-0.10273392 28:-0.073955853 29:-0.070633529 30:0.11360019 31:0.10625284 32:0.092186072 33:0.071560996 34:-0.0098311273 35:0.13979266 36:0.11870219 37:0.12756451 38:0.044514083 39:-0.0093192055 40:-0.054211264 41:-0.089576959 42:0.062412417 43:-0.020378596 44:-0.0067981672 45:0.023729372 46:-0.09440983 47:-0.07407489 48:0.0076008813 49:-0.029932893 50:0.064055879 51:0.1726334 52:-0.089814593 53:-0.26130812 54:-0.089603907 55:-0.078538744 56:-0.10243313 57:0.069334884 58:0.066924009 59:-0.090921441 60:0.091595755 61:0.074250235 62:0.045653675 63:0.12829727 64:-0.088415602 65:-0.00093788809 66:0.044766586 67:-0.018847536 68:-0.15531075 69:0.049757365 70:-0.014447653 71:0.037925911 72:0.034988926 73:-0.17861257 74:0.11815684 75:0.071405553 76:0.0097920578 77:0.075356875 78:0.042052491 79:0.029006017 80:0.10441002 81:0.018037934 82:0.093259519 83:0.019351615 84:-0.019731364 85:0.098224535 86:-0.022014252 87:-0.044050328 88:-0.023488107 89:-0.11578601 90:-0.053336714 91:-0.053365279 92:0.080744201 93:-0.058546199 94:0.049262588 95:-0.094897374 96:-0.040949458 97:0.023026962 98:-0.021815364 99:-0.17458067 100:-0.19711287 101:-0.026564854 102:0.02826013 103:-0.15714016 104:0.029756783 105:0.091335852 106:-0.010651758 107:-0.00012130328 108:-0.031851709 109:0.096317523 110:-0.089297236 111:0.16197473 112:0.075458968 113:-0.025136799 114:0.011399525 115:-0.023623146 116:-0.080503942 117:0.061353587 118:0.10339135 119:0.033724556 120:-0.018080154 121:-0.0065905366 122:0.15174143 123:0.0715579 124:-0.15201193 125:-0.038375894 126:-0.073211213 127:0.17647569 128:-0.0055739482 
1 1:-0.063344632 2:0.11400616 3:-0.086308103 4:-0.068492713 5:-0.15355183 6:0.073904892 7:0.021877347 8:0.14294412 9:-0.0078479812 10:0.11895072 11:-0.13343962 12:-0.022476992 13:-0.073721701 14:0.23320559 15:0.01406244 16:-0.019212261 17:-0.052396239 18:-0.089748411 19:-0.078789357 20:-0.050302202 21:0.13303973 22:0.045754965 23:-0.024925423 24:-0.044251466 25:0.016252673 26:0.13068146 27:0.077355537 28:-0.054520594 29:-0.10710961 30:-0.010136561 31:-0.094087275 32:-0.063725964 33:0.079013459 34:0.056853752 35:-0.025871472 36:0.024906539 37:-0.064097412 38:-0.05837156 39:-0.016706881 40:-0.027068003 41:0.063835085 42:0.15610793 43:-0.15483792 44:-0.031037106 45:0.065208735 46:-0.038862142 47:-0.0060307612 48:0.1772436 49:0.085718231 50:0.047052342 51:0.099295714 52:-0.066262319 53:0.050713357 54:-0.039003194 55:-0.053721708 56:-0.043639506 57:-0.018541328 58:-0.0010644302 59:-0.092817098 60:-0.070555343 61:0.11100014 62:0.049085139 63:0.017256686 64:-0.022981983 65:0.040115031 66:-0.070327754 67:-0.0043215486 68:0.077224232 69:0.052893545 70:-0.09118305 71:0.071822588 72:0.1486062 73:0.0091787251 74:0.11013518 75:0.050226297 76:-0.12444638 77:-0.05536962 78:0.084671463 79:-0.020914714 80:-0.16826188 81:-0.076611697 82:-0.027822455 83:-0.037167694 84:0.054665547 85:0.091270051 86:-0.045619652 87:-0.0015754803 88:0.032695597 89:-0.115487 90:-0.046754105 91:-0.080907021 92:0.020573659 93:-0.02321704 94:-0.07480141 95:-0.081386795 96:0.061971849 97:0.013043537 98:-0.16571794 99:-0.13610756 100:-0.051536619 101:0.32668037 102:0.10312424 103:-0.0048190863 104:0.051626956 105:0.10371346 106:0.25362538 107:-0.14571392 108:0.0046117743 109:0.0039609786 110:-0.069534959 111:0.065163107 112:-0.0016416823 113:0.031267201 114:0.064314399 115:0.030222592 116:0.12183711 117:-0.016992924 118:-0.020524071 119:0.16865913 120:0.06999611 121:-0.013191997 122:0.17302908 123:0.011453586 124:-0.04761128 125:-0.036218255 126:-0.025802249 127:0.068847469 128:0.11435384 
1 1:0.034079545 2:0.014294353 3:0.036973726 4:-0.031899068 5:-0.021553262 6:0.093542217 7:0.09990544 8:0.17468045 9:-0.047551503 10:0.12836912 11:-0.02460006 12:0.013987726 13:-0.22887386 14:0.12492256 15:-0.035409907 16:-0.15619865 17:-0.088147876 18:-0.019179188 19:-0.019229127 20:-0.11779814 21:0.060159933 22:0.22500588 23:0.0058080912 24:-0.099106346 25:-0.081103467 26:0.15419041 27:-0.031146248 28:-0.075249495 29:0.035749682 30:0.1853386 31:0.10221747 32:0.15340019 33:-0.09205916 34:0.12315798 35:0.031827662 36:0.12931581 37:0.057704402 38:0.028779529 39:-0.076979973 40:-0.15481125 41:-0.039606572 42:0.10219435 43:0.0055128529 44:0.029221476 45:0.070943003 46:-0.085088182 47:-0.13346751 48:0.084917609 49:0.073612247 50:0.062811096 51:-0.014332093 52:0.037445855 53:-0.16526203 54:-0.10010995 55:-0.002289221 56:0.01534792 57:0.10198127 58:0.0012779697 59:-0.088752369 60:-0.018606296 61:-0.050807379 62:-0.014525943 63:-0.038304019 64:-0.096451643 65:0.01636288 66:0.0021167828 67:-0.11145885 68:-0.046332322 69:0.041030276 70:-0.0046403458 71:-0.034304264 72:0.092228891 73:-0.098671685 74:-0.0129377 75:0.1324597 76:0.021998464 77:-0.12471381 78:-0.024236845 79:-0.045870192 80:0.13911018 81:-0.12041089 82:0.066254713 83:-0.04211475 84:-0.074311215 85:0.018005741 86:-0.098959 87:-0.20468218 88:-0.087499917 89:0.011495296 90:-0.055586578 91:-0.0024310159 92:-0.10875583 93:-0.18426739 94:0.0099568939 95:-0.01868157 96:0.0279059 97:-0.032354093 98:-0.033575316 99:0.015899595 100:-0.063895322 101:-0.028332049 102:-0.0059619866 103:-0.15944395 104:-0.037381707 105:0.23520084 106:0.063792456 107:-0.050550944 108:-0.099221156 109:-0.006552625 110:-0.13872975 111:0.10589985 112:-0.043715544 113:0.060357437 114:0.011264005 115:-0.067161515 116:-0.056307784 117:0.062446099 118:0.022922599 119:0.015423142 120:0.08036586 121:-0.032239432 122:-0.018300916 123:0.12996406 124:-0.11352162 125:-0.012448171 126:-0.11156126 127:0.036535231 128:0.0064542779 
1 1:0.11237276 2:0.068472192 3:-0.10848183 4:-0.054166218 5:-0.13704487 6:-0.10367979 7:0.04761774 8:0.26433933 9:0.11459524 10:0.10442093 11:0.13613116 12:-0.11789634 13:-0.12478019 14:0.2236552 15:0.040436332 16:-0.057210956 17:-0.035574833 18:-0.022780775 19:0.029957068 20:-0.067159165 21:0.1263237 22:0.13082784 23:-0.040092482 24:0.086042799 25:-0.069837749 26:0.17377718 27:-0.10357896 28:-0.15631158 29:0.016374496 30:0.13129412 31:0.027464538 32:0.059143725 33:-0.040390127 34:0.054301345 35:0.035620768 36:0.11423764 37:-0.054737505 38:-0.019709112 39:-0.015585663 40:-0.014837115 41:0.010919752 42:0.089333755 43:0.060183508 44:-0.00041591096 45:0.064858366 46:-0.055061343 47:-0.092744328 48:0.21125942 49:-0.016914979 50:-0.032637563 51:0.14977954 52:0.013169841 53:-0.042660926 54:-0.13574722 55:0.034974704 56:-0.063483981 57:0.052531507 58:-0.028808983 59:-0.1030593 60:0.028487272 61:0.032805835 62:0.00054121661 63:0.004782581 64:-0.071803965 65:0.00435384 66:0.074031413 67:-0.17549195 68:-0.061975285 69:0.05970398 70:-0.043957224 71:-0.0024672757 72:0.1152945 73:-0.079173819 74:0.036466759 75:0.020554467 76:-0.038145204 77:0.022589474 78:-0.013633408 79:-0.028006271 80:0.0032795792 81:0.053832402 82:0.017193569 83:0.022831264 84:0.090642707 85:-0.083400586 86:-0.084941863 87:-0.06962798 88:-0.013761012 89:0.0036451777 90:-0.025546073 91:0.080334052 92:-0.027317035 93:-0.18176908 94:-0.036947694 95:-0.067305784 96:-0.10810928 97:-0.10184641 98:-0.051613008 99:-0.096645643 100:-0.14937878 101:0.069355384 102:-0.024755379 103:-0.15835156 104:-0.015874594 105:0.1928739 106:0.060777641 107:0.034650282 108:0.013444079 109:-0.054055747 110:0.027250697 111:0.11658213 112:-0.070506509 113:0.060439916 114:0.012374059 115:-0.074386382 116:-0.010858114 117:0.099827802 118:-0.025306565 119:0.026843611 120:-0.054387106 121:0.049414365 122:0.04276474 123:0.15309902 124:-0.16775897 125:0.0020454174 126:-0.084751618 127:0.15476715 128:0.14894613 
1 1:0.018973424 2:0.068977738 3:-0.060380247 4:-0.073465417 5:-0.071726434 6:0.061304114 7:0.067154905 8:0.19259048 9:0.0069638413 10:0.039853837 11:-0.080532124 12:0.057709376 13:-0.18410553 14:0.091279673 15:-0.022798567 16:-0.13883622 17:0.018411054 18:-0.0039129919 19:-0.067670339 20:-0.011735804 21:0.10525632 22:0.12485554 23:0.10567084 24:-0.16646703 25:-0.032408433 26:0.11345628 27:-0.112057 28:-0.18421972 29:-0.012265703 30:0.048065934 31:0.037424356 32:0.087041017 33:-0.12833472 34:0.24501795 35:0.14372639 36:0.08805838 37:0.049337683 38:0.11362303 39:-0.15732024 40:-0.066715371 41:-0.0040110165 42:0.021698818 43:0.026798937 44:-0.063417541 45:-0.034318641 46:-0.17084422 47:-0.028773882 48:-0.0049798918 49:0.0046087192 50:0.056280529 51:0.025515934 52:0.0096318108 53:-0.094719087 54:-0.01258683 55:0.052030603 56:0.048045073 57:-0.030670977 58:0.11896386 59:-0.040272439 60:0.057484344 61:-0.057759713 62:-0.084226125 63:0.029943281 64:-0.12466987 65:-0.04178077 66:0.0094814185 67:-0.068699346 68:0.080962827 69:-0.13270919 70:-0.048286421 71:-0.086142561 72:0.067338927 73:-0.038878702 74:-0.033290275 75:0.043080549 76:-0.0073175249 77:-0.1000812 78:0.040011525 79:0.050221109 80:0.023976918 81:-0.10961183 82:0.053523837 83:0.16394831 84:-0.071827053 85:0.15591769 86:0.034816817 87:-0.09266881 88:-0.027219273 89:0.084909582 90:0.0027116238 91:0.00070467442 92:0.058665855 93:-0.1020985 94:0.026482388 95:-0.16048624 96:-0.057160777 97:-0.048549485 98:0.061923114 99:-0.0878759 100:-0.14703926 101:-0.048893543 102:-0.0089066032 103:-0.14464907 104:-0.070534595 105:0.11432028 106:-0.01411625 107:-0.078188424 108:-0.044956506 109:-0.076029027 110:0.12040103 111:0.060597464 112:-0.070434864 113:0.032077421 114:0.10904433 115:-0.049148192 116:0.085642931 117:0.037802078 118:-0.054287764 119:-0.0030003339 120:0.071468156 121:-0.033403323 122:0.11956104 123:0.15727399 124:-0.18796841 125:0.015167755 126:-0.084604336 127:0.17302624 128:0.11183603 
1 1:0.017942954 2:0.0068033384 3:0.048200442 4:-0.13298815 5:-0.097555311 6:-0.062745184 7:0.057384065 8:0.081742835 9:-0.054982367 10:0.1572342 11:-0.13279979 12:0.12408005 13:-0.057631358 14:0.085900648 15:-0.048821441 16:-0.14518926 17:-0.12586859 18:0.054091346 19:-0.075182344 20:-0.11933338 21:0.093038716 22:0.018474011 23:0.07727344 24:0.058380028 25:-0.061501825 26:0.080124631 27:0.037589576 28:-0.10004414 29:0.0077879367 30:0.073877684 31:0.13238441 32:0.10083697 33:0.010773208 34:0.016605707 35:-0.018796786 36:0.037421616 37:-0.064298033 38:0.026005811 39:-0.11567158 40:-0.085122135 41:0.13063159 42:0.077775396 43:-0.048817751 44:-0.0032777733 45:0.054129439 46:0.053654531 47:-0.13763976 48:0.11278259 49:-0.1125452 50:-0.077456716 51:-0.051227225 52:-0.03795351 53:-0.045569227 54:0.0098162767 55:0.070461508 56:-0.17833845 57:0.023601569 58:-0.037649682 59:-0.0026848546 60:0.054940228 61:0.10020928 62:0.041694256 63:0.052744765 64:-0.077753322 65:-0.017338203 66:-0.059647303 67:-0.081803652 68:0.092842677 69:-0.012527794 70:-0.016883665 71:-0.016296903 72:0.065882781 73:-0.077536535 74:-0.075301118 75:-0.036754713 76:-0.050172086 77:-0.058124518 78:-0.013589067 79:0.0072383945 80:0.075535574 81:-0.10201772 82:-0.0023029042 83:-0.026019991 84:-0.00028420067 85:0.16100375 86:-0.050308106 87:-0.023278603 88:-0.10268428 89:0.21270423 90:0.034814664 91:0.02440767 92:-0.098248343 93:-0.14257643 94:0.020334733 95:-0.090439993 96:0.13248887 97:-0.016652561 98:-0.0022950564 99:0.059958961 100:-0.023511335 101:-0.044297501 102:0.039368298 103:-0.15630785 104:-0.014848167 105:-0.053371548 106:0.061035225 107:0.038084328 108:-0.11826739 109:0.001151818 110:0.060201201 111:0.10608651 112:0.021799404 113:0.064702744 114:0.22767057 115:0.0010404179 116:-0.1073542 117:0.0037484123 118:0.16033157 119:0.048278759 120:-0.085476542 121:-0.12190926 122:0.18403057 123:-0.00081948966 124:-0.25714455 125:0.013563292 126:-0.051337277 127:0.20835286 128:-0.18624858 
1 1:0.047632003 2:-0.060335144 3:0.042856358 4:-0.14088713 5:0.044252446 6:-0.0081451504 7:0.073318681 8:0.19168433 9:0.031427451 10:0.041380547 11:0.11244056 12:-0.019855003 13:-0.10908025 14:0.082972091 15:0.096607331 16:-0.057467942 17:0.052731614 18:-0.00054950491 19:-0.0064720763 20:-0.036472216 21:0.1415447 22:0.018783692 23:-0.012272 24:-0.12887562 25:-0.23841848 26:0.027755653 27:-0.038054814 28:-0.03706933 29:-0.013182378 30:0.047484568 31:0.15291311 32:0.077143411 33:-0.11726471 34:0.0091747685 35:0.11715072 36:0.12069919 37:0.027405206 38:0.016528931 39:0.032431447 40:-0.058604741 41:0.10114245 42:0.13728821 43:0.051187378 44:0.032363311 45:0.12419652 46:-0.10618809 47:-0.077747603 48:0.059536795 49:0.012340472 50:-0.011738145 51:0.17772081 52:-0.022813835 53:-0.12808272 54:-0.0089487432 55:-0.024979023 56:-0.0071985643 57:0.089499039 58:0.034093147 59:-0.042947206 60:0.023621462 61:0.073562921 62:0.088680107 63:0.064543008 64:0.08116747 65:0.056287687 66:0.080901584 67:-0.225111 68:-0.12183973 69:-0.06028729 70:-0.020835199 71:-0.069627487 72:0.17308131 73:-0.0732546 74:0.050485983 75:-0.0215048 76:0.051295746 77:0.00035494542 78:0.043044426 79:-0.056565991 80:0.089255067 81:-0.045252387 82:0.021746583 83:0.11916633 84:0.039372741 85:0.12029319 86:-0.074137887 87:0.067505435 88:0.039638195 89:-0.0097668919 90:-0.084733894 91:0.076372418 92:0.025119656 93:-0.05723612 94:0.0076002764 95:-0.077006283 96:0.036313308 97:0.051474795 98:0.03575864 99:0.018865888 100:0.068021245 101:-0.065852722 102:0.11951381 103:-0.019791051 104:-0.096552271 105:0.1156642 106:0.12030925 107:0.12660544 108:0.17538738 109:0.07908473 110:-0.14909137 111:-0.024549591 112:-0.18056659 113:-0.062472774 114:-0.0093747104 115:-0.0075645172 116:-0.0055803246 117:-0.033868675 118:0.15141816 119:0.0016681978 120:-0.078027778 121:-0.12806148 122:0.14686121 123:0.18335488 124:-0.096822005 125:0.026282215 126:0.002182955 127:0.19806351 128:0.10120566 
1 1:0.082940059 2:0.048784195 3:-0.018652491 4:-0.030644372 5:-0.11447691 6:-0.068537592 7:0.077428876 8:0.17377345 9:0.0085634591 10:0.19039816 11:0.034737263 12:-0.057927604 13:0.044557125 14:0.07553353 15:0.013975091 16:-0.091966861 17:-0.073367332 18:0.047100026 19:-0.01915842 20:-0.12018479 21:0.082750591 22:-0.014194107 23:0.060453818 24:0.025451304 25:-0.033393397 26:0.076092205 27:0.068577466 28:-0.05127638 29:-0.047943356 30:0.070663487 31:0.0028507292 32:0.027884616 33:-0.18637425 34:0.13028625 35:0.067422369 36:0.048599955 37:-0.036458866 38:0.085255677 39:-0.0056470088 40:0.013495345 41:0.05463825 42:0.045915695 43:0.030883934 44:-0.035886072 45:0.13933484 46:-0.15155483 47:-0.038651983 48:0.26150783 49:0.067640216 50:0.08492005 51:0.10329744 52:0.017008543 53:-0.1571755 54:-0.0084245451 55:0.033531147 56:-0.13155443 57:0.010958337 58:0.033656049 59:-0.036647394 60:0.029424712 61:0.12544476 62:0.0077437124 63:0.029656835 64:-0.19550008 65:0.065956167 66:-0.021994867 67:-0.15062272 68:-0.088608599 69:0.042731929 70:0.063431069 71:0.083086891 72:0.038284796 73:-0.08704483 74:-0.079723456 75:0.05219907 76:-0.082459937 77:-0.061081377 78:-0.25146007 79:0.056381497 80:0.13023921 81:0.01104188 82:0.005060061 83:0.088411301 84:0.14515549 85:0.084422735 86:-0.086690348 87:-0.053485528 88:-0.012644152 89:0.055505706 90:-0.08238658 91:-0.038595765 92:-0.027579111 93:-0.028554663 94:-0.012017493 95:-0.12436968 96:0.03898512 97:-0.039208884 98:0.069765668 99:-0.11265486 100:-0.10008505 101:0.082204277 102:0.040873773 103:-0.13904904 104:0.038627762 105:0.17169645 106:-0.011884154 107:0.032741963 108:-0.019296482 109:0.098812513 110:-0.13622404 111:0.038653459 112:0.036690691 113:0.10865748 114:-0.023447851 115:-0.0047926389 116:0.079907307 117:0.012909762 118:0.02287327 119:-0.015567464 120:-0.16857429 121:-0.0019169409 122:0.099196998 123:0.096945227 124:-0.19640555 125:0.012193304 126:-0.047175414 127:0.16344064 128:0.13521454 
1 1:0.034063574 2:0.0083187379 3:-0.0010729601 4:-0.091797798 5:-0.21095731 6:-0.064824046 7:0.029255347 8:0.029886776 9:0.058932451 10:0.25402433 11:-0.057801767 12:-0.042837279 13:0.050089472 14:0.025323478 15:-0.083538225 16:-0.10724518 17:-0.085913114 18:0.031466276 19:-0.058398549 20:-0.089650447 21:0.093797298 22:0.04761137 23:0.17049394 24:0.057494649 25:-0.037928185 26:0.090957993 27:-0.092337566 28:-0.048006292 29:-0.056940135 30:0.080463822 31:0.046718846 32:0.065478611 33:0.03605753 34:0.045699703 35:0.056566859 36:0.16660913 37:0.011446304 38:0.064115263 39:-0.13086458 40:-0.10922463 41:0.033261047 42:-0.030278656 43:0.11184613 44:-0.01606727 45:-0.055357102 46:-0.11154464 47:-0.10386292 48:0.159585 49:0.030493929 50:0.0066742885 51:0.17289616 52:-0.079790625 53:-0.019180419 54:-0.024466449 55:0.019838719 56:-0.13075303 57:0.10285945 58:0.0034469169 59:-0.11196465 60:0.034033205 61:0.14595845 62:-0.023510204 63:0.099130133 64:-0.22685742 65:0.071296152 66:0.034178451 67:-0.16470394 68:0.10400585 69:-0.050691042 70:0.010989009 71:-0.067931907 72:0.034865701 73:-0.078152639 74:-0.021048411 75:-0.0098185196 76:0.032315337 77:0.013647622 78:-0.036830922 79:0.079568044 80:0.074959941 81:-0.051362731 82:0.043365346 83:-0.04537952 84:-0.033045654 85:0.1437958 86:-0.091399474 87:0.082794794 88:-0.022405284 89:0.089471088 90:-0.088692813 91:0.011121318 92:-0.046770331 93:-0.066411658 94:0.053441974 95:-0.13331091 96:0.027665799 97:-0.058333149 98:-0.0024516395 99:-0.11278769 100:-0.037929442 101:-0.029426887 102:0.076023994 103:-0.11382421 104:-0.068332288 105:0.12900087 106:0.0052734133 107:0.048831627 108:-0.058315478 109:-0.054680966 110:-0.019158291 111:0.22086094 112:-0.035280283 113:0.068750004 114:0.072146293 115:-0.021284005 116:-0.039285747 117:0.066630231 118:0.071195162 119:-0.074585215 120:0.011373947 121:0.044559049 122:0.17911238 123:0.074350887 124:-0.13221452 125:0.042761357 126:-0.23773966 127:0.1508733 128:0.053259002 
1 1:-0.0031123148 2:0.047330055 3:-0.057154125 4:-0.13869792 5:-0.14544532 6:-0.0011808542 7:0.078187829 8:0.11982007 9:0.031105812 10:0.12015128 11:-0.059605401 12:0.11084762 13:0.0015791924 14:0.046134989 15:-0.033854671 16:-0.11873211 17:-0.060801623 18:0.02493394 19:-0.019619359 20:-0.10551346 21:0.058417584 22:-0.049846891 23:0.11704531 24:0.091795829 25:0.04002223 26:0.089449672 27:-0.076466311 28:-0.13618333 29:0.077612037 30:0.044706667 31:0.14933288 32:0.08090697 33:0.016881974 34:0.038385944 35:0.037511207 36:0.036769076 37:0.020867454 38:0.040079515 39:-0.13230304 40:-0.14513235 41:0.13399467 42:-0.071045538 43:-0.0081507467 44:0.0040200104 45:-0.019315011 46:-0.098231698 47:-0.055188126 48:0.14994815 49:0.024883788 50:0.063447306 51:0.049962321 52:-0.088201597 53:-0.088359202 54:-0.035558636 55:0.10288668 56:-0.18787623 57:-0.052976048 58:-0.054053544 59:-0.050861654 60:0.068375783 61:0.14609292 62:-0.041307826 63:0.078440375 64:-0.10626944 65:0.10947619 66:3.8884832e-05 67:-0.09842168 68:0.080318871 69:-0.042244473 70:0.034440131 71:0.0035875452 72:0.069850819 73:-0.13239919 74:-0.011890319 75:-0.039483288 76:-0.029079311 77:-0.020989883 78:-0.092013078 79:0.071423754 80:0.074808099 81:-0.1061522 82:-0.04462409 83:0.018466057 84:0.020768014 85:0.17828835 86:-0.079382863 87:0.045499222 88:-0.072905786 89:0.20289176 90:0.0096879002 91:-0.052383083 92:-0.026857144 93:-0.098291124 94:0.0013971562 95:-0.12097993 96:0.12487187 97:0.010256833 98:-0.013130157 99:-0.028259084 100:-0.082588662 101:0.040876154 102:0.090653691 103:-0.26480562 104:-0.02857483 105:-0.0088281943 106:0.022067741 107:-0.0046100793 108:-0.052073249 109:0.081515463 110:-0.045577332 111:0.1353247 112:-0.013884828 113:0.083586498 114:0.066904648 115:0.0078693673 116:-0.035976364 117:0.022837625 118:0.072920706 119:-0.058892717 120:-0.048991888 121:-0.1255864 122:0.18747095 123:0.03826766 124:-0.24097577 125:0.0088236474 126:-0.10316125 127:0.23934395 128:0.033628508 
1 1:0.029228482 2:-0.00946502 3:-0.072054932 4:-0.051281441 5:-0.12556577 6:-0.018420422 7:0.1096647 8:0.13295534 9:0.052634672 10:0.16034286 11:-0.11463634 12:0.013200744 13:-0.014515986 14:0.046717713 15:0.08413193 16:-0.19218412 17:-0.016780792 18:0.071722971 19:-0.0089781465 20:-0.014732914 21:0.18794588 22:-0.016477268 23:0.11890901 24:0.10163924 25:-0.024434472 26:0.13302359 27:-0.013669144 28:-0.12656988 29:-0.0047508608 30:0.06815359 31:0.15325383 32:0.16206844 33:0.018546581 34:0.030233697 35:-0.041540816 36:0.053565353 37:-0.014870204 38:-0.023290875 39:-0.16754659 40:-0.051281489 41:0.08135789 42:-0.0069680707 43:0.050134791 44:0.020731837 45:0.051799316 46:-0.0082737398 47:0.0593543 48:0.099034176 49:-0.059028845 50:-0.0038133361 51:0.0022248524 52:-0.084037189 53:0.017300781 54:0.073836534 55:0.051538859 56:-0.18222549 57:-0.044566308 58:-0.1463431 59:-0.029950346 60:0.11657723 61:0.24028709 62:-0.013675819 63:0.022821623 64:-0.12538343 65:0.09071674 66:0.05727992 67:-0.13710455 68:0.12054533 69:-0.03484958 70:0.042743241 71:-0.022643195 72:0.033595854 73:-0.10794833 74:-0.040558565 75:-0.048073718 76:-0.0034727768 77:-0.0019941714 78:-0.055103396 79:-0.041118852 80:0.055384191 81:-0.10946782 82:-0.049250525 83:-0.027028862 84:0.067265552 85:0.16949348 86:-0.074007848 87:0.022986229 88:-0.11424375 89:0.11796816 90:0.015388295 91:-0.052536726 92:-0.074387918 93:-0.12155946 94:0.00015477507 95:-0.086469529 96:0.065892136 97:-0.01941297 98:0.0029251111 99:-0.01305384 100:-0.023448537 101:0.046033768 102:0.065072499 103:-0.12734273 104:0.0036088259 105:-0.096284489 106:0.03436253 107:-0.020789662 108:-0.1355791 109:0.072266706 110:0.039424844 111:0.048217749 112:0.023076194 113:0.023589468 114:0.090202157 115:-0.050268937 116:-0.060528665 117:-0.01251369 118:0.14451194 119:0.025261915 120:-0.1424271 121:-0.076584015 122:0.2070583 123:0.048537617 124:-0.22890715 125:8.465962e-05 126:-0.054707774 127:0.20917767 128:-0.12711122 
1 1:0.009863827 2:-0.030508404 3:0.0061163654 4:-0.14942399 5:-0.0278667 6:-0.0069749109 7:0.10396616 8:0.20502386 9:-0.0058288824 10:0.043159796 11:0.095850103 12:-0.073739186 13:-0.063325262 14:0.094943171 15:0.075849226 16:-0.060056585 17:0.014293228 18:0.0095658704 19:-0.018426736 20:-0.023504408 21:0.18113853 22:0.081884166 23:0.027186283 24:-0.14238661 25:-0.20604567 26:0.12702151 27:-0.042034858 28:-0.10829774 29:-0.030621448 30:0.037387946 31:0.12792284 32:0.080255091 33:-0.15344032 34:0.035478131 35:0.17327475 36:0.058472582 37:0.016061308 38:0.041468224 39:0.053259267 40:-0.055572143 41:0.047888944 42:0.086937571 43:0.012355667 44:0.027529354 45:0.024224193 46:-0.14269083 47:-0.030180692 48:0.069748189 49:0.043906757 50:-0.023068298 51:0.18919687 52:-0.058231988 53:-0.12925738 54:-0.0187182 55:-0.055914776 56:-0.080308571 57:0.042794806 58:0.018505293 59:-0.003864135 60:0.045631589 61:0.025410841 62:0.073565748 63:0.092487798 64:0.022534831 65:0.05436124 66:0.05316266 67:-0.21909854 68:-0.11109358 69:-0.11620907 70:-0.12185665 71:0.0088476419 72:0.11286646 73:-0.041528906 74:0.020088388 75:-0.055486962 76:-0.0098496991 77:-0.06875133 78:0.042957802 79:-0.022371217 80:0.079960087 81:-0.043664384 82:-0.011925342 83:0.13700279 84:0.080647112 85:0.13691978 86:-0.092245375 87:0.025174483 88:0.04821209 89:0.023461303 90:-0.04996785 91:0.026089891 92:0.08217533 93:-0.033756344 94:0.0058674372 95:-0.072502185 96:0.0791603 97:0.057706355 98:0.040818831 99:-0.06841932 100:0.088783216 101:0.0021832276 102:0.14839169 103:-0.093947545 104:-0.066947535 105:0.092859323 106:0.10680446 107:0.08848813 108:0.16162773 109:0.021054358 110:-0.13971391 111:0.0046751393 112:-0.12363205 113:-0.11130093 114:0.043943236 115:0.018041153 116:-0.005412439 117:-0.080249756 118:0.15540523 119:0.0438198 120:-0.011011166 121:-0.04181751 122:0.15470109 123:0.16114255 124:-0.16441616 125:0.044007138 126:-0.0060360569 127:0.22308285 128:0.084446215 
1 1:-0.060167406 2:0.094832029 3:-0.08235044 4:-0.06075647 5:-0.15408292 6:0.085461386 7:0.025774916 8:0.15020899 9:-0.0042456686 10:0.11794593 11:-0.12825135 12:-0.038279448 13:-0.067799199 14:0.22113109 15:0.01981987 16:-0.020533809 17:-0.045654924 18:-0.079261444 19:-0.083819318 20:-0.04859075 21:0.13064039 22:0.043397468 23:-0.021929576 24:-0.064836327 25:0.0050754706 26:0.13489461 27:0.070628491 28:-0.055872163 29:-0.12318162 30:-0.022721641 31:-0.085577939 32:-0.059063892 33:0.075264906 34:0.057955647 35:-0.013504132 36:0.0043939437 37:-0.060080024 38:-0.063655264 39:-0.014161961 40:-0.034389297 41:0.068107473 42:0.15351336 43:-0.15398328 44:-0.033678879 45:0.075074567 46:-0.054482677 47:-0.010082611 48:0.168209 49:0.11231217 50:0.053208717 51:0.10578827 52:-0.076516098 53:0.040588455 54:-0.02361931 55:-0.0675585 56:-0.048239838 57:-0.020502887 58:0.0013501993 59:-0.094181917 60:-0.078939705 61:0.10756266 62:0.045943637 63:0.02574028 64:-0.02790713 65:0.041164151 66:-0.079336478 67:0.0076344382 68:0.067862328 69:0.052085061 70:-0.095876556 71:0.07177946 72:0.14545309 73:0.0062902271 74:0.11003964 75:0.054462141 76:-0.12187434 77:-0.040885505 78:0.085971843 79:-0.01772513 80:-0.1680646 81:-0.080424298 82:-0.028206317 83:-0.039544448 84:0.034886403 85:0.099961204 86:-0.051112533 87:0.0025789404 88:0.041701779 89:-0.11682633 90:-0.049468432 91:-0.078687117 92:0.018541328 93:-0.035742686 94:-0.083576484 95:-0.082945521 96:0.068183703 97:0.0100921 98:-0.16524807 99:-0.13694302 100:-0.040942055 101:0.31640225 102:0.10094705 103:0.00012283731 104:0.05984311 105:0.10504531 106:0.25633525 107:-0.14517855 108:0.022179232 109:0.00022290754 110:-0.059227302 111:0.051990151 112:-0.01256625 113:0.0030635135 114:0.063023129 115:0.041530041 116:0.12941838 117:-0.017381034 118:-0.020535946 119:0.16505266 120:0.07510401 121:-0.0077688673 122:0.17298506 123:0.014892924 124:-0.040035624 125:-0.016506235 126:-0.038913305 127:0.068475872 128:0.12526185 
1 1:0.06464811 2:0.11865223 3:0.0015255911 4:-0.049591866 5:-0.18139688 6:0.019498889 7:0.062332019 8:0.079183187 9:-0.0047105259 10:0.11675368 11:-0.008872292 12:0.040964224 13:-0.15092376 14:0.067780924 15:-0.021232074 16:-0.14762628 17:-0.05744676 18:0.00045331742 19:0.017209077 20:-0.055209316 21:0.050651928 22:0.088382065 23:0.11046296 24:-0.04474373 25:-0.070781947 26:0.14372908 27:-0.074354314 28:-0.1058207 29:-0.0085549034 30:0.14896997 31:0.088288464 32:0.069049272 33:0.035109852 34:0.10569495 35:0.077486049 36:0.10465335 37:0.10251896 38:0.047339859 39:-0.052078219 40:-0.1093343 41:0.046164543 42:0.0025092916 43:0.0052291753 44:0.0072868731 45:-0.085683992 46:-0.16001027 47:-0.12884779 48:0.1212767 49:-0.025544279 50:-0.063630009 51:0.13038196 52:-0.045625079 53:-0.10742202 54:-0.11957004 55:0.015811388 56:-0.020750956 57:0.032103491 58:0.04392675 59:-0.11359079 60:0.070896361 61:0.0052749814 62:-0.062224751 63:0.084520905 64:-0.13492835 65:-0.032832172 66:0.021565849 67:-0.16821466 68:0.059286165 69:0.0068764868 70:-0.0021382951 71:-0.16732937 72:0.088404083 73:-0.096850867 74:0.071865758 75:0.019960119 76:0.041729632 77:-0.019888456 78:0.0066306587 79:0.04226136 80:0.071101937 81:-0.052858183 82:0.10756303 83:-0.030906433 84:-0.11888589 85:0.051849107 86:0.034420646 87:-0.0090043001 88:-0.12408285 89:0.066789934 90:-0.17274352 91:-0.0030412021 92:0.036629565 93:-0.15217301 94:0.052847813 95:-0.16878782 96:-0.065513794 97:-0.166263 98:-0.042996757 99:-0.035994544 100:-0.075484274 101:-0.0030422157 102:0.10770891 103:-0.21289266 104:-0.049729781 105:0.15011951 106:0.019550143 107:-0.022361695 108:-0.052472503 109:0.03003793 110:-0.034752043 111:0.16980363 112:-0.013208552 113:0.084743625 114:-0.037800483 115:-0.049916294 116:0.011818451 117:0.11290991 118:-0.053617028 119:-0.01907309 120:0.037911344 121:0.049595036 122:0.12018937 123:0.074507278 124:-0.092554649 125:0.10577169 126:-0.16464116 127:0.19228528 128:0.11901819 
1 1:0.054835424 2:0.038555738 3:0.080177147 4:-0.018028852 5:-0.066809943 6:0.09242826 7:0.12306409 8:0.1307888 9:-0.1285933 10:0.10009497 11:-0.0030842517 12:0.080003037 13:-0.19002508 14:0.096701749 15:0.0041737023 16:-0.11336392 17:-0.055923781 18:-0.01263935 19:-0.039618025 20:0.0074154763 21:-0.012446301 22:0.1242017 23:0.14602898 24:-0.1722038 25:-0.056855316 26:0.05367459 27:-0.0054148399 28:-0.15531556 29:0.029918513 30:0.26229191 31:0.12378999 32:0.010106755 33:0.029412287 34:0.14640002 35:0.097310229 36:0.07859162 37:0.062054687 38:0.019118566 39:-0.052666532 40:-0.056034311 41:-0.022240215 42:0.12329192 43:1.0546644e-05 44:0.022899673 45:-0.053148805 46:-0.062368306 47:-0.088280418 48:0.033619119 49:-0.014205975 50:-0.029561228 51:0.095706808 52:-0.040084239 53:-0.070568415 54:-0.12203417 55:-0.029462784 56:0.014673067 57:0.022715183 58:-0.00053980168 59:-0.076216298 60:0.074743673 61:-0.094286225 62:0.089418216 63:0.046656436 64:-0.14503033 65:-0.071038247 66:0.030321604 67:-0.1131483 68:-0.0080791924 69:0.056429205 70:-0.030570935 71:-0.12407317 72:0.15976651 73:-0.12018124 74:0.092235269 75:0.13859051 76:-0.031439547 77:-0.07658823 78:-0.0042919487 79:0.036341929 80:0.032956025 81:-0.17515574 82:-0.014238048 83:-0.01168829 84:-0.085051985 85:0.10677899 86:0.028419384 87:-0.1031369 88:-0.073748303 89:-0.041333627 90:-0.20076909 91:-0.0014748638 92:0.01308263 93:-0.072563394 94:-0.0020177312 95:-0.084842482 96:-0.11781414 97:-0.15957811 98:0.0022745318 99:-0.067275914 100:-0.13376457 101:-0.011066848 102:0.053822492 103:-0.1415508 104:-0.052394485 105:0.20592147 106:0.10702148 107:-0.083911427 108:-0.060304573 109:0.050328167 110:-0.042564294 111:0.045856362 112:-0.044437317 113:0.14402142 114:-0.0044120624 115:-0.064012302 116:-0.030631481 117:0.091395182 118:0.056759458 119:0.014092236 120:0.022550965 121:0.042850753 122:0.088247954 123:0.03170527 124:-0.099418449 125:0.064435846 126:-0.079587778 127:0.17982369 128:0.046469589 
1 1:-0.018440806 2:0.012928483 3:-0.0075898964 4:-0.18597533 5:-0.038627807 6:0.12526556 7:0.060940591 8:0.19599176 9:-0.06395144 10:0.057571732 11:-0.0020019817 12:0.12513559 13:-0.13804614 14:0.044570156 15:0.038713198 16:-0.0055532758 17:-0.018622271 18:-0.025841833 19:0.040158004 20:-0.082279677 21:0.033837942 22:0.10382691 23:0.09481316 24:-0.14491678 25:-0.050914331 26:0.0931706 27:-0.0065780945 28:-0.12846033 29:0.0495489 30:0.058530021 31:0.10793827 32:-0.053431422 33:-0.052011478 34:0.14734322 35:0.033821454 36:0.10008267 37:0.051207854 38:-0.051668368 39:-0.10961097 40:-0.060388115 41:0.086492272 42:0.074405424 43:-0.009331571 44:-0.12551482 45:-0.019435782 46:-0.0089708425 47:-0.11455395 48:0.018965504 49:0.0081905371 50:0.12091771 51:-0.022522902 52:-0.073060532 53:-0.198957 54:-0.11147574 55:-0.030878652 56:-0.030584496 57:-0.03604913 58:-0.044296267 59:-0.11427021 60:0.039230197 61:-0.089085608 62:-0.0051321238 63:0.073402857 64:-0.10430631 65:-0.10797779 66:-0.0232653 67:-0.1312073 68:-0.055968905 69:0.020049618 70:-0.0014471574 71:-0.13258362 72:0.057425359 73:-0.096221476 74:-0.0044868335 75:0.075044999 76:-0.019209863 77:-0.00051239911 78:-0.10053086 79:-0.052230282 80:0.035875201 81:-0.1224108 82:0.10162796 83:0.10792772 84:-0.1357681 85:0.11814904 86:0.062968483 87:0.098612516 88:-0.081792017 89:0.059317257 90:-0.059462165 91:-0.048389006 92:0.072152588 93:-0.10440289 94:0.037662863 95:-0.12554715 96:-0.062028877 97:-0.04757414 98:0.068614493 99:-0.036939755 100:-0.15650408 101:0.033100851 102:0.088583981 103:-0.085389303 104:-0.023321493 105:0.09203034 106:0.16059109 107:-0.0072076598 108:-0.02237606 109:0.0054038221 110:0.0034708097 111:0.11823777 112:-0.10624168 113:0.047500963 114:0.17772976 115:-0.088476944 116:-0.069011917 117:0.062809419 118:0.0037967023 119:0.033607247 120:0.044155725 121:-0.098516837 122:0.24883078 123:0.015792042 124:-0.20030014 125:-0.021403967 126:0.012052149 127:0.18254664 128:0.12617249 
1 1:0.10473314 2:0.10442327 3:0.013255159 4:-0.13118338 5:-0.15038516 6:-0.083334733 7:0.05424604 8:0.15343377 9:-0.0068402051 10:0.036704212 11:0.1167656 12:-0.014682238 13:-0.039002451 14:0.11740592 15:-0.023546719 16:0.0027373392 17:-0.05742416 18:0.069086247 19:-0.0086821699 20:-0.14397237 21:0.046449674 22:0.015193399 23:0.082933581 24:0.0079915655 25:-0.020471011 26:0.21311754 27:-0.060057049 28:-0.14675283 29:-0.046272215 30:0.054138372 31:0.14696544 32:0.065146111 33:-0.098571024 34:0.024240051 35:0.10806412 36:0.02128719 37:0.050758601 38:-0.012109108 39:0.070761926 40:-0.12649438 41:0.11412424 42:0.022715394 43:-0.014377393 44:0.059845078 45:0.014700447 46:-0.19764582 47:0.040101077 48:0.25795532 49:0.11743627 50:-0.006857194 51:0.13254288 52:-0.022401031 53:-0.090672964 54:-0.089666826 55:-0.0020309591 56:-0.12041007 57:0.09829051 58:0.02609891 59:-0.048981193 60:0.0042202125 61:-0.080537633 62:0.065197453 63:0.0038819263 64:-0.077165476 65:-0.013002662 66:0.0027230384 67:-0.22296834 68:-0.011464644 69:-0.0062136852 70:-0.027465671 71:-0.030362851 72:0.16841178 73:-0.16181984 74:-0.024892493 75:0.0024336171 76:-0.082735597 77:0.017047317 78:-0.12231868 79:0.017965463 80:0.038437588 81:0.020611478 82:0.033289883 83:0.062443588 84:0.11433771 85:0.11024749 86:-0.00060537843 87:0.0091430343 88:0.07029844 89:0.10584437 90:-0.1409896 91:0.012123406 92:0.027025165 93:-0.084019889 94:-0.025053816 95:-0.17096503 96:0.034126132 97:0.041248308 98:0.031341288 99:-0.071206126 100:0.074735479 101:0.070489145 102:0.098409459 103:-0.10445238 104:0.038214788 105:0.081335777 106:0.030638641 107:0.071921901 108:0.12260835 109:0.037400788 110:-0.093169203 111:0.09331485 112:0.041613426 113:-0.0076247671 114:-0.0071874672 115:0.0043511769 116:0.043876553 117:0.065800934 118:0.054305353 119:-0.09246383 120:-0.038787559 121:-0.070066806 122:0.136606 123:0.062146921 124:-0.21068272 125:0.030760778 126:-0.07699739 127:0.19170458 128:0.10205977 
1 1:-0.031775743 2:-0.011752785 3:0.022579948 4:-0.1575659 5:-0.066262733 6:0.075787899 7:0.087894257 8:0.15585128 9:0.0019661938 10:0.0188679 11:-0.033612161 12:0.091548055 13:-0.068325653 14:0.10722922 15:0.031561085 16:-0.052234184 17:-0.034216519 18:-0.015701754 19:0.022861799 20:-0.094991119 21:-0.036473119 22:0.090413514 23:0.050624513 24:-0.14701885 25:-0.037949416 26:0.018977561 27:-0.007242825 28:-0.10382056 29:0.018904591 30:0.21517121 31:0.11353007 32:-0.038110164 33:-0.058576792 34:0.092640062 35:0.036815971 36:0.053368775 37:0.086105419 38:-0.048050609 39:-0.095107649 40:-0.0083963239 41:0.035212099 42:0.068950131 43:0.069271264 44:-0.11964919 45:0.002760121 46:0.067280779 47:-0.13432437 48:-0.099449336 49:0.0103838 50:0.11138285 51:-0.042109364 52:-0.039686117 53:-0.1574698 54:-0.10099571 55:-0.0098093845 56:-0.029017745 57:0.029508426 58:0.027134825 59:-0.081914209 60:0.010570575 61:-0.12083718 62:0.028313294 63:0.13156346 64:-0.10755158 65:-0.032117855 66:-0.013229022 67:-0.12195164 68:-0.010288278 69:-0.009244328 70:-0.042136562 71:0.0079737679 72:0.064528969 73:-0.10483953 74:0.043769105 75:0.1095966 76:-0.059725521 77:-0.0088647226 78:-0.14886636 79:-0.079884134 80:0.0027234018 81:-0.19861021 82:0.08341326 83:0.022801995 84:-0.096549744 85:0.16776849 86:0.034685126 87:0.082548377 88:0.0056723292 89:0.065556868 90:-0.094589764 91:-0.035402364 92:-0.014054314 93:-0.096024501 94:-0.042842574 95:-0.1071799 96:0.02121778 97:0.0037650731 98:0.020374399 99:-0.087369751 100:-0.13116928 101:0.049127071 102:0.077743865 103:-0.024847806 104:-0.044556884 105:0.17714653 106:0.19226891 107:-0.0020135392 108:0.096487481 109:0.005375508 110:-0.047925771 111:0.15485546 112:-0.097025998 113:0.04494051 114:0.12910073 115:-0.1011254 116:-0.13239682 117:0.053310007 118:0.051475321 119:-0.0018970288 120:0.015039995 121:-0.13136461 122:0.1541502 123:0.11870425 124:-0.28585625 125:0.010003228 126:-0.015306519 127:0.13580245 128:0.13856208 
1 1:-0.033932006 2:0.11350426 3:-0.08406819 4:-0.09230837 5:-0.13035807 6:-0.010869705 7:0.082143158 8:0.23875163 9:0.055116992 10:0.10435152 11:0.029847985 12:0.048357919 13:-0.031696322 14:0.099514984 15:0.032910765 16:-0.11840053 17:0.069846625 18:-0.070134808 19:-0.079569626 20:-0.091455913 21:0.15177458 22:0.082398957 23:0.0029542001 24:-0.098633626 25:0.041987628 26:0.097672288 27:-0.088592952 28:-0.17375129 29:0.052483388 30:0.094154034 31:0.040498965 32:0.086935893 33:-0.14886904 34:0.2281706 35:0.1292542 36:0.020121548 37:0.1095204 38:0.095582253 39:-0.086470106 40:-0.078185276 41:0.026533966 42:0.03123527 43:-0.050397606 44:-0.0080582961 45:0.016380722 46:-0.089809235 47:0.029711518 48:0.075659123 49:-0.084029618 50:0.057967454 51:0.093517666 52:-0.059858874 53:-0.15935208 54:-0.067762104 55:0.060105714 56:-0.024480539 57:0.003769002 58:0.086571767 59:0.10025201 60:0.017812204 61:0.032579631 62:-0.12502721 63:-0.017940298 64:-0.080175791 65:0.049357379 66:-0.0095741198 67:-0.037557168 68:0.079845262 69:-0.064454334 70:-0.00065738644 71:-0.10609116 72:0.037400258 73:-0.06854667 74:0.014399476 75:-0.018610017 76:-0.0062620247 77:-0.061377684 78:-0.0059375697 79:0.04088337 80:0.092492615 81:-0.045543767 82:0.016654935 83:0.12766963 84:0.056277938 85:0.18377863 86:-0.06306029 87:-0.013696067 88:-0.038269354 89:0.0090653961 90:-0.0053534726 91:-0.074366219 92:-0.003155313 93:-0.029065101 94:0.11786532 95:-0.14418805 96:0.040917345 97:-0.016401914 98:0.12357055 99:-0.12386281 100:-0.18313788 101:0.018503805 102:0.0065732854 103:-0.16309005 104:-0.12387318 105:0.13245568 106:0.070112458 107:0.0037562031 108:-0.050497981 109:-0.063630601 110:0.085582651 111:0.040792079 112:-0.020963679 113:0.037949209 114:0.082859258 115:-0.085746721 116:0.052786156 117:-0.0034485808 118:0.078167775 119:0.018861939 120:-0.019824201 121:-0.00022507021 122:0.17145695 123:0.23901784 124:-0.16852676 125:0.0034478901 126:-0.068766903 127:0.13659616 128:0.09579895 
1 1:0.10532041 2:0.14959759 3:0.0033040733 4:0.020837754 5:-0.16973409 6:-0.034839709 7:0.067457252 8:0.15900244 9:0.16397967 10:0.16218968 11:0.025892884 12:-0.072444202 13:-0.082112188 14:0.043383501 15:-0.015470655 16:-0.0064347694 17:0.17794451 18:-0.04596656 19:0.032794876 20:-0.16845771 21:0.23834502 22:0.15270482 23:-0.043076745 24:0.021790851 25:-0.040547833 26:0.070396918 27:-0.11265316 28:-0.099498857 29:-0.017566945 30:0.16601358 31:0.091001476 32:0.050369728 33:-0.1159695 34:0.11835105 35:-0.0046546402 36:0.13524152 37:0.083748394 38:0.028216042 39:-0.016569939 40:-0.1241666 41:0.018538001 42:0.057604004 43:-0.082962159 44:0.015413545 45:0.062430145 46:-0.098210697 47:0.00313871 48:0.17517983 49:0.029378914 50:0.040205831 51:0.13768245 52:-0.038754036 53:-0.081533576 54:-0.16953355 55:0.055218088 56:-0.14746238 57:0.13989014 58:-0.022384059 59:-0.096566315 60:0.054637732 61:0.012900725 62:-0.014655252 63:0.091795711 64:-0.058932167 65:0.023998503 66:0.046849765 67:-0.087916199 68:-0.10214462 69:0.081121237 70:0.063222278 71:-0.068515249 72:0.0518388 73:-0.20695786 74:0.031104475 75:0.0083856739 76:-0.016391774 77:0.095749852 78:0.086767746 79:-0.025483104 80:0.047727483 81:-0.010878499 82:0.019142069 83:0.0023808023 84:0.1257743 85:-0.0038377672 86:-0.062848776 87:0.018755179 88:-0.0088716741 89:-0.034911394 90:-0.10139208 91:0.048188446 92:-0.040533611 93:-0.13261335 94:0.028196565 95:-0.20314336 96:0.011917129 97:-0.02863358 98:0.0021849875 99:-0.054355431 100:-0.094509916 101:-0.034458613 102:-0.014227011 103:-0.1755695 104:-0.011720433 105:0.10518602 106:0.063059204 107:-0.0089080088 108:-0.11175575 109:0.020112068 110:-0.085166529 111:0.09419439 112:-0.008221287 113:-0.030376842 114:0.043091812 115:0.0040058832 116:-0.011869775 117:0.087822522 118:-0.0053629267 119:0.047791504 120:-0.093837951 121:-0.0094678681 122:0.15265813 123:0.12325244 124:-0.12694309 125:0.0018570771 126:0.0061497387 127:0.07327423 128:0.052952953 
1 1:0.17450962 2:-0.050332878 3:0.0626317 4:-0.052378268 5:-0.064914152 6:0.085871196 7:0.092275614 8:0.18021408 9:-0.048795155 10:0.050179287 11:-0.0086335006 12:-0.025743714 13:-0.0059002979 14:0.09471774 15:-0.0067329057 16:-0.24599953 17:0.0051301856 18:-0.19846384 19:-0.053842163 20:-0.052230291 21:0.05280558 22:0.16162219 23:0.03371745 24:-0.099339449 25:0.039044262 26:0.10699788 27:-0.05133555 28:-0.041175931 29:-0.055985518 30:0.094458973 31:0.12748815 32:0.05411677 33:-0.067327663 34:0.0033920749 35:0.14964728 36:0.067514546 37:0.17646536 38:0.032239982 39:-0.038961895 40:-0.034846549 41:-0.10915504 42:0.09188162 43:-0.00060463131 44:0.03547678 45:0.017557928 46:-0.059382407 47:-0.053296722 48:0.022943044 49:0.023876659 50:-0.026238148 51:0.13835475 52:-0.091557595 53:-0.23489918 54:-0.11079985 55:-0.042496837 56:-0.052601235 57:0.077839921 58:-0.011291585 59:0.050197826 60:-0.011986877 61:-0.055181929 62:-0.012894873 63:0.089402526 64:-0.06975434 65:-0.05887475 66:-0.0095508149 67:-0.028986144 68:-0.17541784 69:0.051695434 70:-0.026338954 71:-0.038230446 72:0.0609226 73:-0.15029502 74:0.048523078 75:0.067368921 76:-0.033032586 77:0.054109212 78:0.087905306 79:0.052213662 80:0.10168034 81:0.050998684 82:0.036880954 83:-0.033399386 84:-0.021580571 85:0.018599477 86:-0.063365252 87:-0.033487971 88:-0.081047292 89:-0.14861838 90:-0.054507639 91:-0.063075916 92:0.096042725 93:0.0084379955 94:0.079788672 95:-0.13860861 96:0.0096952799 97:-0.025083142 98:0.023224211 99:-0.10280988 100:-0.13024525 101:0.0021886721 102:0.080646626 103:-0.18691275 104:-0.0959021 105:0.11153675 106:0.0436615 107:-0.00040760495 108:0.068562176 109:0.085578196 110:-0.087153599 111:0.19329368 112:0.068515665 113:-0.044869274 114:0.0061711586 115:-0.11087166 116:-0.10707593 117:0.0033357833 118:0.19579751 119:0.015621963 120:-0.019038095 121:0.020826373 122:0.18787991 123:0.05427102 124:-0.064020946 125:-0.039810071 126:-0.10165761 127:0.15300262 128:-0.016446971 
1 1:0.02867669 2:0.074827373 3:-0.055603124 4:-0.11973874 5:-0.14957854 6:-0.053089708 7:0.06040099 8:0.19734745 9:-0.023552852 10:0.12556732 11:-0.16868071 12:0.14978551 13:-0.053169812 14:0.0374746 15:-0.041998292 16:-0.14996168 17:-0.051756809 18:-0.0086265174 19:-0.12447065 20:-0.084640032 21:0.15875873 22:0.13697901 23:0.013460102 24:-0.064631021 25:-0.049427397 26:0.095346771 27:-0.11108653 28:-0.090823631 29:0.070592364 30:0.11171777 31:0.044691478 32:0.064671434 33:-0.082216967 34:0.23579834 35:0.014410416 36:0.05359962 37:0.046405734 38:0.050412079 39:-0.19868297 40:0.0048323212 41:-0.030252048 42:-0.014923426 43:0.071597978 44:-0.058222357 45:0.018302433 46:-0.16023958 47:-0.053700372 48:0.095161936 49:-0.087576521 50:0.10174679 51:0.071724208 52:0.010198161 53:-0.059160529 54:0.0051385378 55:0.051841289 56:-0.096528338 57:0.0065355508 58:0.097602218 59:0.022542057 60:0.10747944 61:0.046761175 62:-0.071465944 63:-0.061204556 64:-0.052942043 65:0.048253353 66:0.01955924 67:0.010378311 68:0.1077989 69:-0.041801613 70:-0.064221819 71:0.051452816 72:0.026246608 73:-0.036888503 74:-0.025678051 75:-0.034678612 76:0.020831258 77:-0.1137754 78:-0.056901754 79:-0.070676899 80:0.10644765 81:-0.02183285 82:0.0034279865 83:0.19490639 84:0.097842764 85:0.17838819 86:-0.036374689 87:-0.07061454 88:-0.057844484 89:0.16366614 90:0.078989206 91:-0.13266185 92:-0.018798551 93:-0.040426163 94:0.029849034 95:-0.097645167 96:-0.017155848 97:0.039748988 98:0.088019591 99:-0.010487357 100:-0.14109677 101:-0.075223381 102:-0.067033612 103:-0.1793077 104:-0.0035347914 105:0.036019238 106:-0.0031442752 107:-0.095788958 108:-0.057402553 109:-0.021578865 110:0.11593915 111:-0.0080837142 112:-0.014723194 113:0.16565081 114:0.18730497 115:-0.0054205365 116:0.065257154 117:0.018747188 118:0.06884842 119:-0.032883445 120:-0.023191189 121:-0.10546413 122:0.073556651 123:0.05946117 124:-0.19619094 125:-0.035575905 126:-0.04230317 127:0.053457503 128:0.036808511 
1 1:0.0379624 2:0.037541594 3:-0.065358973 4:-0.10933042 5:-0.17520488 6:-0.036472297 7:0.12463133 8:0.14547088 9:-0.024777489 10:0.20413718 11:-0.13910337 12:0.05458476 13:-0.054160973 14:0.05285465 15:-0.007677451 16:-0.15140538 17:-0.13405777 18:-0.0039123479 19:-0.075934809 20:-0.073684183 21:0.21562097 22:0.079524656 23:0.032215596 24:0.028809671 25:-0.079074104 26:0.11958432 27:-0.054973527 28:-0.10723122 29:0.014937473 30:0.094178541 31:0.11755645 32:0.081682708 33:0.014850399 34:0.090464995 35:-0.0093310959 36:0.052383342 37:-0.030941065 38:0.015929487 39:-0.15340872 40:0.018675263 41:0.076575405 42:0.042707284 43:-0.0049503918 44:-0.026414737 45:0.023555366 46:-0.038318768 47:-0.07876562 48:0.11450056 49:-0.13413042 50:0.033117319 51:-0.00041391622 52:0.013277293 53:-0.020971032 54:0.020197929 55:0.063139159 56:-0.18876887 57:0.013695993 58:-0.021675359 59:0.0032857475 60:0.11514601 61:0.13999384 62:-0.014371271 63:0.038081641 64:-0.071835214 65:0.029713838 66:-0.07147233 67:-0.06775724 68:0.063387578 69:-0.0075054629 70:0.054769749 71:0.006073014 72:0.050945778 73:-0.061828873 74:-0.038164796 75:-0.070083592 76:-0.0045066856 77:-0.039333717 78:-0.03423933 79:-0.057758498 80:0.077284851 81:-0.11104197 82:-0.028058623 83:0.041053049 84:0.10228362 85:0.19362105 86:-0.083992395 87:-0.04411347 88:-0.10502561 89:0.17027274 90:0.041770939 91:-0.045869369 92:-0.080869574 93:-0.13986158 94:0.013752558 95:-0.07441099 96:0.05996912 97:-0.040937321 98:0.004302774 99:0.024293131 100:-0.064868727 101:-0.02606691 102:-0.0048144754 103:-0.13339816 104:-0.015176892 105:-0.017053515 106:0.045112198 107:-0.0073707932 108:-0.15471213 109:0.033463559 110:0.055051873 111:0.048520993 112:-0.0061604284 113:0.090740367 114:0.22965228 115:0.013525223 116:-0.020183694 117:0.020212914 118:0.1135653 119:0.040486522 120:-0.063319294 121:-0.13309185 122:0.23463456 123:0.01630998 124:-0.25776801 125:-0.0050887086 126:-0.014527687 127:0.12194616 128:-0.1320618 
1 1:0.061782497 2:-0.0088114147 3:-0.033763741 4:-0.029096451 5:-0.13689448 6:0.00045162968 7:0.11709545 8:0.13687241 9:0.024456065 10:0.20816433 11:-0.11570207 12:0.044720311 13:-0.090375728 14:0.08694853 15:-0.022543098 16:-0.17687936 17:-0.047938914 18:-0.013309835 19:-0.049917321 20:-0.061703091 21:0.17456291 22:0.10291708 23:0.040638095 24:0.033921554 25:-0.12079311 26:0.092042349 27:-0.03689716 28:-0.14848054 29:-0.025476452 30:0.11316017 31:0.13038768 32:0.15737773 33:0.047652435 34:0.051000626 35:0.023009666 36:0.041639774 37:-0.0077919808 38:-0.0027417212 39:-0.11312242 40:-0.0006294804 41:0.074235696 42:0.10194548 43:-0.011150746 44:0.018674018 45:0.023996306 46:0.019292835 47:-0.09899509 48:0.11785805 49:-0.13689669 50:-0.034019328 51:-0.032516821 52:0.0015906156 53:-0.018623229 54:-0.022606658 55:0.054600795 56:-0.17180714 57:0.018364483 58:-0.061411954 59:-0.011155711 60:0.11395169 61:0.14400255 62:-0.030061883 63:-0.0040463943 64:-0.080990623 65:0.0076449004 66:-0.0405528 67:-0.14906003 68:0.0056614447 69:0.0045314621 70:0.088338175 71:-0.044806322 72:0.041568022 73:-0.11878593 74:-0.0063225943 75:-0.00033374126 76:-0.010642679 77:-0.033302096 78:0.0022462161 79:-0.030223269 80:0.061282437 81:-0.1189472 82:-0.031716666 83:-0.00039250301 84:0.068590836 85:0.15485505 86:-0.073724481 87:-0.029096943 88:-0.11585638 89:0.15291127 90:0.037428496 91:0.023133119 92:-0.085788491 93:-0.15176342 94:0.036133217 95:-0.086632063 96:0.073941275 97:-0.097452122 98:-0.0042258495 99:0.0042834711 100:-0.082786444 101:-0.040521787 102:0.0064937768 103:-0.10731821 104:-0.036037544 105:0.023959165 106:0.057123831 107:0.0096979034 108:-0.15075609 109:0.032607932 110:0.032173865 111:0.067008706 112:-0.0069982505 113:0.070294009 114:0.20367888 115:0.014836733 116:-0.034839398 117:0.014456569 118:0.096464686 119:0.038288439 120:-0.099603698 121:-0.03853527 122:0.25875927 123:0.095578207 124:-0.248484 125:-0.014230594 126:-0.022432048 127:0.18835758 128:-0.15314246 
1 1:0.024531208 2:-0.037425571 3:-0.049223087 4:-0.060956192 5:-0.13059638 6:-0.018223072 7:0.096916959 8:0.1437933 9:0.01275135 10:0.19676955 11:-0.16624398 12:0.052453087 13:-0.06011444 14:0.019144631 15:0.026586681 16:-0.1895923 17:-0.045828238 18:0.056119368 19:-0.022502581 20:-0.014288329 21:0.21316 22:0.03662963 23:0.088747189 24:0.065177727 25:-0.065064012 26:0.13526558 27:-0.038983803 28:-0.10630749 29:0.01280131 30:0.078464386 31:0.15156915 32:0.14851491 33:0.032116525 34:0.049625266 35:-0.055124992 36:0.05827532 37:0.00077903945 38:-0.037360149 39:-0.19121255 40:0.0046141151 41:0.060928778 42:0.030019899 43:0.032669721 44:0.0056053294 45:0.041577028 46:-0.018872442 47:0.0031720024 48:0.085205305 49:-0.1238065 50:-0.033685527 51:-0.019896785 52:-0.046322468 53:-0.0060770726 54:0.067585155 55:0.083350499 56:-0.16038326 57:-0.037198217 58:-0.12481323 59:-0.0068568104 60:0.10777858 61:0.20688262 62:0.01875809 63:0.01849104 64:-0.08356447 65:0.078338498 66:0.021326518 67:-0.11104897 68:0.093920966 69:-0.025405925 70:0.06283742 71:0.015215841 72:0.023677009 73:-0.072470078 74:-0.063164916 75:-0.039491714 76:-0.0093541258 77:-0.016575911 78:-0.047074584 79:-0.073569182 80:0.048725653 81:-0.1018928 82:-0.046449052 83:0.0035297527 84:0.085219084 85:0.19651434 86:-0.068390042 87:0.0062464039 88:-0.10821006 89:0.1416213 90:0.035768898 91:-0.043476277 92:-0.052966278 93:-0.13139381 94:-0.001973568 95:-0.079275383 96:0.062482488 97:-0.023883635 98:0.010396648 99:0.0061391872 100:-0.0062277798 101:-0.0021386251 102:0.022020956 103:-0.127613 104:-0.0029613133 105:-0.070267229 106:0.013817859 107:-0.011369975 108:-0.15246307 109:0.057793873 110:0.050456424 111:0.025443469 112:0.0073841527 113:0.045849894 114:0.16409327 115:-0.024275517 116:-0.030481358 117:0.0071328409 118:0.14026735 119:0.033264048 120:-0.1356323 121:-0.075318963 122:0.21329985 123:0.02173677 124:-0.24293719 125:-0.0072551922 126:-0.035556526 127:0.18438722 128:-0.18317678 
1 1:0.016130363 2:0.066042053 3:-0.047088876 4:-0.13403542 5:-0.081148324 6:0.0037216661 7:0.06322786 8:0.17343423 9:-0.049550355 10:0.14199472 11:-0.13952876 12:0.14601238 13:-0.06744391 14:0.076537241 15:-0.099897928 16:-0.16011065 17:-0.019586036 18:-0.050930004 19:-0.10292073 20:-0.076593561 21:0.12335099 22:0.14267932 23:0.014045595 24:-0.12259462 25:-0.078284189 26:0.074164288 27:-0.097148745 28:-0.15737778 29:0.06540204 30:0.19908502 31:0.045445124 32:0.038695317 33:-0.13640011 34:0.24651851 35:0.031515745 36:0.0708411 37:0.039461317 38:0.067739015 39:-0.15815695 40:-0.027516907 41:-0.036545782 42:0.052177957 43:0.012458145 44:-0.032916903 45:0.01439382 46:-0.12427576 47:-0.037615307 48:0.094301358 49:-0.053917629 50:0.1187865 51:0.08571923 52:0.014891808 53:-0.088273852 54:-0.021770674 55:0.042908197 56:-0.074326603 57:0.015583764 58:0.070408878 59:0.024038037 60:0.10948525 61:-0.0058277199 62:-0.077097508 63:-0.015407754 64:-0.083204622 65:-0.038428542 66:0.0029974472 67:-0.0070160485 68:0.065288069 69:-0.035667682 70:-0.10110064 71:0.014059946 72:0.064825259 73:-0.10365975 74:-0.03154127 75:0.019305243 76:0.019544077 77:-0.11409234 78:0.0094209659 79:-0.034388863 80:0.051313804 81:-0.045408714 82:0.0029050529 83:0.16523382 84:0.047123566 85:0.18334781 86:-0.059823333 87:-0.03355729 88:-0.058919218 89:0.10893658 90:0.028825237 91:-0.16579694 92:-0.010262345 93:-0.056621943 94:0.051447259 95:-0.10456891 96:-0.0027813596 97:0.011115535 98:0.051698536 99:-0.055207155 100:-0.18951753 101:-0.016666341 102:0.024047439 103:-0.18587869 104:-0.035329923 105:0.12724519 106:0.040106402 107:-0.11638451 108:-0.074097937 109:-0.021605424 110:0.046312897 111:0.050800159 112:-8.5266452e-05 113:0.16277446 114:0.15487791 115:-0.045057059 116:0.056328258 117:0.032019715 118:0.05010736 119:-0.022230692 120:-0.021524665 121:-0.079137395 122:0.10843275 123:0.082208814 124:-0.18447046 125:-0.0022529304 126:-0.058697472 127:0.10208487 128:0.083543384 
1 1:0.037866475 2:0.018244349 3:-0.04671897 4:-0.10983027 5:-0.18750969 6:-0.010254095 7:0.10149172 8:0.094447844 9:0.012921629 10:0.15942278 11:-0.064966691 12:0.062939881 13:-0.047565436 14:0.089266498 15:-0.039445268 16:-0.13862835 17:-0.069135593 18:0.021017741 19:-0.0098827753 20:-0.051227778 21:0.11814589 22:0.07083204 23:0.048276846 24:0.068488962 25:-0.13169205 26:0.12523086 27:-0.057837161 28:-0.12624007 29:0.014642998 30:0.085123551 31:0.17155817 32:0.13529401 33:-0.0023255901 34:0.054463728 35:0.057355076 36:0.015858012 37:-0.01687457 38:0.066530184 39:-0.18204222 40:-0.066547413 41:0.065839792 42:0.069362109 43:-0.0016613524 44:-0.0055122067 45:-0.040495033 46:-0.023824086 47:-0.054143396 48:0.11618949 49:-0.1229256 50:-0.055856941 51:-0.022335767 52:-0.013139793 53:-0.067456277 54:-0.033960684 55:0.073576368 56:-0.13022255 57:-0.012175365 58:-0.051217627 59:-0.011698246 60:0.067078663 61:0.071957808 62:-0.027928761 63:0.0022462679 64:-0.14724806 65:0.00012324968 66:-0.039478948 67:-0.17600025 68:0.046471438 69:-0.019738134 70:0.010495974 71:-0.12357495 72:0.036772813 73:-0.096850558 74:-0.042082526 75:0.016069159 76:-0.021129489 77:-0.024795205 78:-0.0089621928 79:0.065020465 80:0.063229055 81:-0.08068071 82:0.038856242 83:-0.020501288 84:-0.031107738 85:0.21093298 86:-0.063560408 87:0.0041793531 88:-0.12747616 89:0.20930929 90:0.046405626 91:-0.0014411256 92:-0.064924743 93:-0.16370328 94:-0.0010964235 95:-0.11565286 96:0.049432813 97:-0.078187325 98:-0.01513506 99:0.0082968475 100:-0.10176063 101:-0.048971348 102:0.045021005 103:-0.13329704 104:-0.12103933 105:0.051215954 106:-0.00024568979 107:0.014729112 108:-0.14513681 109:0.0028048292 110:-0.019829525 111:0.083005756 112:-0.0073052501 113:0.095883799 114:0.15827105 115:-0.079386351 116:-0.055077211 117:0.10227509 118:0.075296455 119:-0.0040129355 120:5.1052425e-05 121:-0.06990259 122:0.24340767 123:0.184487 124:-0.18448084 125:-0.0031221471 126:-0.042084423 127:0.20141207 128:-0.076891759 
1 1:0.02729736 2:0.15562831 3:0.010926932 4:-0.13048943 5:-0.1436842 6:0.021646297 7:0.07670466 8:0.13182116 9:-0.049117233 10:0.10744291 11:-0.10523741 12:0.04945878 13:-0.1962678 14:0.1328841 15:0.033183338 16:-0.11782666 17:-0.10290942 18:0.0061163814 19:0.027964042 20:-0.12972072 21:0.028643425 22:0.16729349 23:0.022929875 24:-0.025404997 25:-0.080870346 26:0.17113976 27:-0.007133928 28:-0.16204853 29:0.045287927 30:0.12076371 31:0.16414579 32:0.012470148 33:-0.13524041 34:0.1119894 35:0.048156189 36:0.072981194 37:-0.041060526 38:-0.076443505 39:-0.0172998 40:-0.07808181 41:0.028538063 42:0.10319262 43:-0.0059958207 44:-0.082472374 45:0.019991627 46:-0.036795671 47:-0.082483393 48:0.13015494 49:-0.02817451 50:-0.075928761 51:-0.017965222 52:-0.056339426 53:-0.13281364 54:0.041715946 55:-0.028654134 56:-0.0089360776 57:-0.019539898 58:0.015188208 59:0.0074427066 60:0.063320066 61:-0.089915064 62:0.068594614 63:0.071946523 64:-0.019459068 65:0.013833994 66:0.02866737 67:-0.1254946 68:0.039459773 69:0.0088394243 70:-0.058587879 71:-0.076492073 72:0.050961074 73:-0.1304651 74:-0.080116377 75:0.0075155138 76:0.018712203 77:-0.021561391 78:-0.031350879 79:0.044084582 80:0.09610929 81:-0.041412406 82:0.092001577 83:0.057048589 84:-0.02533577 85:0.079089351 86:-0.010653702 87:-0.011635042 88:-0.11328196 89:0.11941759 90:0.0045892014 91:0.1501242 92:-0.058366827 93:-0.095353642 94:-0.075228366 95:-0.060809608 96:-0.076200806 97:-0.025535743 98:-0.02477755 99:0.070253349 100:-0.14100616 101:0.056115584 102:0.11280733 103:-0.05058239 104:-0.040476585 105:0.19453792 106:0.093931207 107:-0.0914024 108:-0.13465193 109:0.062079055 110:0.12906339 111:0.21466292 112:0.012110875 113:0.116294 114:0.13878135 115:-0.024401492 116:-0.019621064 117:0.021465688 118:-0.03572775 119:0.052896167 120:-0.050424961 121:-0.020524605 122:0.23283045 123:-0.0047957597 124:-0.18270897 125:0.0021085883 126:-0.018522739 127:0.13952168 128:0.04285011 
1 1:0.012101227 2:0.0021515254 3:-0.077007046 4:-0.11094062 5:-0.057336772 6:0.016475361 7:0.015700253 8:0.18531579 9:-0.02649252 10:0.1390093 11:-0.14634088 12:0.15286426 13:-0.04844889 14:0.076081874 15:-0.11382551 16:-0.10185018 17:0.0058622592 18:-0.031660018 19:-0.058048209 20:-0.054127058 21:0.091007627 22:0.097835595 23:0.016508513 24:-0.11388916 25:-0.096057262 26:0.092014336 27:-0.076235265 28:-0.11713173 29:0.1092727 30:0.17684203 31:0.063959723 32:0.026749562 33:-0.16522671 34:0.31093913 35:0.041661051 36:0.071992254 37:0.052859255 38:0.031951536 39:-0.23219832 40:0.013752047 41:-0.058391567 42:0.046609862 43:0.0094789208 44:-0.082849828 45:-0.046848253 46:-0.079264892 47:-0.03362205 48:0.067589807 49:-0.059351261 50:0.15686811 51:0.084326101 52:0.012393614 53:-0.080863315 54:-0.01435614 55:0.015376555 56:-0.055419121 57:0.001793487 58:0.043888944 59:0.066437494 60:0.067584286 61:-0.032652341 62:-0.035145149 63:-0.053902773 64:-0.044712971 65:-0.029076278 66:-0.015486104 67:0.0013069894 68:0.056107832 69:-0.037508875 70:-0.06796534 71:0.023010274 72:0.021035183 73:-0.079241029 74:-0.046060683 75:0.066984931 76:0.054210073 77:-0.065407589 78:0.090621371 79:-0.039232196 80:0.059785918 81:-0.032182364 82:-0.019977129 83:0.1727938 84:0.030184999 85:0.14749706 86:-0.082438415 87:-0.050565016 88:-0.077769732 89:0.10260102 90:0.007619616 91:-0.16179202 92:-0.012383217 93:-0.048144102 94:0.061932306 95:-0.17089134 96:-0.0027849717 97:-0.046144786 98:0.047692061 99:-0.04764011 100:-0.18025358 101:-0.029550735 102:0.085319639 103:-0.10909743 104:-0.071963662 105:0.16023471 106:0.01843369 107:-0.15550374 108:-0.035222148 109:-0.039063212 110:0.043309749 111:-0.0018721425 112:0.039695292 113:0.13828246 114:0.17674638 115:-0.059014742 116:0.018218956 117:0.038056635 118:0.035453515 119:-0.052798474 120:-0.023356899 121:-0.057390369 122:0.091581792 123:0.095199664 124:-0.13219201 125:-0.067938191 126:-0.089267935 127:0.11765146 128:0.11150198 
0.2164533383373753 1:0.066401571 2:0.10299085 3:0.0021559036 4:-0.032351408 5:-0.17105465 6:0.038962017 7:0.080601688 8:0.081596564 9:-0.02345355 10:0.13583577 11:-0.016557749 12:0.039368886 13:-0.16485175 14:0.047844537 15:0.010934071 16:-0.15360563 17:-0.038477943 18:2.2132602e-05 19:0.022434127 20:-0.044540872 21:0.046130532 22:0.10094672 23:0.10861225 24:-0.075025891 25:-0.082242054 26:0.14189148 27:-0.076151155 28:-0.11757796 29:-0.023787108 30:0.15429094 31:0.073472589 32:0.072825433 33:0.032624543 34:0.10330512 35:0.076410845 36:0.12527388 37:0.09564443 38:0.035238974 39:-0.055793686 40:-0.093764425 41:0.050306782 42:0.0039333481 43:-0.0031065422 44:0.006344823 45:-0.081750137 46:-0.16560981 47:-0.12081474 48:0.12133153 49:-0.013009435 50:-0.044475814 51:0.13078385 52:-0.041039876 53:-0.11149306 54:-0.11121131 55:-0.010077738 56:-0.00017067286 57:0.022444411 58:0.052375738 59:-0.12574106 60:0.078096452 61:-0.0036333911 62:-0.038611401 63:0.082599164 64:-0.12627737 65:-0.043649438 66:0.027929312 67:-0.18293083 68:0.059015314 69:0.017520971 70:0.0068063252 71:-0.17572758 72:0.10453459 73:-0.093003309 74:0.072796313 75:0.032980517 76:0.037260805 77:-0.0092448683 78:0.0054580016 79:0.047813692 80:0.050149671 81:-0.064729858 82:0.11485741 83:-0.041414826 84:-0.11260498 85:0.050451421 86:0.047239672 87:-0.0081119347 88:-0.12117146 89:0.053100091 90:-0.18036412 91:0.015890132 92:0.044039533 93:-0.15851853 94:0.048227356 95:-0.1623058 96:-0.086735343 97:-0.16278937 98:-0.037821688 99:-0.03812135 100:-0.065793981 101:-0.002465218 102:0.077503583 103:-0.19293893 104:-0.04487503 105:0.1686391 106:0.016146433 107:-0.0059647541 108:-0.047809138 109:0.026825648 110:-0.027942436 111:0.16383885 112:-0.036095732 113:0.10109577 114:-0.035597823 115:-0.045376842 116:-0.01328776 117:0.1081849 118:-0.052481299 119:-0.0032919437 120:0.02073967 121:0.060420508 122:0.11515266 123:0.074781753 124:-0.087112659 125:0.10057343 126:-0.14641998 127:0.18666949 128:0.12566669 
1 1:0.037385646 2:0.085084643 3:-0.035030197 4:-0.18524695 5:-0.13429189 6:-0.03138594 7:0.038072965 8:0.11530858 9:-0.0081809735 10:0.16984043 11:-0.12578771 12:0.17507421 13:-0.00055521149 14:0.017788463 15:-0.091410343 16:-0.10846035 17:-0.059912165 18:-0.010029869 19:-0.10226444 20:-0.093106959 21:0.17034043 22:0.10682172 23:0.064325539 24:-0.038444927 25:-0.032598699 26:0.08542698 27:-0.097305263 28:-0.088478103 29:0.061925566 30:0.13305259 31:0.041150687 32:0.064853146 33:-0.073834688 34:0.21243059 35:0.017249175 36:0.088275574 37:0.05294824 38:0.082958853 39:-0.18360704 40:-0.020427988 41:-0.016787512 42:-0.014568217 43:0.093516056 44:-0.0022669529 45:0.01678422 46:-0.15602865 47:-0.048898948 48:0.11295291 49:-0.036223929 50:0.10357108 51:0.092012088 52:-0.03189682 53:-0.084897632 54:-0.016317535 55:0.036582906 56:-0.12215956 57:-0.03173486 58:0.053424842 59:0.0067900359 60:0.086026989 61:0.072260338 62:-0.090252499 63:-0.046707982 64:-0.099294044 65:0.062292771 66:0.014699515 67:-0.051562888 68:0.079917028 69:-0.060294738 70:-0.075272052 71:0.02142628 72:0.035687128 73:-0.058087158 74:-0.011911348 75:-0.027565996 76:0.0083466899 77:-0.13341671 78:-0.041903612 79:-0.058310036 80:0.075822713 81:-0.034961173 82:0.0038383971 83:0.13860347 84:0.048433077 85:0.17507126 86:-0.059157678 87:-0.048365167 88:-0.088011203 89:0.1893413 90:0.048692342 91:-0.11711306 92:-0.020097826 93:-0.020754223 94:0.039981732 95:-0.13627329 96:0.056297365 97:-0.019286485 98:0.090306587 99:-0.0068659436 100:-0.13008364 101:-0.053495433 102:-0.0046078134 103:-0.23038581 104:-0.045589212 105:0.049623652 106:0.021110868 107:-0.088749265 108:-0.076067732 109:-0.0088473136 110:0.041680051 111:0.023920595 112:-0.018351118 113:0.15148916 114:0.14689305 115:-0.0089758266 116:0.052969777 117:0.04744117 118:0.10421506 119:-0.058435813 120:-0.0075346607 121:-0.0989175 122:0.096401601 123:0.048038888 124:-0.24271811 125:0.020593446 126:-0.081157521 127:0.1011454 128:0.077916517 
1 1:-0.040608688 2:-0.051707207 3:-0.060901179 4:-0.073544612 5:-0.070336704 6:-0.0018439823 7:0.10331308 8:0.10347602 9:0.041438407 10:0.21268269 11:-0.023712323 12:-0.063506484 13:-0.031800272 14:-0.011577914 15:-0.13348557 16:0.036149776 17:0.0099601289 18:0.018714269 19:0.064396916 20:-0.13741118 21:0.18806317 22:0.0073986916 23:-0.031351709 24:-0.095973317 25:0.013937467 26:0.063241203 27:0.025288157 28:0.053416305 29:-0.01528856 30:0.068671878 31:0.1017471 32:0.040079322 33:-0.075159237 34:-0.055669413 35:0.0425752 36:0.11304019 37:0.084337257 38:0.065749544 39:-0.0092443882 40:-0.0500318 41:0.035308781 42:-0.050059259 43:-0.010797562 44:-0.007761471 45:0.10919715 46:-0.090268079 47:-0.0019325217 48:0.19032747 49:-0.073411791 50:0.0042478289 51:0.13245309 52:-0.12182696 53:-0.20565732 54:-0.093533662 55:0.025253558 56:-0.25864176 57:-0.017498758 58:0.057775157 59:-0.029381185 60:0.036299485 61:0.13280115 62:0.069956725 63:0.16043756 64:-0.1873031 65:0.17042032 66:-0.10207855 67:-0.035628524 68:-0.10073532 69:-0.052726981 70:0.046899932 71:0.15358707 72:0.20333714 73:-0.044252611 74:0.025551129 75:0.065342014 76:-0.029731691 77:0.010032897 78:0.073484993 79:0.11281942 80:0.086655913 81:-0.0086616043 82:0.10684857 83:0.044964547 84:0.061408954 85:0.080586286 86:-0.099768381 87:0.012929438 88:-0.013975368 89:0.072498978 90:-0.016770267 91:0.028156873 92:0.029565498 93:0.058954084 94:0.11982543 95:-0.070089138 96:0.0027811833 97:-0.018299069 98:0.041729051 99:-0.12354906 100:-0.081039943 101:0.0085479958 102:-0.028715682 103:-0.088288405 104:0.16268021 105:0.1788373 106:-0.046287599 107:0.08133891 108:-0.13179481 109:0.11118347 110:-0.079818376 111:0.13361834 112:-0.073447109 113:-0.1058746 114:0.037516805 115:0.0083981662 116:-0.020254129 117:-0.024900677 118:0.074964983 119:0.027003149 120:-0.069143271 121:-0.12954317 122:0.078428193 123:0.012628163 124:-0.014875216 125:-0.005978408 126:-0.049167789 127:0.02869686 128:0.15044961 
1 1:0 2:0 3:0 4:0 5:0 6:0 7:0 8:0 9:0 10:0 11:0 12:0 13:0 14:0 15:0 16:0 17:0 18:0 19:0 20:0 21:0 22:0 23:0 24:0 25:0 26:0 27:0 28:0 29:0 30:0 31:0 32:0 33:0 34:0 35:0 36:0 37:0 38:0 39:0 40:0 41:0 42:0 43:0 44:0 45:0 46:0 47:0 48:0 49:0 50:0 51:0 52:0 53:0 54:0 55:0 56:0 57:0 58:0 59:0 60:0 61:0 62:0 63:0 64:0 65:0 66:0 67:0 68:0 69:0 70:0 71:0 72:0 73:0 74:0 75:0 76:0 77:0 78:0 79:0 80:0 81:0 82:0 83:0 84:0 85:0 86:0 87:0 88:0 89:0 90:0 91:0 92:0 93:0 94:0 95:0 96:0 97:0 98:0 99:0 100:0 101:0 102:0 103:0 104:0 105:0 106:0 107:0 108:0 109:0 110:0 111:0 112:0 113:0 114:0 115:0 116:0 117:0 118:0 119:0 120:0 121:0 122:0 123:0 124:0 125:0 126:0 127:0 128:0 
1 1:-0.022399942 2:-0.051539443 3:0.019659784 4:-0.064366028 5:-0.070898548 6:0.13137064 7:0.024452564 8:0.11655931 9:0.028554056 10:0.11264105 11:0.037861496 12:0.037584741 13:-0.11963327 14:0.12779202 15:-0.015260476 16:-0.14134599 17:0.10035018 18:-0.052673169 19:-0.10557993 20:0.035190733 21:0.12154999 22:0.057912689 23:-0.034960984 24:-0.16427424 25:-0.039924182 26:0.052683613 27:-0.064360564 28:-0.14999703 29:0.040225066 30:0.06034796 31:-0.011426219 32:0.068210382 33:-0.01574632 34:0.083307925 35:0.16578867 36:0.031567782 37:0.052935786 38:0.054972618 39:-0.096832835 40:-0.089929422 41:0.11616569 42:0.061821419 43:-0.051271252 44:-0.062268356 45:0.019004606 46:-0.033156997 47:-0.082242022 48:0.020553065 49:0.0672692 50:-0.051635269 51:0.076275757 52:0.043963599 53:-0.073465245 54:-0.14812356 55:0.070912112 56:-0.011406632 57:-0.10796522 58:-0.0016344097 59:-0.042015699 60:0.035143017 61:-0.00032035686 62:-0.056567221 63:0.003791666 64:-0.19445538 65:0.12017369 66:-0.0010498692 67:-0.20655859 68:-0.0072731507 69:0.055463446 70:0.088687426 71:-0.055303517 72:0.1988005 73:-0.11558189 74:-0.025030375 75:0.042658106 76:-0.079606143 77:-0.067349066 78:-0.085429011 79:0.14131944 80:0.072862896 81:-0.11927963 82:-0.044766909 83:-0.024338413 84:-0.075305747 85:0.029632202 86:-0.00075158353 87:-0.12286649 88:-0.18106581 89:-0.074888109 90:-0.14021738 91:0.026483182 92:0.065863701 93:-0.16128927 94:0.040564882 95:-0.071879903 96:-0.06769894 97:-0.15777674 98:0.096643306 99:-0.16819502 100:-0.085869376 101:-0.0091065125 102:-0.020495107 103:-0.11064333 104:-0.052490274 105:0.21883894 106:0.022114788 107:-0.072637345 108:-0.10593521 109:-0.020828037 110:-0.04243597 111:0.11274202 112:-0.084632138 113:0.064375832 114:-0.054690665 115:-0.079059899 116:0.11015896 117:-0.038340328 118:0.015691566 119:0.03036124 120:0.056939957 121:-0.038110232 122:0.090850622 123:0.13812326 124:-0.11179787 125:0.029548271 126:-0.1287298 127:0.098070005 128:0.020579522 
1 1:0.17175857 2:0.093217535 3:-0.056560825 4:-0.054628863 5:-0.15817125 6:-0.028118405 7:0.086985566 8:0.2055769 9:0.13438165 10:0.064375505 11:0.11393423 12:-0.0079838038 13:-0.091691678 14:0.059349388 15:-0.041614117 16:0.034126585 17:0.028783683 18:-0.071194254 19:0.025849675 20:-0.11018406 21:0.11197994 22:0.16195572 23:-0.013103447 24:-0.040000051 25:0.0032441741 26:0.12702147 27:-0.14709363 28:-0.17170902 29:-0.0046616745 30:0.19311954 31:0.069410872 32:0.13342925 33:-0.11709838 34:0.025471732 35:0.033416796 36:0.12319038 37:0.14754933 38:-0.033252968 39:-0.052056161 40:-0.080584675 41:0.034682276 42:0.096224897 43:-0.044998005 44:0.092230882 45:0.081656992 46:-0.13019109 47:-0.053680037 48:0.17011478 49:0.0059311846 50:-0.017106482 51:0.11113424 52:-0.048918644 53:-0.12393233 54:-0.13248948 55:0.057827549 56:-0.099029903 57:0.1590088 58:-0.03317231 59:-0.078320314 60:0.12350657 61:-0.0091924082 62:0.023863565 63:0.077415729 64:-0.07761404 65:0.048644826 66:0.1176911 67:-0.13309484 68:-0.15402016 69:0.027926546 70:-0.036605875 71:0.0019528835 72:0.099281149 73:-0.21715558 74:0.044433012 75:0.072252283 76:-0.010517963 77:0.078751468 78:-0.014342182 79:0.010056003 80:0.06852195 81:-0.020467233 82:0.095513841 83:-0.061756619 84:0.048531894 85:0.063457705 86:-0.0075152438 87:-0.047457428 88:-0.0049722811 89:-0.14863049 90:-0.068972743 91:0.017553607 92:-0.0066397028 93:-0.11805068 94:0.019498926 95:-0.15256886 96:-0.030796982 97:-0.053776845 98:-0.00015837939 99:-0.075172272 100:-0.11829175 101:-0.090163433 102:-0.034002165 103:-0.12017503 104:0.019364689 105:0.17338278 106:-0.021929428 107:0.091195952 108:-0.075903988 109:0.0077755492 110:-0.04184927 111:0.041330502 112:-0.011557681 113:-0.012884569 114:-0.013015704 115:0.050698446 116:-0.0031672576 117:0.0790831 118:0.018998271 119:0.064811799 120:-0.046610931 121:-0.0070466078 122:0.083801695 123:0.12167296 124:-0.11512063 125:0.049445082 126:0.0097084336 127:0.085112913 128:0.062274405 
1 1:0.033864915 2:0.14544763 3:-0.048035009 4:-0.031991088 5:-0.13524641 6:0.043636432 7:0.13877638 8:0.1480196 9:0.085664942 10:0.047558168 11:0.096903852 12:-0.075213022 13:0.049972847 14:0.12781281 15:0.026825005 16:0.014371432 17:0.0080991663 18:-0.046160483 19:0.04944551 20:-0.091042444 21:0.1983272 22:0.089704902 23:-0.083925608 24:-0.051981975 25:0.029715509 26:0.047202767 27:-0.10545806 28:-0.062612495 29:-0.095943459 30:0.15408909 31:0.10399628 32:0.19368474 33:0.017811207 34:-0.016350015 35:0.10435163 36:0.10076863 37:0.098103891 38:0.083847598 39:0.028061197 40:-0.051346897 41:-0.01843339 42:0.10670017 43:-0.049051539 44:0.069373786 45:0.086046522 46:-0.1846119 47:0.0047694346 48:0.01080075 49:0.055295853 50:-0.019142754 51:0.10900164 52:-0.072351098 53:-0.13231551 54:-0.10430189 55:0.065800598 56:-0.19215083 57:0.14633767 58:-0.010290666 59:-0.035048042 60:0.23557728 61:0.0056641726 62:-0.10533554 63:0.057886359 64:-0.11801193 65:0.12844965 66:0.030387012 67:-0.099577153 68:-0.16412321 69:0.08823437 70:0.081204767 71:-0.019394631 72:-0.025014571 73:-0.19531247 74:0.045875161 75:0.051453573 76:-0.067902319 77:0.010130982 78:0.036160556 79:0.10988016 80:0.045598019 81:0.010000066 82:0.084620989 83:-0.012784116 84:0.021098638 85:0.12597392 86:-0.060977585 87:-0.02256766 88:0.028567788 89:-0.13210709 90:0.060931611 91:-0.025758753 92:0.015121313 93:-0.070865052 94:0.05642943 95:-0.061407045 96:-0.064878575 97:0.0057599099 98:-0.018628615 99:-0.09313072 100:-0.16622858 101:0.041223628 102:-0.055270112 103:-0.10581065 104:-0.035352774 105:0.14827678 106:0.0013903096 107:0.029453007 108:-0.08440088 109:-0.075833122 110:-0.016359537 111:0.09620411 112:0.043483993 113:-0.080885861 114:-0.058535325 115:0.031888812 116:0.03321893 117:0.0094936627 118:0.062101302 119:0.0022620978 120:0.033262322 121:-0.0019098146 122:0.11164651 123:0.15155794 124:-0.13471974 125:0.021587574 126:-0.11079184 127:0.0921828 128:0.085133648 
1 1:0.037514037 2:0.12075735 3:-0.03903392 4:0.00048639172 5:-0.11560624 6:0.081771447 7:0.10752044 8:0.16054048 9:0.091400259 10:0.094708799 11:0.016832598 12:0.0088644532 13:-0.17582129 14:0.16257072 15:-0.012694128 16:-0.078322454 17:0.019221165 18:-0.023559019 19:0.0084786601 20:-0.032181394 21:0.040874151 22:0.18021867 23:0.12074469 24:-0.13061472 25:-0.11184524 26:0.10394659 27:-0.037391633 28:-0.16210906 29:0.0073836327 30:0.13436804 31:0.091308389 32:0.12641651 33:0.007309119 34:0.11671381 35:0.16409997 36:0.13087284 37:0.10259056 38:-0.018098024 39:-0.12257217 40:-0.079052426 41:-0.026212801 42:0.057009193 43:0.04412741 44:0.073012066 45:-0.0093204033 46:-0.12289252 47:-0.15294649 48:0.064020053 49:-0.0031536151 50:-0.003797331 51:0.039348414 52:-0.048187949 53:-0.038180513 54:-0.12386603 55:0.018877647 56:-0.082936668 57:-0.039352517 58:0.071560585 59:-0.089501755 60:0.064971645 61:0.020527426 62:0.025740954 63:0.055836831 64:-0.15182053 65:0.022088031 66:0.039473239 67:-0.17949505 68:0.044024236 69:-0.054474599 70:0.094712361 71:-0.16281286 72:0.10991193 73:-0.10056415 74:0.08018819 75:0.033316403 76:0.027065577 77:-0.049893171 78:0.0054747945 79:0.090246655 80:0.068444431 81:-0.10889184 82:0.064507286 83:-0.0038642524 84:-0.060156219 85:0.09957909 86:-0.03574941 87:0.0036235228 88:-0.10010051 89:-0.014888567 90:-0.089955779 91:0.038670042 92:-0.056025415 93:-0.14738883 94:-0.034826911 95:-0.11379929 96:-0.029831908 97:-0.1236231 98:0.030774377 99:-0.035579575 100:-0.1486795 101:-0.069476241 102:-0.041164655 103:-0.14787049 104:-0.049641241 105:0.17500265 106:0.08037039 107:0.02403442 108:-0.11184813 109:0.049482436 110:-0.027909613 111:0.068165512 112:-0.1088086 113:0.024643366 114:0.0025488273 115:0.0027396529 116:-0.0036719878 117:0.019094018 118:-0.059481437 119:0.019965675 120:0.055942206 121:0.064406891 122:0.11785156 123:0.13171271 124:-0.14514548 125:0.086633113 126:-0.15283501 127:0.12221137 128:0.054561265 
1 1:-0.027585098 2:0.047724648 3:0.035820826 4:-0.1392006 5:0.033687888 6:0.073215533 7:0.056947376 8:0.082942728 9:-0.053290816 10:0.064795063 11:-0.024362029 12:0.15134123 13:-0.18868943 14:0.089948609 15:0.056253857 16:-0.027908544 17:-0.083009577 18:-0.1113345 19:-0.014212325 20:-0.062540465 21:0.057695121 22:0.24654147 23:-0.0452742 24:-0.10163974 25:-0.091499758 26:0.082769397 27:0.025142449 28:-0.073988679 29:0.020851227 30:0.19485547 31:0.094997265 32:0.075642476 33:-0.13681426 34:0.16210775 35:0.078605658 36:0.088941556 37:0.060270637 38:-0.027409844 39:-0.098611847 40:-0.16612608 41:0.04189191 42:0.13985998 43:-0.088827024 44:-0.072817769 45:0.059020321 46:-0.0077830498 47:-0.12389183 48:0.077081311 49:0.10442775 50:0.055056385 51:0.033466458 52:-0.0011929234 53:-0.18290015 54:-0.059429232 55:0.013956003 56:0.003101667 57:0.097936611 58:0.034114184 59:-0.038036694 60:-0.021873051 61:-0.082700077 62:-0.050650935 63:-0.067995604 64:-0.07591633 65:-0.042917391 66:-0.047799903 67:-0.059554453 68:-0.099553409 69:0.15217808 70:-0.033770611 71:-0.024680702 72:0.10958163 73:-0.075074073 74:0.031256028 75:0.070319967 76:-0.040238395 77:-0.16169324 78:-0.021730293 79:0.031360428 80:0.13327407 81:-0.096683624 82:-0.067136489 83:-0.058407125 84:-0.054763013 85:0.0088184888 86:-0.077696447 87:-0.17457607 88:-0.17696115 89:-0.062092324 90:-0.0079215871 91:-0.10437382 92:-0.0035696856 93:-0.12107241 94:-0.013808546 95:0.032175804 96:-0.01292177 97:-0.052963208 98:-0.01165235 99:0.0076398159 100:-0.064682325 101:0.051555541 102:0.036739208 103:-0.060221925 104:-0.02215772 105:0.17763611 106:0.12949127 107:-0.14341893 108:-0.082382343 109:-0.050044026 110:-0.12313046 111:0.074918281 112:0.067305557 113:0.12668263 114:0.13954194 115:-0.094405626 116:-0.098872496 117:0.06961865 118:0.085741969 119:0.028336705 120:0.079810151 121:-0.07598312 122:-0.066593233 123:-0.0063372799 124:-0.076737579 125:0.041573695 126:-0.13667159 127:0.027098045 128:0.023320063 
1 1:0.083020152 2:-0.0015284363 3:-0.0081745929 4:0.068707925 5:-0.13123133 6:-0.0039920065 7:0.00066235988 8:0.046691614 9:0.075383457 10:0.11265489 11:0.037047345 12:-0.10593393 13:-0.076353094 14:0.037774259 15:0.20530046 16:-0.050436939 17:0.18605705 18:-0.03925289 19:-0.041628737 20:0.02279389 21:0.23653651 22:0.11731566 23:-0.07729735 24:-0.11593467 25:-0.096069342 26:-0.093668763 27:-0.13094268 28:-0.07686249 29:0.035161429 30:0.080046317 31:0.082527663 32:0.11467809 33:0.015606695 34:0.068495822 35:-0.097551281 36:0.11955816 37:-0.0094099722 38:0.00028803959 39:-0.064480165 40:-0.18458249 41:-0.10020059 42:0.079068101 43:0.039203451 44:-0.027209557 45:0.048127729 46:-0.20714998 47:-0.0063764194 48:0.096639907 49:-0.024585965 50:0.080734418 51:0.0043808021 52:0.016260003 53:-0.10416684 54:-0.073712031 55:0.074647731 56:-0.063783521 57:0.049430352 58:0.11214802 59:-0.17207346 60:0.029685229 61:0.18347762 62:0.039532403 63:0.01345734 64:-0.12031442 65:0.078414565 66:-0.0059057671 67:-0.11173383 68:0.032997066 69:0.096243754 70:0.068870191 71:-0.026329532 72:-0.010814193 73:-0.10281557 74:0.081880913 75:-0.0029198949 76:-0.029518088 77:0.052140935 78:0.025217142 79:-0.092305486 80:0.10183864 81:-0.062905756 82:0.13955336 83:0.080979744 84:0.01102999 85:0.13305135 86:-0.044940454 87:0.014250351 88:-0.037426244 89:0.0055731505 90:-0.18535573 91:-0.07411404 92:-0.023805489 93:-0.058427498 94:-0.044992378 95:0.021404501 96:-0.1017574 97:-0.088160943 98:0.05878034 99:0.11390368 100:-0.10791082 101:-0.033151279 102:0.045988928 103:-0.089701467 104:0.041044781 105:0.17444544 106:0.068247479 107:0.14063479 108:-0.068623803 109:0.090306485 110:-0.10922122 111:0.12860421 112:-0.077963284 113:-0.0047378826 114:0.077253376 115:-0.037461609 116:-0.067507519 117:0.0028868059 118:-0.093455153 119:0.025249183 120:-0.045187101 121:0.00061999227 122:0.13412416 123:0.094912945 124:-0.15271439 125:-0.031022331 126:-0.084643352 127:0.055633846 128:-0.041496504 
1 1:0.037664918 2:0.10331743 3:-0.063010463 4:-0.020379825 5:-0.081426642 6:0.12804794 7:0.012433827 8:0.094414169 9:-0.010621397 10:0.12471927 11:-0.056485194 12:0.069044685 13:-0.2104105 14:0.08986662 15:0.04246704 16:-0.12214 17:-0.015572292 18:-0.021765618 19:0.034406352 20:-0.018971487 21:-0.0061071649 22:0.12614443 23:0.057833505 24:-0.14300199 25:-0.077892646 26:0.1785856 27:-0.062807273 28:-0.12887325 29:-0.0054774416 30:0.1731971 31:0.065969328 32:-0.0016989858 33:-0.040175272 34:0.17499991 35:0.032702298 36:0.13689407 37:0.044926149 38:-0.012853 39:-0.036468452 40:-0.089112266 41:-0.0016459476 42:0.031071806 43:-0.022288842 44:-0.0070186082 45:-0.046211099 46:-0.092701439 47:-0.084854109 48:0.044162276 49:-0.011604069 50:-0.0083535015 51:0.12411048 52:-0.039219098 53:-0.14403666 54:-0.13445861 55:-0.0024658479 56:0.054713173 57:-0.020258678 58:0.0083289362 59:-0.15224919 60:0.037701982 61:-0.057137322 62:-0.073463888 63:0.0029760582 64:-0.1318754 65:-0.08605193 66:0.040220351 67:-0.12486612 68:0.0060711548 69:0.077419568 70:0.014038245 71:-0.16418663 72:0.12279785 73:-0.13072452 74:0.0054125272 75:0.080895137 76:0.045063293 77:-0.03339023 78:0.0047045489 79:-0.013539444 80:0.066986071 81:-0.1142974 82:0.076313955 83:-0.015550311 84:-0.15782857 85:0.022056678 86:0.05023215 87:-0.082905009 88:-0.10360415 89:-0.064607955 90:-0.12709261 91:0.061685305 92:0.035577808 93:-0.17185107 94:0.015204988 95:-0.16136087 96:-0.11103929 97:-0.16564788 98:-0.0051177005 99:0.0025407919 100:-0.17808887 101:0.010867208 102:0.047882151 103:-0.13925372 104:-0.031210177 105:0.23598515 106:0.030241444 107:-0.048042125 108:-0.02257143 109:0.04765199 110:-0.016787756 111:0.12774609 112:-0.045271934 113:0.073707132 114:0.0016898436 115:-0.10908267 116:-0.014532849 117:0.072427727 118:-0.066920646 119:0.060106871 120:-0.0063373644 121:0.052998794 122:0.090161934 123:0.055068977 124:-0.12756674 125:0.05731991 126:-0.062990808 127:0.15304792 128:0.11003044 
1 1:0.05952847 2:0.099026537 3:0.023796461 4:0.063717885 5:0.0023131311 6:0.13117371 7:0.12828878 8:0.098301762 9:0.040069191 10:0.080685651 11:-0.017113228 12:-0.080865215 13:-0.12508561 14:0.14194069 15:-0.025384086 16:-0.12205726 17:0.026107961 18:0.068678455 19:-0.0066778036 20:0.037284795 21:0.038592714 22:0.23342331 23:0.10777458 24:-0.13511256 25:-0.10638137 26:0.052119245 27:-0.13007452 28:-0.038071818 29:0.008361761 30:0.13880239 31:0.18330152 32:0.088285091 33:0.086750998 34:0.070479508 35:0.12519841 36:0.14744552 37:0.0052757346 38:-0.070055511 39:-0.062208871 40:-0.089965833 41:-0.10623017 42:0.0025133465 43:-0.014794746 44:0.079123248 45:-0.14610518 46:-0.1675681 47:-0.10157182 48:0.017144312 49:0.048367102 50:-0.04474502 51:0.15520908 52:-0.041258332 53:-0.091560438 54:-0.012044449 55:0.10792605 56:-0.093736413 57:-0.058667313 58:-0.030090404 59:-0.12199259 60:-0.026867302 61:-0.043185924 62:0.07918145 63:0.082914164 64:-0.13632245 65:0.05689435 66:0.029461635 67:-0.21449978 68:0.038358674 69:-0.1199511 70:0.05142317 71:-0.14752913 72:0.092644689 73:-0.13877676 74:0.073568068 75:0.037161028 76:-0.015518791 77:0.040276214 78:0.12804345 79:0.08820222 80:0.16391567 81:-0.080112816 82:0.09589553 83:-0.008592115 84:-0.025696091 85:0.022705234 86:-0.0379656 87:0.011918409 88:-0.0094290938 89:0.052557077 90:-0.024229565 91:0.0068523428 92:-0.072865285 93:-0.037969096 94:0.017022154 95:-0.13066939 96:-0.061047589 97:-0.061637912 98:-0.085523897 99:-0.10320665 100:-0.097826116 101:0.011233061 102:0.024183409 103:-0.17463708 104:-0.04247647 105:0.18768525 106:-0.0023651262 107:-0.059700406 108:-0.069887541 109:-0.028001366 110:0.018414885 111:0.09382256 112:-0.0071036858 113:-0.16392801 114:-0.017734108 115:-0.014495085 116:-0.013989826 117:-0.036356426 118:0.037735756 119:-0.032073437 120:-0.00044200099 121:-0.014053885 122:0.071977984 123:0.11400346 124:-0.039531063 125:0.10622436 126:-0.083816101 127:0.07430155 128:0.092200383 
1 1:-0.027789228 2:0.15284301 3:-0.044008883 4:-0.083085556 5:-0.046095814 6:0.06709609 7:0.10171629 8:0.19060013 9:0.0055890026 10:0.034183366 11:0.027945524 12:0.017480698 13:-0.15067132 14:0.11024839 15:-0.0086442107 16:-0.14930105 17:0.067209841 18:-0.015884667 19:-0.0084200803 20:-0.021178457 21:0.088789021 22:0.15682165 23:0.12443269 24:-0.17370265 25:-0.0073200608 26:0.092570784 27:-0.096970334 28:-0.16188939 29:0.019761933 30:0.027511649 31:0.044386516 32:0.069512857 33:-0.10831731 34:0.16578419 35:0.16706352 36:0.087961803 37:0.10125801 38:0.042199542 39:-0.18577055 40:-0.085693441 41:0.018689257 42:0.019056257 43:-0.0044497748 44:-0.01745874 45:-0.011476496 46:-0.18009516 47:-0.080695975 48:-0.018979237 49:0.038446407 50:-0.016509257 51:0.081133177 52:-0.028117012 53:-0.17474295 54:-0.082426801 55:0.0056209162 56:0.001767541 57:0.029215321 58:0.044467092 59:-0.0072279516 60:0.080739711 61:-0.045818315 62:-0.06441507 63:-0.018409773 64:-0.15096294 65:-0.018508164 66:-0.038375806 67:-0.16577619 68:0.032804187 69:-0.10010315 70:0.00140481 71:-0.15701449 72:0.11410091 73:-0.12273309 74:-0.043219971 75:0.094200623 76:-0.039252968 77:0.022694548 78:0.023884163 79:0.085599668 80:0.038008183 81:-0.073522301 82:0.090873339 83:0.020057613 84:-0.087904905 85:0.13563586 86:-0.0017935413 87:-0.071781631 88:-0.039082432 89:0.07981022 90:-0.019500793 91:0.0027472264 92:-0.0020562739 93:-0.05429938 94:0.064578575 95:-0.14649 96:-0.019507664 97:-0.070591731 98:0.043981912 99:-0.12878133 100:-0.13095963 101:0.01442543 102:-0.043014472 103:-0.13262996 104:-0.08437807 105:0.12025683 106:0.04482451 107:-0.050666944 108:-0.041262872 109:-0.052303747 110:0.079790165 111:0.17293745 112:-0.095291603 113:0.0042834104 114:0.081386504 115:-0.033467072 116:-0.036880528 117:-0.025106948 118:-0.0021856959 119:-0.034261911 120:0.055119845 121:0.01057699 122:0.10210004 123:0.19872591 124:-0.19293554 125:0.023661516 126:-0.091798047 127:0.11641326 128:0.078984098 
1 1:-0.017899412 2:0.096492582 3:-0.059251687 4:-0.11380058 5:-0.030686669 6:-0.017551374 7:0.088485969 8:0.19585593 9:0.027427478 10:0.092302112 11:-0.040319949 12:0.020623085 13:-0.075493736 14:0.12413845 15:-0.013157636 16:-0.17843477 17:0.019742843 18:-0.031074546 19:-0.072877494 20:-0.069343649 21:0.074209166 22:0.14592826 23:0.084104059 24:-0.1606097 25:-0.020609739 26:0.063386807 27:-0.083084393 28:-0.14336066 29:0.030605465 30:0.089495243 31:0.021786557 32:0.08993619 33:-0.13380567 34:0.23985596 35:0.12796989 36:0.025670631 37:0.084009435 38:0.12699257 39:-0.18322899 40:-0.073386692 41:0.033436519 42:-0.032589806 43:-0.008323261 44:-0.02774411 45:0.026183566 46:-0.14331882 47:-0.031084096 48:0.013415613 49:-0.043081549 50:0.073173616 51:0.056314543 52:0.010273214 53:-0.17614481 54:0.0053306372 55:-0.022470839 56:-0.039567103 57:0.022526569 58:0.079779873 59:0.007057687 60:0.059449538 61:0.0074274037 62:-0.093015559 63:-0.014949594 64:-0.1478476 65:-0.0072830659 66:-0.040289932 67:-0.077163799 68:0.031464941 69:-0.10571612 70:-0.061920689 71:-0.027034758 72:0.087558858 73:-0.09518799 74:-0.020121448 75:0.017806209 76:0.038433469 77:-0.059839535 78:-0.012943129 79:0.049613298 80:0.050001186 81:-0.066917908 82:0.040986724 83:0.15051464 84:-0.02220579 85:0.21069205 86:-0.089425954 87:-0.063320843 88:0.023644768 89:0.060104711 90:0.031324835 91:-0.15052369 92:-0.013756768 93:-0.01192448 94:0.081685462 95:-0.16679816 96:0.065629717 97:-0.016618933 98:0.076145656 99:-0.11036577 100:-0.14510902 101:-0.011540094 102:0.051655532 103:-0.11947249 104:-0.068125322 105:0.092503786 106:0.039499462 107:-0.068388148 108:-0.056317517 109:-0.051850476 110:0.08840215 111:0.14263003 112:-0.049927449 113:0.030434781 114:0.10926146 115:0.0015927364 116:-0.0090095067 117:-0.011436256 118:0.054837523 119:-0.053308618 120:0.040383136 121:-0.013656011 122:0.13058013 123:0.19356877 124:-0.21351061 125:0.024066454 126:-0.10525179 127:0.11833594 128:0.1145305 
1 1:0.15871543 2:0.092290775 3:-0.0011956987 4:-0.075243208 5:-0.19686104 6:-0.11853839 7:0.084455811 8:0.1557289 9:0.13580271 10:0.09212369 11:0.11033943 12:-0.011916215 13:-0.040140306 14:0.05198595 15:0.10660817 16:0.10188112 17:0.10960813 18:-0.018507436 19:-0.021448563 20:-0.068665854 21:0.21315326 22:0.085304181 23:-0.092462868 24:-0.010855344 25:0.0052979502 26:0.13295335 27:-0.12712428 28:-0.20099416 29:-0.011017396 30:0.22607347 31:0.065199124 32:0.11465123 33:-0.24771266 34:0.063386874 35:0.056124588 36:0.037628003 37:0.048943723 38:-0.034020767 39:0.033413534 40:-0.074511854 41:0.073305381 42:0.14445076 43:-0.078111733 44:0.074379665 45:0.073197567 46:-0.0081614208 47:0.019515452 48:0.20437026 49:-0.0043554849 50:0.020188189 51:0.090432942 52:-0.080807944 53:-0.052406403 54:-0.11147451 55:0.051828352 56:-0.12235895 57:0.12683238 58:-0.03896681 59:-0.025396442 60:0.070709239 61:-0.008953251 62:0.033325921 63:-0.019163746 64:-0.037001185 65:-0.010582297 66:0.10062964 67:-0.077534992 68:-0.0086478933 69:0.062084794 70:-0.059456807 71:-0.044405172 72:0.0762013 73:-0.13058884 74:0.011487014 75:0.0035696232 76:0.01744 77:-0.027104112 78:0.011043674 79:-0.067327658 80:0.01348064 81:-0.024752329 82:0.078834556 83:-0.0091426696 84:0.11620598 85:0.042343156 86:-0.013609894 87:-0.040810465 88:0.020337606 89:-0.10781341 90:-0.073409104 91:0.074373608 92:-0.02764119 93:-0.19021779 94:0.053689493 95:-0.086428428 96:-0.0917055 97:-0.048870323 98:0.031685743 99:-0.10150915 100:-0.087598243 101:-0.017441143 102:-0.01389484 103:-0.11917599 104:-0.04636086 105:0.13494299 106:0.095880356 107:0.1395781 108:-0.028324934 109:0.058665423 110:0.014523186 111:-0.05597202 112:-0.069965318 113:0.065300163 114:0.014327552 115:-0.032728068 116:0.027023177 117:0.062409084 118:-0.018227343 119:0.087095964 120:-0.12372467 121:-0.015622072 122:0.087383136 123:0.11765586 124:-0.11840013 125:0.06692877 126:0.051021413 127:0.043121252 128:0.12893926 
1 1:0.079305551 2:0.07319401 3:-0.083184834 4:-0.025552034 5:-0.063147362 6:-0.096981175 7:0.027857542 8:0.07650162 9:0.045962213 10:0.19642775 11:-0.043661793 12:-0.051573238 13:0.052655254 14:0.13933975 15:0.0084334059 16:-0.09574971 17:-0.056092538 18:-0.057608574 19:-0.011788287 20:-0.081828806 21:0.036824922 22:-0.033576388 23:0.039096246 24:-0.012462908 25:-0.04711157 26:0.06273498 27:0.048627456 28:-0.080181232 29:-0.018723398 30:0.14254352 31:-0.0024563749 32:0.052131683 33:-0.071448777 34:0.11036072 35:-0.028559489 36:0.15737832 37:-0.0056945087 38:0.037484887 39:0.011602449 40:-0.028472724 41:0.050776785 42:0.0053807489 43:-0.042287381 44:-0.032975853 45:0.10072104 46:-0.1129125 47:-0.10172487 48:0.24904857 49:0.055165235 50:0.10379831 51:0.14317145 52:-0.013755677 53:-0.15937014 54:-0.07155994 55:0.013284889 56:-0.15505317 57:-0.024203087 58:0.03253988 59:-0.10736584 60:0.059247305 61:0.017125152 62:0.089101151 63:0.048467509 64:-0.14825202 65:0.028247289 66:-0.046583213 67:-0.22973072 68:0.011730539 69:-0.012010793 70:0.1114599 71:0.12646026 72:0.11809632 73:-0.15048375 74:-0.013605387 75:-0.039349795 76:-0.090291847 77:0.057176332 78:-0.26340382 79:0.030048845 80:0.0059943108 81:-0.076409028 82:0.025289674 83:0.019884962 84:0.12751661 85:0.11887196 86:-0.0465383 87:-0.07451394 88:-0.013064252 89:-0.035898062 90:-0.028451097 91:0.018468991 92:-0.011637735 93:-0.063856681 94:-0.05754746 95:-0.15403893 96:0.011830577 97:-0.044872244 98:-0.039022434 99:-0.064383573 100:-0.035323303 101:0.085590845 102:-0.0029038321 103:-0.13958484 104:0.038220971 105:0.20207967 106:0.037871556 107:0.057459116 108:-0.028265973 109:0.075741514 110:-0.082164881 111:0.071985998 112:-0.037912217 113:0.12406603 114:0.03830251 115:-0.11541315 116:0.073052077 117:0.0091071109 118:0.030446571 119:-0.063201656 120:-0.14015343 121:-0.0097597718 122:0.11441607 123:0.024976932 124:-0.092084618 125:-0.052499816 126:-0.12619896 127:0.15307425 128:0.18173205 
1 1:0.13738549 2:-0.017324267 3:-0.0077777387 4:0.015251242 5:-0.1268149 6:0.012176264 7:0.076755629 8:0.20108289 9:0.016900344 10:0.01394502 11:0.11790338 12:-0.0488595 13:-0.13138938 14:0.11347807 15:-0.063815767 16:-0.088418872 17:0.013737201 18:-0.10824414 19:0.023988521 20:0.033139491 21:0.049630056 22:0.15298456 23:-0.0099523913 24:-0.10583264 25:0.007115738 26:0.19430986 27:-0.069356108 28:-0.11060897 29:-0.13467153 30:0.034864871 31:0.072291993 32:0.15705007 33:0.089203857 34:-0.047141812 35:0.14678591 36:0.092920103 37:0.13228324 38:-0.029587299 39:-0.026087123 40:0.0020562678 41:-0.023988117 42:0.097470896 43:-0.010598438 44:0.044318602 45:0.055376396 46:-0.16581413 47:-0.058020261 48:-0.010647432 49:-0.017686645 50:-0.05127454 51:0.13305479 52:-0.047362178 53:-0.20236473 54:-0.053565918 55:-0.099438899 56:-0.13624159 57:0.05313083 58:0.077172752 59:-0.037394468 60:0.17518348 61:0.048439562 62:0.03810158 63:0.097399564 64:-0.10581236 65:-0.016511429 66:0.12083391 67:-0.082266407 68:-0.24014554 69:-0.014278966 70:0.012628926 71:0.1019368 72:0.076753448 73:-0.097341073 74:0.097437959 75:0.061973977 76:0.033324156 77:0.086803649 78:0.031515649 79:0.10190963 80:0.015520235 81:0.093980688 82:0.065609716 83:0.023911639 84:-0.025690561 85:0.026372976 86:-0.020124915 87:-0.05287486 88:0.052399707 89:-0.070368457 90:-0.020310054 91:-0.034585567 92:0.10400145 93:-0.063958889 94:0.013010808 95:-0.11710848 96:-0.0016676128 97:-0.0094478026 98:-0.090434369 99:-0.18855284 100:-0.13468381 101:0.017715906 102:-0.00073258545 103:-0.12698486 104:0.036489646 105:0.070953506 106:0.014615517 107:0.035362456 108:-0.02443934 109:-0.0081157027 110:-0.12612162 111:0.20681507 112:0.074017259 113:-0.048116594 114:-0.019394941 115:0.042582258 116:-0.029952135 117:0.020566474 118:0.061690727 119:-0.010500805 120:0.078593666 121:0.050375615 122:0.1045613 123:0.15299293 124:-0.064783992 125:0.039759682 126:-0.016364367 127:0.17878594 128:0.031075129 
1 1:-0.031628398 2:0.088523918 3:-0.085222554 4:-0.081843864 5:-0.12907332 6:0.079347357 7:0.036198916 8:0.087308483 9:-0.010992324 10:0.12507227 11:-0.049453712 12:-0.058560769 13:-0.068629 14:0.21178228 15:0.05623115 16:-0.0078344905 17:-0.095515347 18:-0.071664209 19:-0.070532072 20:-0.055820341 21:0.14469483 22:-0.0069766543 23:-0.03435692 24:-0.039015506 25:0.013411607 26:0.13250753 27:0.076942008 28:0.0048659301 29:-0.10159403 30:-0.058145228 31:-0.050188738 32:-0.048499058 33:0.035793804 34:0.011078154 35:0.01041637 36:0.011807772 37:-0.04883971 38:-0.038632247 39:-0.0092258267 40:-0.01171744 41:0.08981499 42:0.11392831 43:-0.11345037 44:-0.040043332 45:0.085941772 46:-0.071348955 47:-0.010758831 48:0.152166 49:0.10615397 50:0.038517076 51:0.12234342 52:-0.0265347 53:0.049627866 54:0.049622388 55:-0.013619029 56:-0.11084471 57:-0.064005529 58:0.010865187 59:-0.15193987 60:-0.04532618 61:0.11104991 62:0.054666955 63:-0.026781986 64:-0.066930873 65:0.045391338 66:-0.056788644 67:-0.011727537 68:0.020006821 69:-0.012893208 70:-0.11910846 71:0.10146703 72:0.12556125 73:0.032117813 74:0.093971972 75:0.04006274 76:-0.09924269 77:0.022790892 78:0.12146818 79:-0.013663183 80:-0.1676434 81:-0.029883699 82:-0.0094954352 83:-0.07373432 84:0.044545198 85:0.10587866 86:-0.053383575 87:0.025406579 88:0.13448422 89:-0.059688442 90:-0.013162075 91:-0.10984514 92:0.034662152 93:-0.0025667096 94:-0.11958403 95:-0.11824757 96:0.10391959 97:0.055534224 98:-0.17732613 99:-0.204679 100:-0.063470449 101:0.34332041 102:0.10926707 103:0.013325019 104:0.077942502 105:0.051903565 106:0.20533293 107:-0.11938907 108:0.04050042 109:-0.011572361 110:-0.084951396 111:0.071292741 112:0.016337193 113:0.011076418 114:0.059202978 115:0.043792728 116:0.088552319 117:0.018796361 118:-0.011936432 119:0.12098992 120:0.088770251 121:0.019380802 122:0.1761601 123:0.096421054 124:-0.032286123 125:-0.044557786 126:-0.045654246 127:0.14782049 128:0.086284331 
1 1:-0.016307873 2:0.088986975 3:-0.12065261 4:-0.086775488 5:-0.06350856 6:0.012859183 7:0.042776764 8:0.047749679 9:0.0033255064 10:0.044974585 11:-0.014560818 12:-0.024796913 13:-0.13235694 14:0.24032459 15:0.060021938 16:-0.039070594 17:-0.13700989 18:-0.06895122 19:-0.054735073 20:-0.079687906 21:0.1694587 22:0.072857086 23:-0.076592749 24:0.059384939 25:0.029103513 26:0.14101221 27:0.016048235 28:-0.047204531 29:-0.078849089 30:-0.081002862 31:-0.076330061 32:-0.094240892 33:0.076704231 34:-0.027695347 35:-0.0038199998 36:0.039524823 37:-0.08243606 38:-0.091864697 39:0.035639922 40:0.056088723 41:0.13593289 42:0.079817028 43:-0.084248647 44:-0.019688352 45:0.010251921 46:0.014480216 47:-0.0089874101 48:0.16370521 49:0.062047903 50:0.0033501252 51:0.10070424 52:-0.0064108896 53:0.063565174 54:0.0065650206 55:-0.02249048 56:-0.12328391 57:-0.11013287 58:0.020156348 59:-0.1115638 60:-0.038780298 61:0.15546819 62:0.040276022 63:-0.015923996 64:-0.04921239 65:0.03029261 66:-0.020820998 67:0.040101498 68:-0.010755708 69:-0.02246838 70:-0.042310797 71:0.130232 72:0.17904154 73:0.055040033 74:0.065102015 75:0.0038950484 76:-0.14763831 77:0.0018192057 78:0.11256648 79:0.0084828642 80:-0.2042878 81:0.086374435 82:0.015799917 83:-0.093386472 84:0.048713543 85:0.052209054 86:-0.040747098 87:0.013331264 88:0.1022588 89:-0.05799375 90:-0.043929843 91:-0.091036192 92:0.060621368 93:-0.032559985 94:-0.11553199 95:-0.077276164 96:0.10267812 97:0.072574972 98:-0.18268623 99:-0.23156044 100:-0.047554703 101:0.27354174 102:0.067147813 103:0.024940107 104:0.14733019 105:0.090967487 106:0.15597942 107:-0.14819429 108:0.047330555 109:-0.041725228 110:-0.051066252 111:0.056792796 112:0.038717959 113:-0.051035755 114:0.046926233 115:0.036725666 116:0.075611341 117:0.02330969 118:-0.027248736 119:0.12732816 120:0.066348699 121:0.08150846 122:0.11338065 123:0.046576934 124:-0.023227874 125:-0.029238107 126:-0.055534962 127:0.17468649 128:0.050205899 
1 1:-0.065419719 2:0.091309473 3:-0.079082605 4:-0.056297923 5:-0.15386433 6:0.087727314 7:0.037810787 8:0.14895869 9:-0.010547502 10:0.12178607 11:-0.1201681 12:-0.052592214 13:-0.06204621 14:0.22145922 15:0.028140499 16:-0.025388077 17:-0.03394275 18:-0.075061081 19:-0.081985367 20:-0.042220753 21:0.1272302 22:0.041106402 23:-0.0038388985 24:-0.061759263 25:0.0011638614 26:0.13411678 27:0.088466082 28:-0.040928725 29:-0.12207207 30:-0.026060278 31:-0.080669232 32:-0.05152013 33:0.074286145 34:0.069220747 35:-0.023121122 36:0.016341001 37:-0.054699953 38:-0.067557605 39:-0.0092757443 40:-0.0394536 41:0.068608374 42:0.13792797 43:-0.14405673 44:-0.033730503 45:0.07992325 46:-0.063233794 47:8.7072098e-05 48:0.16429661 49:0.11174032 50:0.051749123 51:0.10389132 52:-0.078958694 53:0.052308353 54:-0.020739588 55:-0.067705785 56:-0.044370671 57:-0.0064580189 58:0.010549863 59:-0.118696 60:-0.076220869 61:0.09572971 62:0.056233902 63:0.021941027 64:-0.019712669 65:0.031340084 66:-0.082129935 67:0.0069785292 68:0.067870388 69:0.045586892 70:-0.10388666 71:0.074057596 72:0.14216285 73:0.0052343516 74:0.11531155 75:0.065531562 76:-0.10674681 77:-0.023469366 78:0.084979785 79:-0.014966383 80:-0.16920833 81:-0.089845642 82:-0.019991111 83:-0.03822174 84:0.032951794 85:0.10155856 86:-0.049861725 87:-0.0048160095 88:0.060746933 89:-0.11047512 90:-0.048441827 91:-0.092234312 92:0.025193859 93:-0.025465104 94:-0.089097555 95:-0.088411888 96:0.058790201 97:0.0067298504 98:-0.17692186 99:-0.14312632 100:-0.029066387 101:0.32432618 102:0.10217412 103:-0.0053612699 104:0.065099892 105:0.096713827 106:0.24727221 107:-0.13532728 108:0.02161713 109:-0.0053850512 110:-0.072272339 111:0.062169746 112:-0.013330725 113:0.003494813 114:0.073104298 115:0.043218474 116:0.13181608 117:-0.03246892 118:-0.015781486 119:0.16213701 120:0.069002001 121:-0.014207641 122:0.17833429 123:0.017663382 124:-0.044083461 125:-0.027150154 126:-0.04201786 127:0.06109257 128:0.1119181 
